svm_type c_svc
kernel_type polynomial
degree 1
gamma 78125
coef0 0
nr_class 2
total_sv 210
rho 0.030199
label 0 1
probA -0.784749
probB -0.00828892
nr_sv 107 103
SV
4.634203402689121e-008 1:-0.5754567 2:1.3508642 3:-1.467702 4:1.6603431 5:-0.20887795 6:0.0061811767 7:-0.13021348 8:0.62945314 9:-0.44141434 10:0.43272058 11:-0.40925843 12:1.2649492 13:-2.0581555 14:1.2812519 15:-0.54927995 16:0.16328719 17:-0.22413296 18:0.28517694 19:-0.73572919 20:0.33952007 21:-0.18460535 22:-0.15940419 23:1.1627629 24:0.37209601 25:-1.2875874 26:0.353044 27:-0.48462461 28:1.503448 29:-1.2739291 30:1.8524224 31:-1.0431633 32:0.49987176 33:-0.0079381217 34:0.66201215 35:-1.4586552 36:2.1490982 37:-0.50433285 38:2.07122 39:-0.22607135 40:-0.25342025 41:1.7093389 42:-1.2863018 43:2.7953601 44:0.25586794 45:2.1465126 46:-1.6571925 47:-1.2636697 48:2.6097077 49:1.2936257 50:-0.98827671 
5.12e-007 1:0.41515463 2:1.5953314 3:0.54967171 4:-1.4642368 5:-0.91159622 6:-0.32276213 7:0.10719316 8:1.1562365 9:-0.44701957 10:-0.060844405 11:-1.0953904 12:-0.71843038 13:-1.0301778 14:-0.038962194 15:0.63129655 16:-0.49366361 17:-0.44818389 18:-0.11425815 19:-0.76398763 20:-0.3284273 21:0.41345618 22:-0.4885582 23:0.29917818 24:0.0046862564 25:-0.09061235 26:0.77754394 27:-0.3512131 28:0.46163469 29:-0.43735613 30:-0.69836991 31:0.53203704 32:0.59938509 33:0.37018467 34:-0.46168403 35:0.035851752 36:0.094052859 37:0.22465402 38:0.19103384 39:1.0436487 40:-0.30692158 41:-0.066352616 42:-0.15391939 43:0.10167808 44:-0.86592558 45:-0.57677793 46:0.22450461 47:-0.64720564 48:1.6396507 49:0.47783637 50:0.84214353 
5.12e-007 1:-0.91520894 2:1.1449874 3:-1.4146435 4:1.5509107 5:0.51773531 6:1.316918 7:-1.4911431 8:-1.5505599 9:-1.1759354 10:-0.15283517 11:0.031608932 12:-0.73762833 13:1.3268058 14:-1.0469176 15:-1.4514654 16:-0.50989689 17:1.6685143 18:-0.83350696 19:0.93608349 20:-0.66039317 21:0.87619459 22:0.87835332 23:0.66073519 24:-0.90177994 25:-2.2244303 26:1.3599634 27:0.41904514 28:0.93368807 29:-0.69656506 30:0.21416767 31:-1.0896516 32:1.4331014 33:-3.4179804 34:-0.036020448 35:-1.938205 36:-1.2660468 37:-0.69381009 38:1.0088875 39:-0.83147563 40:-2.1418932 41:0.80309927 42:-1.5171334 43:-2.2509655 44:-1.6752528 45:0.025413887 46:2.5801498 47:0.12249375 48:1.5761364 49:-0.92967405 50:-1.1391298 
5.12e-007 1:-0.67490664 2:1.5108011 3:1.8830601 4:-1.01672 5:0.74986165 6:0.78721696 7:-0.3540799 8:-0.39103143 9:-0.18840381 10:0.60882335 11:-0.32025912 12:-0.23500402 13:0.20177007 14:0.29670565 15:-1.0089401 16:0.81553533 17:0.36567925 18:-0.46960707 19:-0.19008203 20:-0.02311717 21:0.72888952 22:-0.81129102 23:-0.71727049 24:1.391976 25:0.74427244 26:0.88349391 27:-0.28304233 28:0.053540948 29:0.074467439 30:-0.17892805 31:-0.35528655 32:1.3132089 33:0.19660506 34:1.0925525 35:0.38216079 36:-0.38080933 37:0.1154035 38:-1.5977864 39:-0.16286664 40:0.57880337 41:-0.45018628 42:0.011424301 43:-0.041500616 44:-0.3800372 45:-1.3212157 46:-0.47354419 47:0.49846482 48:-0.33937866 49:1.5226252 50:0.67017734 
5.12e-007 1:-0.22311103 2:-0.64919557 3:0.39814047 4:-0.18402891 5:0.30936007 6:-1.6835224 7:-1.4451362 8:0.064365889 9:1.2148029 10:0.043837989 11:1.6266096 12:-0.27055742 13:-0.71435269 14:1.3428335 15:-0.34470643 16:-0.88699251 17:-0.075459724 18:-1.6288632 19:0.79872267 20:0.96359548 21:-0.60080768 22:-0.33365231 23:1.3577928 24:-1.7020966 25:-0.79445377 26:-2.8343395 27:-0.058417002 28:0.46417963 29:0.53222774 30:-0.85592462 31:-0.31953394 32:1.3526193 33:-0.71603553 34:-1.1708745 35:1.0519016 36:0.15071329 37:-0.4935442 38:-1.1584773 39:0.065008674 40:2.5877773 41:0.53342357 42:-0.11070702 43:-0.54771977 44:-0.15425153 45:0.099080679 46:-0.52670629 47:-1.8629852 48:0.96362143 49:-0.24776777 50:0.55943321 
1.951617650684039e-007 1:-0.68237188 2:-0.65973428 3:0.22970316 4:-0.36769669 5:1.8670655 6:-0.0038580317 7:-0.094270257 8:1.2908305 9:0.50380365 10:-0.032687734 11:0.86917222 12:-2.0021126 13:1.4241267 14:-1.2181271 15:-0.033662791 16:-0.61060715 17:-2.9701229 18:1.052204 19:-1.3326476 20:0.18987092 21:0.77403049 22:-1.0807679 23:1.1261367 24:-0.49596431 25:-0.80541049 26:-0.43880579 27:1.1149097 28:0.20766886 29:-1.7895385 30:-0.75800454 31:-1.0636331 32:-0.80128993 33:-0.71178412 34:-0.81356271 35:0.574543 36:0.77795243 37:-0.43498018 38:-0.77663174 39:0.16239394 40:-0.63910756 41:0.2093744 42:0.41235377 43:1.0682147 44:-0.76092206 45:1.0999821 46:0.49985686 47:-0.12967348 48:-0.41882909 49:1.0644975 50:0.7503177 
5.12e-007 1:-0.57486234 2:-0.16648849 3:0.11393528 4:-1.3862195 5:-1.8056164 6:0.43603406 7:1.0735438 8:-0.53394777 9:-1.8314512 10:-0.92459769 11:0.9138429 12:-0.94364603 13:-0.74055116 14:0.22340918 15:-1.1694894 16:-0.10169228 17:0.72472214 18:-0.56867668 19:0.54100816 20:-1.8918963 21:-1.3233205 22:1.6022507 23:-1.5275294 24:-1.0916134 25:1.5491869 26:0.68027746 27:0.1187745 28:1.2106358 29:-0.66637856 30:-0.18667724 31:-1.2678786 32:0.16438439 33:-0.011732618 34:0.97694184 35:0.6630023 36:-0.21211183 37:-0.31146034 38:0.079865771 39:-0.27577972 40:-0.46082202 41:1.2406353 42:1.4036791 43:-0.11857866 44:-0.35473761 45:0.79969322 46:2.3520384 47:-0.56616885 48:-0.48418463 49:1.1173203 50:2.3551029 
5.12e-007 1:0.52566321 2:-0.07550443 3:-0.09659095 4:-1.0678717 5:-0.27899036 6:0.7097253 7:0.57723361 8:0.384493 9:1.4538823 10:-1.0038645 11:-1.8509138 12:0.021117959 13:0.97658578 14:-0.18791795 15:0.2184732 16:1.8890679 17:-1.1202902 18:0.035892166 19:-0.53465273 20:0.18845792 21:0.80149131 22:0.99736119 23:-1.0980775 24:-0.21513557 25:-0.10519334 26:-0.62998557 27:-0.74730687 28:1.2547898 29:2.3571078 30:-0.36412818 31:1.5285729 32:0.69057109 33:0.16751433 34:0.55771494 35:0.4841805 36:0.90364546 37:-0.59857377 38:-0.74753605 39:0.19200466 40:0.63139968 41:1.2510218 42:0.57122579 43:0.30699007 44:1.6915626 45:-0.84095555 46:0.7582136 47:1.7201707 48:0.72181082 49:-0.1687828 50:-1.4618489 
3.549803929839955e-007 1:-0.62062861 2:-0.42756627 3:0.53491033 4:0.031427044 5:1.1256219 6:0.55726782 7:0.669426 8:0.79654068 9:0.55526472 10:-0.89469354 11:-0.0030565341 12:1.6822604 13:1.9110471 14:-1.1828697 15:-2.7533673 16:1.299104 17:-1.3144317 18:-1.6326367 19:-1.9115339 20:-0.16335243 21:-0.1928327 22:0.64820626 23:1.3426222 24:1.0916217 25:-1.3667606 26:1.6820129 27:1.1348443 28:-0.75264307 29:0.3233809 30:1.144512 31:-0.23909524 32:-0.22623308 33:-0.87074963 34:-0.17842274 35:-0.089223425 36:1.3976901 37:1.1032176 38:0.14285994 39:-0.29809869 40:-0.37259514 41:-0.54818073 42:-1.6952609 43:0.014218582 44:1.4683312 45:-0.14835773 46:-0.063846421 47:-0.26815721 48:-0.49570057 49:0.18865433 50:0.12278697 
1.812762720290464e-007 1:-0.056393371 2:-0.12027935 3:-0.30468384 4:-0.75875011 5:-0.2257232 6:-0.60967791 7:0.85844866 8:1.4995351 9:0.43945884 10:-1.4655089 11:-0.75479408 12:1.5912997 13:0.47392188 14:-0.79818482 15:0.72688569 16:0.11731699 17:1.8696815 18:-0.36472273 19:0.77819932 20:0.63713541 21:0.3560062 22:-1.5536797 23:-0.82620244 24:-0.8829414 25:1.1135667 26:0.74506951 27:-1.6752463 28:1.1815851 29:-0.01479234 30:-1.0631946 31:1.2106045 32:-0.56234525 33:-0.71236424 34:-1.2871491 35:0.49232171 36:-0.10008911 37:-0.54604732 38:1.6073659 39:-0.68986506 40:-0.20145842 41:0.0056161087 42:0.81586381 43:-0.2556549 44:-0.012466018 45:1.4428779 46:-2.1754224 47:-0.15448901 48:1.6020135 49:1.6942028 50:1.0381343 
4.086029705021363e-007 1:-0.23968117 2:0.66220179 3:-0.46479734 4:-0.32363877 5:0.17387213 6:-1.5079626 7:1.4854828 8:-0.82313551 9:-1.8120646 10:-0.55732684 11:0.78425694 12:0.82941292 13:0.095916354 14:-0.92906908 15:-0.16618511 16:-0.56687692 17:0.65733319 18:-0.99899558 19:-1.33987 20:1.1138969 21:1.5356643 22:-0.93623036 23:2.5044241 24:-0.35745826 25:1.1500625 26:-0.43407846 27:-0.50624977 28:-0.38285398 29:-1.1505472 30:-0.33184556 31:1.5889629 32:0.60413308 33:0.19969298 34:0.29708187 35:-0.74753212 36:-0.54032397 37:0.57843601 38:2.2150138 39:2.15533 40:-0.50190824 41:0.03450177 42:0.96083903 43:-0.79024351 44:-0.4231812 45:-0.059977176 46:-0.61408096 47:0.29289204 48:1.1610418 49:-1.705218 50:-0.62533462 
5.12e-007 1:0.26569139 2:-0.12673044 3:0.50508514 4:-0.10381253 5:1.42256 6:0.67828103 7:0.27781867 8:-1.5369452 9:0.35739701 10:-0.047649093 11:1.108463 12:-0.32687827 13:0.69865625 14:-0.57002636 15:2.1399262 16:-0.20261901 17:1.4368281 18:0.39061811 19:-0.5218962 20:-0.45066701 21:0.61887301 22:-1.570779 23:1.3096925 24:-0.32865854 25:0.32590476 26:1.3343285 27:-1.1019426 28:-0.12495541 29:-1.333226 30:1.5187653 31:1.3056036 32:1.2787808 33:-1.0848473 34:0.53573054 35:1.94235 36:-1.387488 37:0.23141503 38:-0.11331052 39:-0.23997721 40:-0.48136337 41:-0.078328873 42:1.2157501 43:1.0043722 44:0.85914298 45:0.92322938 46:0.90286806 47:0.63506415 48:0.3863343 49:-0.45351841 50:0.51378831 
5.12e-007 1:0.31784765 2:-0.73139632 3:-1.4040704 4:0.0049978441 5:0.82290586 6:2.0434151 7:1.2357812 8:0.42199664 9:0.71838504 10:-0.84207064 11:0.62075705 12:1.1878262 13:0.28371961 14:0.54837322 15:-1.1037476 16:0.96490388 17:0.18412422 18:1.0443043 19:1.0952391 20:0.048071203 21:-0.96535105 22:0.82914959 23:-1.2858194 24:-0.2387809 25:-0.47172451 26:0.83520156 27:-0.90528706 28:2.0454217 29:-1.6144859 30:2.3575228 31:0.77551946 32:0.99431413 33:0.31635567 34:1.0381232 35:-0.7893571 36:2.2851218 37:-0.85416648 38:-0.46736112 39:0.5761316 40:-0.37141555 41:-0.025128188 42:-0.38898798 43:0.66352686 44:1.2067708 45:-0.38995715 46:1.2882833 47:0.23025531 48:-2.0728131 49:-0.4758786 50:1.9967902 
5.12e-007 1:0.061510051 2:0.71448689 3:0.045158234 4:0.25557512 5:-1.1376381 6:1.259062 7:0.11143291 8:0.0112176 9:1.4022374 10:0.87086918 11:-0.23409546 12:0.81069651 13:1.6100696 14:0.33810344 15:-0.27380999 16:-0.79507216 17:-0.018696466 18:1.5666015 19:0.083547753 20:0.18388248 21:-0.69768467 22:0.22946994 23:-0.52653393 24:2.7741908 25:0.93525821 26:-0.71264716 27:0.026996518 28:-1.2976623 29:-0.19516938 30:0.52727318 31:0.30009275 32:-1.5464588 33:-0.85234796 34:-0.77121889 35:0.0012006139 36:1.6708929 37:-1.5577055 38:-0.32128784 39:0.57590795 40:-0.19506135 41:-0.75687845 42:0.82441676 43:1.187583 44:-3.8723093 45:-0.5374629 46:0.79896521 47:-1.1999665 48:0.30585046 49:-0.82079298 50:-0.72180041 
2.277530259245814e-007 1:0.099842796 2:-0.25914856 3:-1.6225735 4:-1.0850714 5:0.78949178 6:-0.22379108 7:0.34234671 8:1.06555 9:-0.54966306 10:1.1401472 11:0.45794067 12:1.422235 13:-0.77271083 14:-1.226085 15:0.92812383 16:1.1012934 17:-0.14913582 18:1.6710869 19:1.3102495 20:-0.25308253 21:0.73970617 22:-0.16627467 23:1.9392909 24:-0.74438201 25:-0.71983314 26:-3.3151412 27:-1.1262872 28:-1.1505777 29:-0.033061552 30:0.041783208 31:0.62132517 32:0.66051772 33:0.62049404 34:-0.94301899 35:-0.36398475 36:-0.14669693 37:0.38398246 38:1.8245097 39:0.45412017 40:0.7166167 41:-1.6025592 42:-0.3586401 43:0.10077303 44:2.22431 45:0.73310973 46:1.6682485 47:-0.64279625 48:1.0944376 49:-0.38730811 50:1.6401583 
5.12e-007 1:-0.62901606 2:-0.32442389 3:-0.43104654 4:-0.15895512 5:1.3565435 6:-1.7405716 7:1.3185742 8:0.28867677 9:1.2273511 10:-0.043461373 11:-0.11708731 12:-0.98630572 13:-0.0282773 14:-0.085438698 15:-0.62025623 16:0.94181396 17:1.5723464 18:0.34493977 19:0.72920692 20:1.1606324 21:0.26061904 22:0.3363161 23:0.48137002 24:0.44394489 25:-0.33540832 26:0.035203662 27:1.3889702 28:0.47678361 29:0.39365271 30:0.36784425 31:1.011902 32:0.43049626 33:-2.0126108 34:0.66831426 35:-0.28111733 36:-0.16611323 37:0.18019876 38:-0.23897819 39:-0.72443103 40:1.0220713 41:0.110002 42:-0.39098675 43:-0.12123392 44:1.554705 45:0.16009816 46:-0.22576359 47:0.112087 48:-0.49456238 49:0.059909825 50:1.1467608 
5.12e-007 1:0.67507683 2:-2.4072181 3:-0.57176933 4:0.47069763 5:0.56668197 6:1.3770152 7:0.10369899 8:-0.2113922 9:-0.20393455 10:0.20155886 11:-0.066894693 12:-0.34433849 13:0.74377954 14:0.54213958 15:1.416152 16:-0.69673228 17:-0.18915015 18:0.3427684 19:-1.0548062 20:-0.92059861 21:1.0379694 22:-1.5839106 23:-0.28562701 24:-0.11073276 25:-0.6039808 26:-0.10841732 27:1.2777118 28:0.13268277 29:-0.64477827 30:0.36168089 31:0.024303087 32:-0.49868936 33:0.14856208 34:-1.5507107 35:-0.76371956 36:-0.60608188 37:-1.7375295 38:0.41343732 39:1.1663797 40:0.061813972 41:1.3081829 42:-0.32508853 43:-2.9150952 44:-0.080409661 45:0.50995476 46:1.546092 47:0.81662865 48:0.8783031 49:1.4894137 50:-0.66801326 
5.12e-007 1:0.67426554 2:-1.058427 3:0.12613998 4:-0.30159141 5:1.8704027 6:1.0732106 7:-0.3226446 8:-0.94104636 9:0.48084761 10:0.22856654 11:0.31987042 12:0.96172709 13:-0.75785156 14:0.011836963 15:0.40600645 16:0.6790026 17:0.4983284 18:1.2138259 19:-1.3197685 20:0.51472768 21:1.703976 22:0.82069192 23:0.6419431 24:0.067294198 25:-0.44786089 26:-0.35918381 27:-0.44865171 28:-0.58301422 29:0.10982873 30:0.016074728 31:-0.16017705 32:-0.45186463 33:0.96582533 34:0.75429372 35:0.91689316 36:0.36778109 37:-0.23789859 38:-0.6024371 39:-1.2226236 40:0.089617735 41:-0.31317734 42:0.14430438 43:-0.41224235 44:0.28403103 45:-0.13610388 46:-0.62934886 47:-0.041066999 48:1.0116678 49:-0.98535415 50:0.64434486 
1.377298009524397e-007 1:-1.034533 2:1.266981 3:-0.6671015 4:1.193497 5:0.42775062 6:2.0094338 7:-1.8363024 8:1.1529029 9:0.4281632 10:0.33408253 11:0.046343387 12:0.11552656 13:1.4970696 14:-0.23998852 15:-0.33041065 16:-1.1039281 17:-0.024784996 18:-0.91668404 19:-0.53993874 20:0.27141592 21:0.76710579 22:0.78323348 23:0.86290914 24:-0.1971224 25:-0.057271991 26:-0.67022561 27:-1.7454414 28:-0.35730218 29:-0.87412587 30:-2.1797555 31:0.84180679 32:1.3448868 33:0.77992119 34:0.73845281 35:0.67380984 36:0.70518944 37:-0.49001864 38:-2.197535 39:-0.639518 40:2.1233481 41:-0.57434981 42:-1.4080436 43:-0.17829657 44:0.2150399 45:0.49711435 46:0.01301909 47:1.2090953 48:-1.2532326 49:0.21580441 50:0.92609342 
5.12e-007 1:0.39394056 2:-0.39320436 3:-1.0595354 4:1.2214069 5:1.0917042 6:1.4101192 7:-0.74586408 8:1.8540786 9:-0.47267425 10:-0.10361546 11:-0.94417871 12:-0.89500065 13:-1.4243577 14:-0.90187071 15:-0.43339815 16:0.19363698 17:-0.70426684 18:-1.7501612 19:0.77019993 20:0.87725523 21:2.2529087 22:-1.0356383 23:-2.6978572 24:-0.61628736 25:-1.2505038 26:-0.0047315242 27:2.0117351 28:-0.93314759 29:2.247096 30:0.048650863 31:0.11661228 32:-0.46322725 33:1.6871586 34:-0.3826407 35:1.2413913 36:-0.24807633 37:1.8422274 38:-0.020732232 39:-0.10444026 40:-0.9277535 41:0.29848202 42:1.1064728 43:1.2434087 44:-1.5356425 45:-1.1053224 46:1.2195152 47:-1.5760057 48:-0.48613311 49:-0.23853036 50:2.3978104 
5.12e-007 1:-0.32759541 2:-0.16172224 3:-0.48276964 4:-0.90141045 5:-0.10813607 6:0.57562943 7:-2.1564936 8:0.059267987 9:-0.51850683 10:-0.63521282 11:-0.17357961 12:-2.4607195 13:-0.0040668273 14:0.39814247 15:0.62603115 16:-0.71821137 17:0.97006386 18:-2.7617728 19:1.5874849 20:2.01299 21:-0.37774383 22:-1.0104486 23:-0.22603013 24:2.0820197 25:-0.048015111 26:2.9461755 27:2.0677318 28:1.488549 29:0.40046187 30:0.58558478 31:0.6576907 32:0.28871922 33:-0.10541471 34:-0.60662712 35:0.76816563 36:1.816172 37:-1.370602 38:0.52487755 39:-0.6722055 40:-0.32317926 41:1.3708935 42:1.2520506 43:1.6110166 44:-2.306046 45:-0.32548051 46:-0.057853287 47:-0.15641746 48:0.97585643 49:-1.7342416 50:-2.5746129 
5.12e-007 1:-0.76257127 2:0.20125421 3:0.078874079 4:-1.5069547 5:0.73007785 6:1.470535 7:-0.67023041 8:0.73622707 9:1.870811 10:-0.96864056 11:2.5837367 12:0.20015294 13:0.039840498 14:0.39577039 15:-0.20093946 16:0.077481963 17:1.2801198 18:-0.65812668 19:-2.536061 20:2.7623765 21:2.66104 22:-1.606073 23:-0.32894377 24:-0.35943612 25:-1.0814079 26:-0.74633661 27:0.00043008679 28:0.90187687 29:1.2192966 30:0.086285466 31:0.36374546 32:-0.50999669 33:-0.44365436 34:1.17638 35:1.0369318 36:-0.97638423 37:1.2455042 38:0.51162672 39:1.6255638 40:0.48326266 41:-0.67652545 42:-1.0795363 43:-0.79663119 44:-0.88017492 45:-0.010510111 46:0.21780385 47:-0.1284356 48:-0.10002178 49:-0.31515482 50:1.1212936 
5.12e-007 1:0.090191622 2:0.92663359 3:0.67255518 4:-0.66252965 5:0.67644848 6:0.90947393 7:-0.70470267 8:-0.85988672 9:1.7540334 10:-0.60282172 11:-0.90570851 12:0.5402355 13:-1.1532968 14:-0.34607019 15:0.93491739 16:-0.23851752 17:0.80619436 18:1.0707314 19:-1.3854589 20:-2.3561244 21:0.51976591 22:-0.41544838 23:0.076434232 24:0.70969746 25:-0.64030903 26:0.27815113 27:-0.17326355 28:-0.72750345 29:1.0583198 30:-0.078627365 31:1.5976866 32:0.54941884 33:0.19670912 34:-0.16956789 35:-0.28324168 36:-0.029191448 37:0.80458882 38:1.1405317 39:-0.53633357 40:0.007391859 41:-0.35800292 42:-0.732951 43:0.24479406 44:-0.9574689 45:-0.66033618 46:0.20439116 47:-0.24929269 48:-1.6540485 49:0.32393798 50:-1.3895586 
5.12e-007 1:-1.5749118 2:-0.92156433 3:-0.62102716 4:-0.87803203 5:0.18406494 6:0.24912301 7:0.22111776 8:-1.6187864 9:-0.68574287 10:1.4014582 11:0.30325026 12:0.18811672 13:0.783249 14:2.2013532 15:0.19653558 16:-0.9503977 17:-0.50157989 18:-0.36361046 19:0.59055843 20:0.096358044 21:-0.66411662 22:-1.402589 23:1.0192822 24:-0.83522868 25:0.36061856 26:-0.082221011 27:-0.027980156 28:-1.6947897 29:-1.2217249 30:1.5620886 31:0.12784376 32:-0.35702874 33:-0.89898293 34:-0.8500959 35:0.73325356 36:0.74544784 37:1.748646 38:0.98657942 39:0.48769964 40:0.41894869 41:-0.91309668 42:-0.44108631 43:-0.50969529 44:0.58365579 45:0.095246092 46:0.41828552 47:0.53353877 48:-0.2011438 49:-0.0078799204 50:-1.4501554 
4.221289293531889e-007 1:-0.7726856 2:0.65429601 3:0.79655203 4:-0.78711602 5:-0.84781612 6:0.23624885 7:0.046637199 8:-0.83738964 9:0.55953227 10:-0.72142167 11:-0.83880017 12:-0.52340208 13:1.1413778 14:-1.3592931 15:-0.71490483 16:0.44743667 17:0.44720761 18:0.90441088 19:0.67637692 20:0.78147362 21:-0.16128331 22:0.838286 23:0.69524901 24:-0.83401212 25:0.21159349 26:0.71922401 27:-1.735768 28:-1.5222793 29:-1.5744249 30:-0.11249055 31:-1.2663159 32:-1.3264209 33:0.85506696 34:0.52612449 35:0.035343228 36:1.4036401 37:-1.0553598 38:-0.041384401 39:-0.68186539 40:-0.72188677 41:-0.59105169 42:-1.4671892 43:-1.1569919 44:0.27902609 45:1.5227402 46:0.10029761 47:-2.0870341 48:2.1025246 49:-0.81356359 50:-1.3561997 
3.004992443692444e-007 1:-0.64888284 2:-0.37740703 3:2.0104561 4:0.90352876 5:-0.31703441 6:0.37594826 7:1.1741904 8:-0.67528051 9:0.42456865 10:-2.0294633 11:-0.15741833 12:-1.4854909 13:0.39065882 14:-1.2559413 15:1.2003078 16:0.36370301 17:0.67688611 18:0.90978821 19:-0.3241296 20:-0.64088236 21:-0.20776645 22:-0.53488481 23:0.94936516 24:-0.99608093 25:-0.90388903 26:-2.1803898 27:2.6985926 28:-0.021616474 29:-0.37460762 30:0.0075547153 31:0.66752622 32:0.010751914 33:0.60249546 34:0.39540367 35:0.80661029 36:0.6820507 37:-1.0325419 38:1.0367488 39:0.56941007 40:0.89805882 41:1.0079633 42:-0.40378334 43:0.5458031 44:-0.4106777 45:-0.97855321 46:-0.58601612 47:0.15809196 48:-0.94545694 49:0.64569159 50:0.6151617 
5.12e-007 1:0.78371004 2:1.8861239 3:-1.613404 4:0.054256691 5:-1.017252 6:0.033901383 7:0.17657051 8:-0.090371139 9:0.43805344 10:0.79153747 11:-0.0067516991 12:0.68877887 13:0.65462201 14:0.74701359 15:0.016514118 16:0.85012895 17:-0.89298431 18:1.6690655 19:-0.24405755 20:0.24868359 21:1.1985648 22:2.2199611 23:0.98961474 24:-0.96110431 25:-0.67300876 26:0.19058958 27:0.40249556 28:0.75210341 29:-0.6603177 30:1.0260758 31:-0.65698282 32:-1.476358 33:1.3228343 34:0.27218488 35:1.0686957 36:-0.35601817 37:0.2471719 38:0.415629 39:0.43518396 40:-0.52241066 41:0.014215079 42:2.0095848 43:0.44863738 44:2.0224304 45:0.93504031 46:1.154538 47:-0.83425062 48:-0.98139906 49:1.0571228 50:0.94004207 
5.12e-007 1:-0.12516376 2:1.6728742 3:-1.6495685 4:-1.3406558 5:0.39809178 6:0.18213183 7:0.66351717 8:0.01497363 9:0.81680458 10:-0.38226074 11:-0.97889652 12:-0.17006118 13:0.61535342 14:-0.43081767 15:1.0177432 16:-0.34762367 17:1.0257098 18:-0.66266361 19:-1.0294595 20:-0.0031538388 21:0.17597344 22:-0.93096468 23:-1.2435496 24:-0.58158012 25:-0.30869834 26:-0.00060754471 27:0.97086006 28:-0.57960506 29:0.31338622 30:0.44912072 31:-1.0547318 32:1.8280287 33:-0.45570786 34:-0.41861493 35:0.84487134 36:-0.95662046 37:-0.16112893 38:-0.56155705 39:-0.13299338 40:-0.89194614 41:-0.30384857 42:0.1991011 43:-0.093574496 44:0.21472796 45:0.16474542 46:-0.74322532 47:1.3158344 48:-0.9590496 49:0.25401289 50:1.0881588 
5.12e-007 1:0.033314508 2:1.5942275 3:0.76400599 4:0.18866757 5:0.80693966 6:-0.60623274 7:0.31669131 8:-0.41015133 9:-0.58336972 10:-0.47954437 11:-1.4162334 12:1.5739226 13:-0.3043732 14:0.5261644 15:0.044042037 16:0.57514916 17:-0.36497246 18:1.0108284 19:0.20963797 20:-0.25408588 21:0.017292049 22:0.034068677 23:-0.81416799 24:1.2103862 25:-1.3810178 26:0.04763803 27:-0.30078414 28:0.81198425 29:-1.5903227 30:0.24218995 31:-1.1187157 32:0.41577774 33:1.4810171 34:0.24919296 35:-0.85485514 36:0.41613069 37:0.70322833 38:-0.58886802 39:0.44912001 40:2.4243955 41:-0.7172635 42:-0.081558013 43:-1.2180411 44:1.1892556 45:0.011012127 46:0.097203815 47:-0.13106461 48:-0.69733238 49:-0.45028628 50:-0.40426303 
5.12e-007 1:-0.72412143 2:-1.5517793 3:0.49586254 4:-0.51699659 5:-1.4137729 6:0.74105834 7:-0.40254595 8:-0.92021398 9:0.95618335 10:-0.6061243 11:0.26794085 12:-0.83928409 13:1.3932084 14:-1.1934057 15:0.44950107 16:-1.4528927 17:-0.86098067 18:0.62962817 19:0.57526053 20:-0.98254154 21:0.74236161 22:-0.57727226 23:-0.69661398 24:-1.1529962 25:-0.37233622 26:-0.55007501 27:0.46153687 28:0.30710331 29:-0.21913281 30:0.45296513 31:1.4611413 32:0.28061031 33:0.18764489 34:0.71638059 35:-0.097733366 36:-0.64038491 37:-1.2905118 38:-0.67697933 39:-1.1334726 40:-0.16536816 41:-0.28370974 42:-0.58980227 43:-1.8703913 44:-0.40691073 45:0.83687412 46:0.25877019 47:-1.5082629 48:0.59067327 49:-0.98834406 50:1.3286084 
5.12e-007 1:-0.26400618 2:-0.66115194 3:-0.63959481 4:-0.86739468 5:0.56089455 6:-0.90823706 7:0.25313835 8:-0.34676625 9:1.475497 10:-0.51845876 11:-0.89203885 12:-0.030248822 13:-0.11701455 14:-0.28917005 15:-0.19098842 16:-1.6738444 17:0.58106767 18:-0.10263297 19:-0.7706002 20:-0.86929832 21:1.3625012 22:0.44636346 23:-0.70210993 24:0.3516082 25:0.62916855 26:-0.94097542 27:0.0053199715 28:0.38318794 29:0.38463242 30:0.67180141 31:-0.36567879 32:-0.27289718 33:-0.84184682 34:-1.224985 35:-2.1235462 36:-0.97225524 37:1.8494108 38:1.4545009 39:0.53699968 40:-0.88204558 41:1.0209971 42:0.10985078 43:-0.57629806 44:1.0937301 45:-1.434168 46:0.097079143 47:0.45763914 48:-0.98778699 49:-0.3885414 50:-2.182788 
5.12e-007 1:-0.81432598 2:-0.17140515 3:1.1196171 4:-0.3477351 5:0.5741853 6:0.37094174 7:0.22225151 8:0.14517133 9:0.11297259 10:-1.0110063 11:1.9952124 12:0.11243664 13:-0.73050016 14:0.67871916 15:0.11767373 16:-0.0060336102 17:0.80357223 18:0.0019772474 19:-1.1429946 20:0.0042877386 21:0.45178606 22:1.0712675 23:-0.73536483 24:0.11940427 25:-0.22616737 26:-1.5312781 27:-0.59302927 28:0.4413307 29:-1.5333143 30:-0.20299958 31:-0.49513132 32:-1.078163 33:-0.38290824 34:0.70164542 35:-0.32489758 36:-1.9257902 37:0.032612279 38:0.70514476 39:-0.24842344 40:-1.6337738 41:2.3931897 42:0.88045769 43:0.4177571 44:0.49874306 45:0.50055578 46:0.056663139 47:-1.4913053 48:-0.22686184 49:-0.50622031 50:-0.25487033 
2.906689351572014e-007 1:-0.017613142 2:-0.21011464 3:0.047050328 4:0.63028031 5:0.52152008 6:-0.058236477 7:1.4202955 8:0.15101612 9:-0.39620911 10:-2.7673791 11:-0.72494647 12:-0.26369264 13:1.61045 14:-2.3473611 15:0.85015356 16:0.39770863 17:0.27356418 18:0.2032192 19:-1.0370035 20:0.25878173 21:-2.328675 22:-0.53206565 23:-1.326955 24:-0.19110863 25:-2.1855461 26:-0.66541867 27:-0.61737623 28:1.1829807 29:-1.711526 30:-1.4468109 31:-2.8900319 32:1.1408265 33:0.055981602 34:-0.4822811 35:-1.4695261 36:-1.7856011 37:0.4485585 38:0.22460004 39:-1.511163 40:0.52331103 41:0.93533856 42:-0.70003717 43:1.2093738 44:1.0268753 45:-0.72831719 46:1.3824149 47:0.33716726 48:-0.86371861 49:-0.86774083 50:-2.0385871 
1.28080357457466e-007 1:-0.55791278 2:1.5768804 3:0.68560523 4:2.182326 5:1.1836731 6:-0.46319466 7:-0.10574926 8:0.45770549 9:-0.34432861 10:0.5348178 11:0.45725221 12:-0.16412387 13:1.7547828 14:-0.052427408 15:0.23002685 16:-0.33304698 17:-0.33918935 18:-0.61931435 19:1.6812809 20:-0.052603034 21:-0.49808404 22:-0.67047438 23:0.55192723 24:-1.0088149 25:0.19017719 26:0.50908674 27:-0.66575228 28:-0.53753021 29:1.4495232 30:0.47459444 31:0.58865313 32:-0.78460966 33:1.0271005 34:-0.35420063 35:1.0863203 36:1.3770633 37:0.34027685 38:1.0759179 39:-0.23950672 40:0.089775572 41:0.97342318 42:-0.61493418 43:-0.51385155 44:0.91496817 45:0.50585646 46:-0.46133065 47:-1.5545346 48:-0.49443495 49:1.1577282 50:-0.070451482 
1.968353750389093e-007 1:-1.2155813 2:-1.3077231 3:-1.2655691 4:-0.67114786 5:0.12386783 6:0.16414576 7:0.5819239 8:1.2948683 9:-1.3028032 10:-1.1864476 11:0.6245048 12:-1.1006899 13:-0.47086607 14:0.43979681 15:0.27280553 16:-1.1084831 17:1.1773178 18:-0.031355646 19:-0.43599221 20:0.090828795 21:1.598392 22:1.0580124 23:-1.4837592 24:0.33979044 25:-0.97635468 26:-0.18745178 27:-1.1584254 28:0.22732767 29:-0.15631139 30:-0.089636266 31:-0.71123578 32:-0.33994154 33:-0.66753774 34:-0.49035141 35:-0.38139377 36:1.0452663 37:-0.1490728 38:0.5274441 39:1.8494413 40:-0.80691276 41:0.3208106 42:0.9623594 43:0.34753522 44:-0.56830917 45:0.49768899 46:0.19144461 47:0.17031048 48:-0.98275906 49:2.0687323 50:0.31660305 
5.12e-007 1:0.085004103 2:-0.53183681 3:-0.036058038 4:-0.024653938 5:0.59779647 6:-0.28885685 7:-0.31124731 8:0.42579997 9:1.1115189 10:-0.20457243 11:-0.10011886 12:-0.64687482 13:-1.0546464 14:-1.040538 15:-1.1034331 16:-1.6575979 17:0.2225716 18:0.66900463 19:-0.4046077 20:-0.94105095 21:-2.229673 22:-0.50818115 23:-0.7170496 24:-0.42573905 25:0.73113759 26:1.086864 27:-1.5229903 28:-3.2080371 29:0.35353944 30:-0.19246388 31:-0.61158328 32:-1.0149061 33:-1.497126 34:2.3947102 35:0.48231036 36:-2.5879852 37:-2.2034071 38:3.2761829 39:2.6954509 40:0.045438348 41:-1.8016322 42:-0.89254762 43:0.37405174 44:1.5013853 45:-2.0785008 46:-1.452779 47:0.67275079 48:-0.85635671 49:-1.6464078 50:1.9284706 
5.12e-007 1:0.42449236 2:0.90639764 3:-1.7124708 4:-0.072931148 5:-0.55469693 6:-0.14548172 7:-0.30918282 8:-0.31209624 9:0.52468873 10:1.2623582 11:-0.18353962 12:-1.8359874 13:-0.097535037 14:-0.79112466 15:-0.79614006 16:-1.128658 17:-0.39138933 18:-0.68276421 19:0.9106764 20:0.82460692 21:-0.13211474 22:-1.6470602 23:-1.076065 24:-0.79729402 25:0.5641959 26:0.29218611 27:0.31136814 28:-0.46016496 29:0.0012900682 30:0.062934099 31:2.2546244 32:1.2545326 33:-0.71349287 34:0.30126899 35:-0.3213186 36:0.39126218 37:1.8168213 38:-0.62565869 39:-0.16998995 40:0.31161364 41:-1.5059992 42:-1.8338184 43:-1.4777535 44:-1.2708772 45:-0.34626758 46:-0.68785578 47:0.62143053 48:1.195266 49:-0.84687603 50:-0.25298524 
5.12e-007 1:-0.96689173 2:-0.93399316 3:1.4852358 4:1.8252448 5:-1.013875 6:-0.022332519 7:-0.4623605 8:1.8076268 9:-0.93292757 10:0.64170192 11:1.5957558 12:-0.25818514 13:-1.9878247 14:-2.5886944 15:2.554823 16:1.2978689 17:-0.01318058 18:-1.5896489 19:-0.59739774 20:-1.9264776 21:-0.97613014 22:1.3147148 23:-0.086850461 24:-0.042815493 25:0.16902119 26:-1.6312754 27:0.55766081 28:-0.82787338 29:-1.8343206 30:1.517231 31:-1.3626131 32:-0.86901688 33:0.91193885 34:0.041769292 35:2.3939242 36:-0.91533674 37:0.68957927 38:-0.45953543 39:-1.5172944 40:0.36747461 41:0.20056108 42:-0.58764106 43:-2.269861 44:-1.2684212 45:1.0014615 46:-1.327563 47:2.1496143 48:-0.4582449 49:-0.10706658 50:1.103579 
1.285787416303806e-007 1:-0.51630376 2:1.0573364 3:0.65218967 4:-0.090913246 5:0.41383358 6:-1.4713824 7:-0.05913331 8:-0.12119273 9:-0.89676135 10:-0.47740537 11:1.0530198 12:-0.52582635 13:-0.59881766 14:0.97295982 15:0.060697426 16:0.97380305 17:1.4657804 18:-0.40265771 19:-0.3466152 20:-1.2888488 21:-0.66126197 22:-0.035721105 23:-1.2780472 24:0.82218121 25:1.3153506 26:-1.4449483 27:0.4810067 28:-0.88999865 29:-0.017691388 30:-0.36310502 31:2.812038 32:-0.60460403 33:0.24029625 34:-1.3560895 35:-0.8112775 36:0.35157048 37:0.66486036 38:0.82297507 39:-0.89412506 40:-0.54993281 41:1.4242715 42:-0.31505323 43:-1.7158039 44:0.6447176 45:1.2169342 46:-0.39039297 47:-1.9788491 48:0.87156359 49:0.87440216 50:-0.78508653 
5.12e-007 1:-1.3263181 2:-1.9352375 3:-0.71409027 4:0.1140788 5:0.85813196 6:-0.11136311 7:1.6624781 8:1.5395016 9:-1.9641076 10:0.088343927 11:-1.3396826 12:-0.13326323 13:-1.124607 14:-0.18650747 15:-0.1602337 16:-0.23411022 17:-0.18723235 18:1.45809 19:-0.68161885 20:-0.54794157 21:1.2577049 22:0.17077669 23:0.69908714 24:0.30538379 25:1.2601339 26:-0.9468307 27:-0.34131204 28:0.2026241 29:-2.0183356 30:0.54595335 31:-0.04685097 32:0.1849378 33:-1.3660071 34:0.2939744 35:1.8638134 36:0.14353592 37:0.2238451 38:-0.53731375 39:-0.37440989 40:-0.56557363 41:-0.66008888 42:1.6507154 43:0.025758245 44:-0.53722464 45:0.66857155 46:-0.4709451 47:-0.29581601 48:0.71006076 49:1.1576533 50:0.038755844 
5.12e-007 1:-0.22926876 2:-0.098901347 3:1.1404798 4:1.0215596 5:0.17574627 6:-0.17826278 7:0.4959225 8:-0.24854192 9:0.21857921 10:-0.77124897 11:-1.7324834 12:-0.13500022 13:-0.95464943 14:-0.6839662 15:-0.7466315 16:0.10604881 17:-0.39338195 18:2.0358422 19:-0.86892106 20:2.1413698 21:0.14276656 22:-1.5124954 23:-1.3088537 24:-1.2416291 25:-0.559583 26:0.029945544 27:0.28313037 28:0.77393171 29:0.55395638 30:1.2660987 31:-0.37350865 32:-0.7754883 33:-0.3647849 34:-1.0666232 35:0.79728951 36:-1.3784107 37:-0.27698333 38:1.9921765 39:0.4754664 40:0.60141214 41:-0.87816985 42:-1.1380323 43:1.1166547 44:0.060351079 45:-3.6757015 46:-0.57206956 47:-0.18946662 48:0.023729964 49:3.4153887 50:-1.3426522 
5.12e-007 1:-1.4710469 2:-1.2895101 3:0.69005016 4:0.53293413 5:-2.3581361 6:-1.1526619 7:-0.052294677 8:0.69701691 9:0.27067283 10:0.56392097 11:-0.45794026 12:0.15520529 13:0.27857128 14:0.14837759 15:-0.10488471 16:-1.8509757 17:0.16818289 18:-1.0180324 19:-0.070754331 20:-0.84683605 21:0.73837756 22:-0.25463946 23:-0.70676662 24:1.00241 25:0.991711 26:0.44083703 27:1.3837736 28:0.897179 29:-0.24194165 30:-0.90689631 31:0.41732569 32:-3.865882 33:1.8392985 34:0.92827598 35:0.63102547 36:0.45130479 37:1.4642654 38:-1.0800539 39:-1.0773362 40:2.5432269 41:-1.8602553 42:3.1625179 43:-1.5342745 44:1.777313 45:-1.5716135 46:-0.61009767 47:-0.11654744 48:-0.56978151 49:-0.54559613 50:0.41728268 
2.017790365380139e-007 1:-0.90798205 2:-1.314264 3:0.50831402 4:0.49033354 5:-1.792189 6:0.80519338 7:1.0063243 8:0.0020573127 9:0.72539799 10:1.2641493 11:0.70953441 12:1.7528838 13:-0.82728012 14:0.68521861 15:-0.80419391 16:1.7634859 17:-0.4200999 18:-0.055650392 19:-1.567331 20:0.035947901 21:-0.17001342 22:-0.33443163 23:-1.8534442 24:-1.1935574 25:-0.72905638 26:-1.091568 27:-0.51971498 28:2.2594866 29:1.0597383 30:-2.7698167 31:-0.87313541 32:0.59384972 33:-0.55512765 34:0.46644749 35:-0.075973991 36:3.0457897 37:-2.4803872 38:1.2496555 39:-1.749111 40:-1.9814305 41:-3.3728571 42:0.56972568 43:-1.6490409 44:-1.4877364 45:1.4991417 46:-2.170585 47:-0.0022187207 48:0.3286836 49:0.96737222 50:-1.6893745 
5.12e-007 1:0.05280022 2:0.3680161 3:-0.9132577 4:3.7453277 5:-0.48360394 6:0.36845932 7:-0.79121355 8:-0.0029593691 9:0.89222701 10:-0.70393791 11:0.41943374 12:1.2733554 13:-0.074232634 14:0.62107396 15:-0.44308999 16:1.8225582 17:-0.67100395 18:-0.5179681 19:-1.724214 20:2.044238 21:-0.63503759 22:0.32025679 23:-0.41097343 24:1.1007859 25:0.72723557 26:0.7838031 27:2.1306528 28:-0.69384949 29:-1.7761818 30:-3.4640189 31:0.19145014 32:3.2130389 33:-2.9997373 34:-1.0711937 35:-0.96789023 36:0.47853598 37:-0.13788457 38:-1.4809671 39:2.1360576 40:-0.25122334 41:-1.1903334 42:2.0547542 43:1.6781721 44:-1.9684053 45:0.18801185 46:1.0392989 47:-1.2255291 48:1.4226519 49:-1.2149963 50:0.21342843 
5.12e-007 1:-0.40762736 2:-1.1245262 3:0.085441842 4:0.55949174 5:0.64829716 6:0.19156197 7:-0.3296141 8:0.65859663 9:0.82389955 10:0.13267865 11:0.24632541 12:-1.8076986 13:-1.0203791 14:-0.50894351 15:-2.4300497 16:-0.97126609 17:-1.8590507 18:-0.46347675 19:0.014973635 20:0.54098278 21:0.016481276 22:-0.24572214 23:0.64145786 24:-0.41825087 25:-1.4502435 26:1.1558665 27:-0.78041914 28:-0.18538957 29:-0.49597003 30:0.037008772 31:-0.93627062 32:0.99205304 33:-0.33763743 34:1.063777 35:-2.7647035 36:-1.0807995 37:0.62532712 38:0.73844784 39:-2.9876576 40:0.61267595 41:-0.76332814 42:-0.94080522 43:1.5235797 44:1.0435088 45:2.3732239 46:1.2331261 47:-0.93475002 48:0.86001429 49:0.60177592 50:0.74312024 
5.12e-007 1:0.29573998 2:1.0460538 3:0.41916916 4:0.34183396 5:0.069248999 6:0.6436323 7:-0.60562341 8:-0.42197528 9:-0.95415716 10:-0.0087278438 11:0.023989191 12:1.2870225 13:-1.168726 14:-0.17789671 15:0.7716688 16:0.037258504 17:-1.2378341 18:-1.5488131 19:0.49402873 20:0.29986332 21:0.86317644 22:0.71033591 23:-1.3068494 24:0.70270148 25:-0.12405518 26:-0.78874929 27:-1.225738 28:0.40991235 29:-0.83096251 30:1.3716893 31:0.57231502 32:2.3658459 33:-0.16402831 34:-0.503754 35:-0.56555832 36:1.2812543 37:-0.11203598 38:0.99936455 39:1.2479844 40:0.0084461753 41:-0.93650462 42:-2.9442387 43:0.22441459 44:0.098127444 45:1.4987433 46:-0.052299986 47:1.9142402 48:-0.89677196 49:0.61234531 50:0.35599527 
8.736105505223133e-008 1:-0.27737626 2:0.96605088 3:1.6769067 4:0.43904297 5:-0.35720872 6:-1.2490466 7:-0.48460704 8:0.56744907 9:-0.27526954 10:0.42609728 11:-0.024567869 12:0.20765954 13:-0.12465938 14:-0.032133644 15:0.65291288 16:0.1284341 17:-0.4715706 18:0.58612348 19:0.018247426 20:0.13335077 21:-1.016193 22:0.72981545 23:-0.28112246 24:0.4194301 25:-0.82242169 26:-0.12882329 27:0.82652847 28:0.0698084 29:1.2708948 30:0.48231922 31:0.34801234 32:0.03355481 33:-0.34485888 34:-0.14642673 35:-0.60767683 36:-0.4427955 37:0.64036885 38:0.19901297 39:-0.37905794 40:-0.3775511 41:-0.49607068 42:0.21547 43:1.4548892 44:-0.74858827 45:-0.1729074 46:0.0054865045 47:0.18442669 48:0.40251538 49:-1.6934298 50:-1.1052085 
5.12e-007 1:0.44027135 2:0.41667527 3:-1.3554561 4:0.30309936 5:1.6180289 6:-0.41970567 7:-1.8216494 8:0.094276105 9:-1.0038581 10:0.027882266 11:1.6520373 12:2.6199097 13:0.28452012 14:1.0593583 15:-1.0021959 16:-0.83518003 17:-1.743311 18:0.76222617 19:0.40802529 20:0.51047042 21:-0.88256634 22:-0.4647875 23:0.13614299 24:0.14890234 25:-0.94435222 26:-0.62507267 27:-0.86262073 28:-1.1492291 29:1.297148 30:1.4833235 31:-0.14869265 32:0.53345441 33:2.0022786 34:-2.0348079 35:-2.1720286 36:1.4750302 37:-0.047245759 38:1.585321 39:0.63769972 40:0.44196058 41:-1.1185664 42:0.74996 43:0.082642525 44:-0.55351674 45:0.17398825 46:-0.60358525 47:2.0459794 48:-1.8340143 49:0.061254378 50:0.22359597 
5.12e-007 1:-0.50754724 2:1.56288 3:0.46798198 4:-0.086959742 5:0.11074048 6:-0.2842125 7:-0.88153121 8:-1.1531276 9:-0.97619803 10:0.1633842 11:-1.7117999 12:1.4014784 13:0.67519148 14:-0.46035632 15:0.60783618 16:-0.37013257 17:-0.060554559 18:-0.83397817 19:0.13212552 20:1.3897414 21:-1.0209026 22:0.98182204 23:-0.082679834 24:-0.5638734 25:-0.25972525 26:-0.34894985 27:1.8242935 28:-0.89637724 29:-0.73038122 30:-2.1726891 31:0.4873541 32:0.92539037 33:0.95138841 34:2.001771 35:1.6546571 36:0.43946886 37:2.0747578 38:1.6184088 39:0.21824843 40:-0.81870353 41:-0.56086559 42:1.9293062 43:-1.3222326 44:1.5012335 45:-1.6079656 46:-0.68490604 47:-1.6832631 48:0.96399249 49:0.013095529 50:-0.71606089 
5.12e-007 1:-0.89574896 2:-0.47473916 3:0.36358869 4:-0.71221233 5:-0.73546993 6:-0.90628901 7:0.86174773 8:0.5589145 9:-0.87802273 10:-0.47444541 11:-0.17807141 12:0.3037715 13:-0.10949474 14:-0.85488308 15:-0.38876573 16:-0.13897197 17:-1.4185867 18:0.46943532 19:1.4257003 20:-0.25576462 21:-0.62317195 22:-0.28660796 23:0.39108916 24:0.53789592 25:-0.36940216 26:-0.079930714 27:-1.8712957 28:0.84399985 29:-1.584776 30:-0.89980282 31:-0.033317972 32:1.8918964 33:-1.0881686 34:2.7161162 35:0.37532107 36:-2.3664768 37:-1.1502907 38:-1.8141494 39:0.57473875 40:-1.4697171 41:1.4285831 42:1.1990332 43:-0.30189333 44:-0.5203544 45:-0.39238712 46:0.37021603 47:-2.2265928 48:-0.97584135 49:-0.27975687 50:-0.42035607 
8.931958371756714e-008 1:-1.1143727 2:-0.450824 3:-0.99139103 4:-1.1365898 5:0.25210763 6:0.22263021 7:0.033813115 8:0.47763984 9:-1.5699566 10:-0.015747863 11:-0.43755901 12:-1.036554 13:0.86978304 14:1.2725429 15:0.41699768 16:1.4278893 17:-1.0498028 18:0.64254386 19:-0.2656912 20:-0.40616559 21:-1.2735893 22:0.99181955 23:-0.053056528 24:-0.15954112 25:0.60988841 26:-0.023649105 27:-0.92816758 28:-0.69010294 29:-0.42627831 30:0.0036808807 31:0.038829988 32:-0.072947114 33:0.28007746 34:-1.6549102 35:0.63756361 36:0.31832693 37:0.23631378 38:-0.66800082 39:0.24146803 40:-1.047791 41:-1.3274709 42:1.5221823 43:0.22856834 44:-1.0238508 45:0.25128538 46:0.076924201 47:0.82456744 48:0.72093627 49:0.93066429 50:-1.9154471 
5.12e-007 1:-0.10097392 2:1.2016329 3:0.096168518 4:0.47264731 5:1.5983729 6:-1.0386723 7:-0.26707033 8:-0.62301084 9:-1.0984887 10:-0.31752701 11:1.0774282 12:-0.25915895 13:-0.15171315 14:1.0588386 15:-0.4914448 16:0.66439837 17:1.3685692 18:-0.02597645 19:-0.22740829 20:-1.0717665 21:-0.5676692 22:-0.046276283 23:-1.1052996 24:0.57321767 25:0.85969858 26:-1.1890665 27:-0.47030273 28:-1.2291963 29:-0.18063508 30:0.59403746 31:2.2104628 32:-0.66680857 33:-0.027703331 34:-0.73821932 35:-0.079126774 36:-0.24919218 37:0.49922352 38:0.52404597 39:-1.2967765 40:0.098181753 41:1.4671645 42:-0.056352673 43:-1.3081313 44:0.69741899 45:1.5158609 46:-0.36167762 47:-1.4806387 48:0.31882417 49:0.31791244 50:-0.91673812 
5.12e-007 1:0.13264893 2:-0.051308951 3:0.36001455 4:0.14158154 5:1.0094429 6:1.0935392 7:0.56611878 8:-0.16332267 9:0.67606728 10:1.0381486 11:-1.087766 12:0.63090989 13:-1.5264431 14:-0.45138668 15:-0.00035527603 16:-0.46641156 17:0.2529981 18:-0.96323368 19:-0.44525477 20:1.0581947 21:0.93742291 22:-0.15029207 23:-1.4914639 24:-1.8108113 25:1.0717124 26:0.25030225 27:-0.50863892 28:1.5087943 29:-1.2921313 30:0.18948186 31:2.3087123 32:0.96273912 33:1.4530847 34:-0.56676977 35:1.3074197 36:-1.0245159 37:-1.1615643 38:3.7571187 39:-2.5325532 40:0.90927295 41:1.4626309 42:1.6689791 43:0.80063787 44:0.38250836 45:-2.0546722 46:1.1888695 47:1.2601831 48:-1.2733892 49:0.30519269 50:-1.3151582 
5.12e-007 1:0.11617955 2:-1.4328701 3:0.34658829 4:0.29833642 5:-0.033065603 6:-0.46784345 7:0.70027904 8:-0.80777595 9:-2.4778431 10:-0.45855504 11:1.2025984 12:-0.080403239 13:1.0992265 14:2.1677014 15:-0.97143848 16:0.51702991 17:1.3279976 18:0.35282442 19:0.40554531 20:-0.66222572 21:-0.021086637 22:-0.42227958 23:0.49913332 24:-0.29634493 25:0.15516255 26:0.30733891 27:1.4191187 28:0.042913416 29:-0.37908736 30:-0.77671553 31:-0.33573619 32:-0.30198768 33:1.1446568 34:0.59434394 35:-1.4568342 36:-0.26084565 37:-0.087801533 38:-0.61570201 39:0.27142465 40:0.38678267 41:0.59322194 42:0.20882295 43:-0.49886239 44:-1.8886611 45:-0.11314632 46:-0.54535783 47:0.55304939 48:0.63133963 49:0.52266134 50:0.96920372 
5.12e-007 1:-0.37439042 2:-0.060351534 3:-0.68946812 4:-1.0180959 5:-0.055447578 6:-0.79800146 7:-0.3388104 8:-0.24496783 9:-0.17535071 10:1.3718107 11:-1.1476526 12:-0.39322323 13:-0.92869213 14:0.76895259 15:1.9037389 16:-0.045710153 17:-1.3972581 18:-2.5783947 19:-0.49342552 20:-0.073440506 21:1.8613043 22:-0.52403967 23:-0.4391616 24:0.37365967 25:0.49358022 26:-0.82574852 27:-0.5917229 28:-1.9047023 29:1.1559538 30:-0.20798269 31:-1.236366 32:-2.1029496 33:1.1142669 34:1.0651567 35:-0.3436535 36:0.20414321 37:0.30736205 38:-0.36120463 39:-0.41862821 40:1.2684636 41:0.24982708 42:0.3713166 43:0.51266195 44:-1.4544493 45:-0.98875635 46:-0.59239734 47:0.12392232 48:1.2068152 49:-1.4035575 50:-0.85653533 
5.12e-007 1:0.47870726 2:1.0355282 3:1.5502404 4:-0.073353178 5:0.067002215 6:-1.7853663 7:0.67595138 8:0.20936023 9:0.92491609 10:-2.1293015 11:-0.11829127 12:0.63091117 13:0.011947924 14:-1.4473166 15:-1.0253624 16:-0.83464363 17:-1.0719519 18:0.35209112 19:-0.15235773 20:-1.0029201 21:0.55572151 22:0.7672341 23:0.30646627 24:-0.38878322 25:-0.54453773 26:-0.84080494 27:1.1684974 28:-2.6671995 29:1.129113 30:1.4693078 31:-0.14506344 32:2.0144516 33:0.40342656 34:1.2328656 35:-0.39221998 36:1.7479153 37:-0.17398843 38:-0.75609988 39:-0.93918808 40:0.12667921 41:0.57779233 42:1.14582 43:-0.38255412 44:-0.22431905 45:-0.14099613 46:-0.91641845 47:-0.61527576 48:0.63122033 49:-0.80969213 50:0.21299337 
5.12e-007 1:0.62115177 2:1.1534086 3:1.1964687 4:-1.3456998 5:0.22432802 6:-0.14506346 7:0.12642024 8:0.65669844 9:-0.77299758 10:-0.21864839 11:0.87732252 12:0.56320349 13:0.040450708 14:-0.20209217 15:-0.25562194 16:-0.80370729 17:0.038988276 18:-1.5616607 19:0.8655518 20:1.0872585 21:-1.3872146 22:2.5325112 23:-0.6981383 24:-0.19141339 25:-1.3562678 26:0.14518059 27:-0.068963512 28:-0.30153487 29:-0.34350679 30:0.010065435 31:0.48585144 32:-1.6541449 33:0.71071305 34:-1.3055448 35:-0.31517043 36:-0.41999704 37:1.391291 38:-1.3908051 39:0.89650475 40:-0.78278709 41:-0.0092252451 42:0.70102074 43:-0.19751968 44:-1.6622444 45:1.062656 46:-1.3465352 47:0.49358866 48:-0.26413485 49:0.21929113 50:-0.20187136 
5.12e-007 1:-1.0405918 2:-0.18916794 3:0.61125157 4:-0.5636451 5:1.4191211 6:0.039670577 7:-1.0164654 8:-0.91545039 9:-0.41233778 10:-0.63067535 11:-1.1957383 12:1.8405804 13:-0.13357178 14:-0.95743058 15:-1.2566682 16:0.43243495 17:2.0427162 18:0.62895414 19:1.0717402 20:-0.22427331 21:0.075658324 22:-1.5988134 23:1.2995781 24:0.16803888 25:1.4852804 26:0.047672841 27:-0.3632011 28:-1.3394562 29:-1.2905126 30:0.029084477 31:0.36219739 32:0.56315751 33:0.32762137 34:0.1485022 35:-0.46644994 36:-1.5123295 37:0.40069115 38:-0.49233545 39:-1.2673519 40:0.19371212 41:-0.89164811 42:0.71514544 43:0.2507002 44:-0.74229975 45:0.048400973 46:-0.34084422 47:1.4048605 48:0.16451975 49:1.6067177 50:-0.99948312 
5.12e-007 1:-0.6019493 2:-0.27420411 3:-0.21803823 4:0.96796622 5:2.3969561 6:-0.65375029 7:3.1493488 8:1.579846 9:1.0754589 10:1.9298849 11:-1.2196137 12:-0.0032455472 13:-0.96170215 14:-0.71817155 15:0.60023748 16:1.0773785 17:-1.1444566 18:0.22213841 19:0.33066588 20:1.3443001 21:-0.32927905 22:-0.1269831 23:0.18351976 24:0.47320436 25:0.54822726 26:0.0790305 27:0.29264649 28:0.10061703 29:0.13368999 30:-0.6266271 31:-0.51204144 32:-1.07482 33:0.68900288 34:1.870121 35:0.32161425 36:-0.17975848 37:-0.10338785 38:0.43320474 39:-0.67576262 40:-0.027025872 41:0.50105124 42:-1.3864637 43:-1.4026598 44:-0.93186189 45:-0.5808532 46:1.0279874 47:0.9790911 48:0.83104325 49:0.60065021 50:-0.44311547 
5.12e-007 1:-1.2829068 2:-1.1008127 3:1.1589151 4:0.51333066 5:-0.67260678 6:0.17873933 7:-0.019498363 8:0.36658388 9:1.0003576 10:-0.46291624 11:0.82078263 12:-0.16484916 13:0.5008346 14:1.1867546 15:-0.020126949 16:2.1726001 17:0.09529993 18:-0.027686598 19:-0.71452861 20:-0.26812867 21:0.77717386 22:1.1562953 23:0.49258636 24:0.66195378 25:0.059980469 26:-0.61926721 27:0.33439418 28:-0.31579293 29:1.6384322 30:-1.0308666 31:-0.74723864 32:0.31757739 33:-0.27275892 34:-0.5995761 35:0.46139693 36:0.79102545 37:1.8246723 38:-0.54481071 39:-1.7057845 40:0.74979861 41:1.8201799 42:0.36216437 43:0.41602973 44:1.1688553 45:0.76793034 46:-0.12039932 47:2.102058 48:0.98402776 49:0.93221722 50:1.3014352 
2.264918781377061e-007 1:-1.0354352 2:-0.51357348 3:0.23362214 4:0.35402898 5:-0.55360574 6:-0.42591114 7:-0.19321327 8:-1.3127132 9:0.32087376 10:-1.6748748 11:-2.5711279 12:-0.18658206 13:-0.42667825 14:1.7924555 15:0.24420852 16:-1.7822203 17:-0.62133189 18:0.35654824 19:-0.63723811 20:-1.0979248 21:-1.0069524 22:-0.2151488 23:-0.54392858 24:0.31045963 25:1.6727916 26:-0.57512073 27:0.54373717 28:-1.0008 29:0.65086026 30:-0.26108416 31:-0.50080819 32:-1.9848769 33:0.18872118 34:-0.51858953 35:0.064186571 36:-0.47015458 37:-0.72140823 38:0.47120113 39:2.0665752 40:0.67823324 41:-0.087817516 42:-1.6712198 43:-1.9448623 44:-1.4199737 45:2.1779759 46:0.4747714 47:1.3114007 48:-2.334574 49:0.88070006 50:1.1933257 
5.12e-007 1:0.61079249 2:1.5299095 3:-0.86954766 4:-0.17434456 5:-0.79808351 6:0.43471809 7:0.29127904 8:0.56311261 9:0.36807391 10:-0.0026297328 11:0.28185753 12:-1.7783984 13:-0.15664062 14:0.93427392 15:0.44489388 16:0.26970395 17:-0.23537319 18:0.16450637 19:-0.84268119 20:0.51621464 21:0.97579548 22:-0.021030031 23:0.23558506 24:1.387747 25:-1.4478022 26:0.74616566 27:-0.21391073 28:-1.0668684 29:0.52798798 30:0.27455368 31:0.26338908 32:-0.045197196 33:0.50859025 34:3.1405105 35:-0.92654212 36:-0.1583962 37:1.6690555 38:0.60333451 39:-1.9274544 40:0.31373401 41:-0.031267383 42:-1.6542124 43:0.22383287 44:1.0552055 45:0.51096096 46:-0.41459392 47:-0.63408805 48:-1.4903596 49:1.2834051 50:-1.5315331 
5.12e-007 1:-0.16423217 2:0.87747231 3:-0.70921641 4:-0.98249605 5:0.038265662 6:0.36485702 7:-0.30145984 8:0.46134892 9:0.96390563 10:1.6818603 11:1.0035944 12:-0.84062577 13:-0.18075099 14:0.013429532 15:1.1424207 16:1.6919986 17:1.0728004 18:-1.0877226 19:0.63485032 20:-1.9149682 21:-1.6768723 22:0.28336853 23:-0.67794394 24:0.92916792 25:-0.6639568 26:-0.73540554 27:0.18926216 28:-0.10482534 29:0.89398508 30:0.23205767 31:-2.1129514 32:0.43466637 33:0.64288832 34:0.18848596 35:-0.85309141 36:1.2450189 37:1.3733862 38:0.94994047 39:-0.71090706 40:-0.67313885 41:1.8355981 42:-1.4564556 43:-0.67517172 44:-1.2138489 45:-0.22419611 46:0.099252528 47:0.095590638 48:-2.1446286 49:-0.84719504 50:-0.13346195 
5.12e-007 1:0.24152915 2:1.6702891 3:0.607729 4:0.72723223 5:0.85961376 6:-0.99869962 7:-2.5052788 8:-1.3596766 9:0.28005074 10:0.056167027 11:-1.8651144 12:2.0242798 13:-0.03460142 14:0.7864117 15:1.3475148 16:-0.24937932 17:-0.57710165 18:1.4970693 19:-2.0498271 20:-0.069588183 21:-2.7131697 22:0.98119071 23:-0.27215744 24:-0.023388851 25:-1.5143552 26:-0.75841059 27:1.1241806 28:1.4196845 29:0.3362396 30:1.5472369 31:0.033104081 32:-1.9567724 33:-0.5408052 34:0.88661574 35:0.58675232 36:-1.0852781 37:-0.3106827 38:-1.7092838 39:0.7919866 40:-0.42621131 41:-0.25940272 42:-1.0412221 43:-0.20253997 44:1.3368731 45:0.25864265 46:-0.32137064 47:1.4721072 48:0.99969454 49:-0.16675158 50:-0.87507751 
5.12e-007 1:-0.49728386 2:-1.6366141 3:1.0386337 4:1.2773461 5:0.74083287 6:-1.3900478 7:1.567223 8:0.11849786 9:0.073367628 10:2.5580029 11:0.072948934 12:2.3850755 13:-0.62972179 14:1.9973313 15:-0.74263791 16:-0.50255779 17:-0.074978057 18:-1.2675078 19:-0.59161521 20:0.86789685 21:-0.4566607 22:1.2793896 23:1.0497272 24:2.5016877 25:-0.23765677 26:0.77506106 27:-0.19100088 28:1.4610336 29:0.49410559 30:0.37378694 31:-0.062163027 32:0.52908364 33:0.32559918 34:0.02418587 35:-0.62185399 36:-0.27132602 37:1.7472429 38:0.1919721 39:-0.5877168 40:0.048006074 41:0.37052947 42:0.079210596 43:-0.504941 44:-0.78002722 45:-0.13924264 46:0.45942082 47:-0.39437918 48:-0.56782756 49:-1.4438668 50:-0.45102964 
3.802293709700502e-007 1:-0.48515028 2:1.5882046 3:-0.71245956 4:0.26666683 5:1.1142672 6:-1.5343914 7:0.91076808 8:-0.7927462 9:-0.76359633 10:0.30858717 11:0.48090334 12:-0.31481066 13:-0.49408172 14:-1.3102753 15:-2.7341784 16:-1.4207232 17:-0.26935777 18:0.74168397 19:-0.17507516 20:-1.9363037 21:0.52156268 22:0.80904151 23:1.0633713 24:-0.6184087 25:0.47378653 26:-0.70010437 27:-0.41273701 28:1.8470923 29:0.25175762 30:0.31657636 31:-1.411586 32:-0.48268523 33:-1.2480152 34:0.093398265 35:1.5042722 36:-0.484733 37:-0.14949931 38:-0.39086681 39:0.12988269 40:1.3322562 41:0.46319927 42:-1.0922469 43:1.1860572 44:-0.68636781 45:0.74508809 46:-0.46090551 47:2.3326621 48:0.7733737 49:0.92868167 50:0.2651615 
5.12e-007 1:-1.2633902 2:-0.96083782 3:1.2701114 4:0.50131167 5:-0.79965929 6:0.17627042 7:0.17187671 8:0.34086124 9:0.93816916 10:-0.36222802 11:0.83447338 12:-0.16438601 13:0.82555736 14:1.2023228 15:-0.1162653 16:2.2785981 17:0.13239292 18:0.026274353 19:-0.72355544 20:-0.16475692 21:0.54288727 22:1.0908777 23:0.53705492 24:0.91587947 25:0.0096129356 26:-0.32143714 27:0.21767963 28:-0.22977016 29:1.3614516 30:-0.89671431 31:-0.89842305 32:0.12839081 33:-0.0047660763 34:-0.66515714 35:0.37753745 36:1.0472824 37:2.0311545 38:-0.59051047 39:-1.4259763 40:0.27264749 41:1.6671442 42:-0.0050144982 43:0.35948032 44:1.0052905 45:0.72491544 46:-0.15520788 47:1.882742 48:0.63110681 49:0.71243746 50:0.94202197 
5.12e-007 1:-0.68723697 2:0.76099406 3:-0.24497977 4:-0.56328424 5:-0.64005414 6:-0.27900145 7:-0.12512583 8:-0.80004473 9:0.29397134 10:-0.56418289 11:-1.4510069 12:0.086471292 13:0.22335322 14:1.499655 15:0.057796358 16:-0.03342069 17:0.5761489 18:2.0004879 19:0.80251581 20:-0.18617474 21:0.5945491 22:-1.4129302 23:-1.4673406 24:1.8128098 25:-0.81032514 26:0.86754904 27:-1.2397815 28:-1.0191314 29:0.29229246 30:-1.8843554 31:0.515741 32:-0.017167046 33:-0.38291444 34:-0.62187978 35:0.44786255 36:-1.6580217 37:1.5016147 38:-1.3406717 39:-0.27449357 40:-0.66723684 41:-1.5377434 42:0.028973091 43:0.3176377 44:0.28819226 45:0.53995178 46:-0.064843479 47:1.0615294 48:0.31647094 49:1.3081638 50:0.48135615 
5.12e-007 1:0.28042177 2:-0.11807246 3:-1.6283699 4:2.1709846 5:0.89161106 6:-0.19802691 7:0.96922974 8:-2.1453009 9:1.6579048 10:-0.86703977 11:1.1818703 12:-0.62650909 13:0.85753216 14:0.11309503 15:1.1043238 16:1.4020167 17:0.38748394 18:0.36910791 19:-0.10653209 20:-0.086816468 21:0.85657259 22:0.65929822 23:-1.325388 24:-0.40087659 25:-0.053717168 26:0.16161657 27:-0.53801283 28:-0.24527745 29:-0.19904999 30:-0.32394921 31:0.67228552 32:-2.213504 33:-0.59763124 34:-0.18223308 35:-0.66981982 36:-0.23349805 37:-0.78544276 38:-0.18798263 39:-0.60878758 40:1.1654795 41:-0.82927568 42:0.58926235 43:0.68356508 44:-1.8179076 45:-0.24218758 46:-0.35408531 47:-0.55285803 48:-0.62541817 49:-0.4011877 50:0.021514856 
3.532448730638165e-007 1:-0.65372906 2:-0.19619898 3:-0.2762744 4:0.96481778 5:2.359559 6:-0.59026303 7:3.1446835 8:1.5920316 9:1.1188048 10:1.9491537 11:-1.3422366 12:0.021167263 13:-0.94903148 14:-0.74300899 15:0.64840318 16:1.0982061 17:-1.1677536 18:0.28352345 19:0.22038048 20:1.2334229 21:-0.43789958 22:-0.16569664 23:0.17788438 24:0.41607817 25:0.5589039 26:0.10120059 27:0.22533599 28:0.023408935 29:0.17754064 30:-0.59269631 31:-0.7168016 32:-1.149729 33:0.7521524 34:1.9034709 35:0.28788182 36:-0.1398223 37:-0.050425108 38:0.40211389 39:-0.66779524 40:-0.17991065 41:0.44310634 42:-1.4121691 43:-1.5257629 44:-0.88126949 45:-0.65746656 46:0.98026303 47:0.90150537 48:0.76954417 49:0.68770929 50:-0.30056673 
5.12e-007 1:0.89017013 2:0.54948076 3:0.99766856 4:-1.334019 5:-0.6088555 6:0.54811594 7:1.5095609 8:1.0893402 9:0.19833616 10:-0.53173477 11:0.65636559 12:-0.42541164 13:-0.53068941 14:-0.38697793 15:-0.47769053 16:-1.0702765 17:0.014021503 18:0.6010016 19:-1.0477922 20:0.23025096 21:0.069838195 22:0.17948392 23:0.83367398 24:0.26717896 25:0.40962965 26:-0.86225127 27:-0.4433133 28:1.2034904 29:-0.51379969 30:0.54414885 31:0.069723579 32:0.24298614 33:-0.7203626 34:0.080663968 35:-0.021549158 36:-0.45879799 37:-0.66638098 38:0.25473537 39:0.77500654 40:-0.62491169 41:0.052550353 42:-0.041412041 43:-0.78922798 44:0.71379849 45:-0.21253436 46:0.22584779 47:-0.5889129 48:1.0793319 49:-0.013454888 50:0.72420561 
5.12e-007 1:0.65290919 2:1.1680464 3:1.2028925 4:-1.3350847 5:0.20198877 6:-0.1233544 7:0.11500712 8:0.68259257 9:-0.74348936 10:-0.29516055 11:0.93964433 12:0.57439648 13:0.017908077 14:-0.20610602 15:-0.25982747 16:-0.80845856 17:0.073675464 18:-1.4313692 19:0.8674061 20:1.1308248 21:-1.2953555 22:2.3985922 23:-0.68940783 24:-0.17255593 25:-1.3769428 26:0.13694001 27:-0.17444017 28:-0.22546169 29:-0.3010986 30:0.0093802618 31:0.54585034 32:-1.5537204 33:0.70259184 34:-1.3085443 35:-0.51809463 36:-0.50624641 37:1.298902 38:-1.4425065 39:1.0675261 40:-0.73201223 41:-0.089286431 42:0.74290123 43:-0.16274784 44:-1.7158857 45:0.97122294 46:-1.3930859 47:0.51239628 48:-0.15560618 49:0.13148434 50:-0.29636735 
5.12e-007 1:0.36147587 2:2.0802707 3:0.57879871 4:1.7706809 5:0.54084285 6:0.38987548 7:-0.34063124 8:0.13155786 9:-0.64639302 10:0.81136404 11:0.48524231 12:-0.1643017 13:0.82613056 14:-0.88272633 15:-0.37791821 16:1.3258127 17:0.20496419 18:-1.8033687 19:0.13625484 20:0.43595089 21:-0.0082069825 22:0.68972236 23:0.35432549 24:-0.112645 25:1.1082068 26:1.670624 27:0.28191674 28:-0.51453156 29:1.0095522 30:1.7594091 31:-1.4585864 32:-0.3210766 33:0.062587773 34:-0.9833773 35:0.22717029 36:-0.087403018 37:-0.79874442 38:-0.83126817 39:-0.74178398 40:0.8822195 41:0.42469537 42:-0.39682154 43:-0.50064685 44:0.44101196 45:0.85064779 46:-2.2621907 47:1.7045014 48:-1.197158 49:0.55259299 50:2.5560023 
5.12e-007 1:0.093773113 2:-0.27343976 3:-0.9569446 4:-0.81003766 5:-5.3369764e-005 6:0.4673222 7:1.0216397 8:0.81188677 9:0.81052473 10:-1.0237865 11:-1.2040312 12:-1.0525525 13:-0.05840304 14:0.7520149 15:0.34491202 16:0.058529887 17:-0.38453941 18:-2.3486969 19:0.0066866895 20:2.134342 21:-1.4057339 22:-2.0377306 23:1.3099946 24:0.32565688 25:0.065407021 26:-0.32205006 27:1.1797246 28:-0.57815438 29:0.39802605 30:1.3428384 31:-0.27296319 32:-0.26133792 33:0.25548805 34:1.5117376 35:-2.01429 36:-1.8975303 37:-0.40546251 38:-0.45181598 39:-0.2721378 40:0.94490029 41:1.1179289 42:0.053992671 43:0.9497928 44:-0.54435864 45:-0.721328 46:1.5372949 47:2.201268 48:-0.25758755 49:-0.45866928 50:1.2748246 
5.12e-007 1:0.27475859 2:0.59013446 3:-1.9438912 4:-0.35855765 5:-1.8345105 6:-0.43028463 7:0.86978942 8:-0.69702558 9:-0.19166993 10:1.0642305 11:0.60159951 12:1.3213279 13:0.26146939 14:-0.80438925 15:-0.58762534 16:-1.003858 17:-1.2908602 18:3.5799346 19:-0.060863883 20:1.0698189 21:0.15068314 22:-0.025262431 23:-0.43501994 24:0.2930285 25:0.77057263 26:-0.2453781 27:-0.14054669 28:0.9993348 29:0.14612892 30:1.2563705 31:-0.92416699 32:-0.68359351 33:-1.4432666 34:-1.5398402 35:-2.0678223 36:-0.38781818 37:-1.4721198 38:0.28620374 39:-2.1321887 40:-1.1189008 41:0.40173588 42:1.1490943 43:-0.42709431 44:-0.77245245 45:-2.1684107 46:0.70583267 47:-0.58301743 48:-0.078907384 49:-0.5087888 50:-0.0042212355 
5.12e-007 1:0.71397785 2:0.69652863 3:0.27439781 4:-2.2173168 5:-1.989359 6:0.85771296 7:-0.037515833 8:0.33272599 9:-0.44157412 10:0.56770611 11:0.92126061 12:1.1284357 13:-0.68376694 14:0.99917753 15:0.26221606 16:1.2158077 17:-0.066380071 18:-0.21588553 19:-0.22734673 20:0.37989988 21:0.77922027 22:0.2300244 23:0.72099269 24:-0.36439497 25:-0.57994207 26:0.82084743 27:0.14276485 28:-0.19743263 29:0.87770043 30:-0.36840561 31:-0.70520634 32:0.65427381 33:-0.20245277 34:-0.46665151 35:0.41027348 36:-0.073643983 37:-0.021103082 38:0.013666159 39:-0.38057612 40:0.76913047 41:0.25544518 42:-0.30143451 43:-1.1040566 44:0.50373856 45:0.41405707 46:1.2401239 47:-0.66741951 48:0.88554845 49:-0.070635476 50:-0.030552894 
5.12e-007 1:0.024390275 2:-0.46712484 3:-0.14798898 4:0.18376538 5:0.08914885 6:-1.1051635 7:-0.34162731 8:-0.26396724 9:-0.16572781 10:-0.1991041 11:2.1407885 12:-1.0003281 13:-0.36574648 14:0.035357068 15:-2.124487 16:-0.043864645 17:-1.3743276 18:-2.8502342 19:-1.6917594 20:-2.5165113 21:-0.58216495 22:0.30964624 23:-1.7927354 24:1.0292458 25:1.9507528 26:1.4448079 27:-1.2268306 28:0.063934715 29:-0.65043689 30:0.36048906 31:-0.10490424 32:0.19445447 33:1.0650319 34:0.23746245 35:0.96646572 36:-2.2759814 37:-0.2847966 38:-0.42208243 39:-0.093021203 40:-0.51400424 41:-1.9105094 42:0.6458574 43:2.9149427 44:1.4168318 45:-0.1373843 46:-0.82989609 47:0.013137256 48:-0.48829524 49:-2.3989507 50:-1.3093905 
5.12e-007 1:-0.62277278 2:-0.46288257 3:-1.821878 4:-0.37965522 5:-0.80454645 6:-0.19145391 7:0.65285479 8:0.91261253 9:-2.4233552 10:-0.29477086 11:-1.8294952 12:-0.57890914 13:1.5380816 14:0.54230322 15:-2.2501553 16:0.41654108 17:0.5122083 18:1.6778756 19:0.21729064 20:-0.31411272 21:1.3642807 22:-0.077471492 23:0.55327016 24:0.69775277 25:-1.0443018 26:-0.77998188 27:-0.64839518 28:1.459405 29:1.3723669 30:0.44063806 31:-1.5629956 32:1.7405504 33:0.73863747 34:-1.5657514 35:2.0576784 36:-1.6421949 37:-0.83668707 38:-0.58387624 39:1.1808742 40:-0.22001456 41:-1.1918283 42:0.67957433 43:-0.44534429 44:0.70077169 45:-0.0047302961 46:-0.36001418 47:1.08213 48:-0.93443478 49:-1.452485 50:-1.7780131 
4.120365773972331e-007 1:-1.4301154 2:-1.890205 3:0.90450406 4:2.801552 5:-1.1419755 6:-0.2924888 7:-0.21453301 8:1.6735639 9:-0.28259266 10:1.3409021 11:-0.26569918 12:-0.28351279 13:-0.27117664 14:-0.92019258 15:0.22940034 16:1.3496069 17:0.67569142 18:-0.97788976 19:1.4104864 20:-1.4965317 21:0.067284632 22:-1.0070991 23:0.22417494 24:1.9514992 25:-1.4513525 26:0.26429202 27:-0.7744896 28:3.099326 29:0.17281026 30:0.85981219 31:1.4083891 32:0.3717561 33:0.36586302 34:-1.4999266 35:0.10162587 36:0.17751631 37:-0.28189496 38:-1.3407308 39:0.20086598 40:-0.93344477 41:-2.7580187 42:0.19345048 43:-1.0148665 44:1.8687122 45:-2.9032657 46:-0.053298484 47:-1.3308104 48:1.1697131 49:-1.5330262 50:0.31676345 
5.12e-007 1:0.31506803 2:1.4121819 3:1.1848441 4:-0.37370977 5:-0.15707524 6:0.32581294 7:0.86424777 8:0.85957782 9:-0.47180208 10:-0.24584087 11:-0.65802396 12:-1.1721893 13:-1.8014774 14:-0.062205716 15:0.59315209 16:-1.4438879 17:0.34835557 18:0.70226596 19:-0.94786976 20:-0.25219812 21:1.5585007 22:0.10475792 23:0.55791911 24:-0.092193355 25:-0.35258112 26:-0.49784286 27:0.41074847 28:0.78589498 29:-1.2869414 30:-0.2752203 31:0.97312266 32:0.62378112 33:1.1978799 34:-0.62184738 35:-0.73964159 36:-0.21597009 37:0.74512132 38:1.0848021 39:-0.49993708 40:-0.72253388 41:-0.22967331 42:1.5103002 43:-0.63257963 44:0.19746683 45:0.89528286 46:-0.17167296 47:-0.051772982 48:-0.05546672 49:-0.31198515 50:-1.2539023 
5.12e-007 1:-0.18858094 2:0.96307745 3:1.3480685 4:-0.90566229 5:-2.1095623 6:-1.4302267 7:0.31866743 8:-1.4225248 9:-0.64729692 10:0.33178564 11:-0.1141583 12:-1.1528498 13:-0.50333056 14:-0.70491248 15:0.068102081 16:1.5989561 17:-0.43138977 18:0.27848213 19:1.3033946 20:0.92069294 21:0.9813453 22:-0.68970831 23:-0.64296574 24:-0.31508606 25:-0.77874772 26:-0.1948474 27:-0.59937935 28:0.55304039 29:1.3605545 30:-0.93408525 31:-0.071723452 32:0.42670765 33:0.68867337 34:-0.2548189 35:-1.027078 36:-0.6870655 37:-2.1166474 38:-0.086255094 39:-0.75566732 40:-0.022585733 41:-1.2082672 42:-0.20944578 43:0.15145491 44:0.75203903 45:0.091154216 46:1.1459929 47:-0.62665268 48:0.035873608 49:0.10741236 50:-0.013590803 
5.12e-007 1:0.21509532 2:1.7012529 3:0.59202667 4:0.79779679 5:0.93129264 6:-1.0948947 7:-2.3395558 8:-1.4449351 9:0.253004 10:-0.02738386 11:-1.9687616 12:2.1137077 13:0.085110535 14:0.73208323 15:1.2490155 16:-0.14565434 17:-0.64527578 18:1.8692459 19:-1.9065417 20:-0.084839739 21:-2.4062227 22:0.9820808 23:-0.42386371 24:0.18086254 25:-1.6272525 26:-0.92412103 27:0.92842584 28:1.427521 29:0.6357084 30:1.326237 31:-0.29407394 32:-1.6685469 33:-0.63773066 34:0.63576598 35:0.78864613 36:-1.4175115 37:-0.41901977 38:-1.9169155 39:0.77107328 40:-0.074369347 41:-0.058073211 42:-0.60254015 43:-0.051460899 44:1.4477926 45:0.41686526 46:-0.66795596 47:1.3601254 48:1.2102006 49:-0.39589691 50:-0.89875926 
5.12e-007 1:0.036144388 2:-0.32267686 3:-1.3901453 4:-0.33022078 5:-0.57646506 6:-0.47514513 7:-1.0378568 8:-0.051848013 9:0.65257953 10:0.47271342 11:-1.7379845 12:-1.2232127 13:-0.44535659 14:-0.76247252 15:-1.3676154 16:-0.84030178 17:0.58005433 18:-2.5145538 19:-3.0608582 20:-1.0879974 21:-0.088480474 22:-0.96048738 23:-1.4268422 24:0.26265673 25:0.58126741 26:-1.4420811 27:-2.2104491 28:0.0088559497 29:-0.90876984 30:-1.1387504 31:-2.4289963 32:-2.3216166 33:1.9308027 34:-1.3010963 35:0.29891606 36:0.26523124 37:0.57398179 38:-1.8539449 39:1.5596072 40:-0.10253699 41:-1.6666433 42:0.50341629 43:-0.22012373 44:1.6206044 45:2.1676556 46:3.4807663 47:0.57623843 48:-0.32273 49:-1.5667745 50:-1.4586313 
5.12e-007 1:0.47505648 2:1.0227416 3:1.6058825 4:-0.046659306 5:0.13696693 6:-1.7684948 7:0.63411485 8:0.32997948 9:0.96260723 10:-2.0819722 11:-0.10587296 12:0.75373397 13:-0.029293422 14:-1.3682882 15:-0.8928241 16:-0.80994558 17:-1.2392988 18:0.46470149 19:-0.012663472 20:-1.2489907 21:0.53560708 22:0.62300413 23:0.2336424 24:-0.38185566 25:-0.68852968 26:-0.71096939 27:1.02967 28:-2.5296825 29:0.96002508 30:1.278244 31:0.017562183 32:2.0578446 33:0.8700541 34:1.2488273 35:-0.29314742 36:1.2925448 37:-0.60013302 38:-0.95907698 39:-0.69838271 40:-0.032454381 41:0.39454318 42:1.2657787 43:-0.53415102 44:-0.56186571 45:-0.39572158 46:-0.8363018 47:-0.56961031 48:0.46021338 49:-0.77648121 50:0.31760392 
5.12e-007 1:-0.44988085 2:-1.5673028 3:0.91086011 4:0.84669608 5:-1.2623778 6:-1.5230248 7:-0.67479575 8:-1.219165 9:-0.61953801 10:0.50687563 11:1.1320242 12:0.084460764 13:0.79907997 14:-1.682293 15:-0.99649608 16:1.4998566 17:-0.7445465 18:-0.28213999 19:-0.70529395 20:0.36048872 21:-1.5258367 22:-0.29702029 23:0.20771524 24:0.18028427 25:1.870616 26:1.7111932 27:-0.95676381 28:-0.12970333 29:0.51039625 30:0.53523538 31:-0.72638102 32:-0.37812554 33:-0.60433947 34:0.29055422 35:0.72322087 36:0.54529827 37:1.073266 38:-0.1937171 39:-0.36983893 40:-1.7170703 41:1.4879322 42:1.1185746 43:0.96360956 44:-0.35044612 45:-0.58184753 46:0.23506816 47:-1.5657016 48:-0.1902663 49:-0.8456784 50:-1.4924319 
5.12e-007 1:-0.29539631 2:1.5010563 3:0.93662694 4:-0.56793534 5:-0.52202643 6:-0.28030369 7:-0.097999931 8:-0.91856247 9:0.21640981 10:-0.66599499 11:0.055431925 12:0.42442584 13:1.5630393 14:1.1608294 15:-1.4676893 16:-1.5152458 17:-0.48277965 18:0.93308702 19:0.76776784 20:1.0414186 21:0.55045026 22:-0.47216206 23:0.39036849 24:0.27602303 25:0.46451883 26:0.39587749 27:-0.79317656 28:1.7630045 29:1.7736567 30:-1.4208333 31:0.2754644 32:-1.5410838 33:0.37919938 34:-0.4656803 35:-0.060384788 36:0.5573145 37:1.9147015 38:-0.54860285 39:-0.6308299 40:0.6241633 41:0.61474186 42:-0.43274478 43:0.51408789 44:-0.13962774 45:0.22727678 46:0.30530368 47:-0.39600393 48:0.15307897 49:-0.82389547 50:0.84984297 
5.12e-007 1:0.056958497 2:2.3789619 3:0.11367256 4:3.0022891 5:-1.5434689 6:0.53718223 7:-0.61615103 8:1.4573007 9:1.146027 10:-0.54307255 11:-0.38183766 12:0.4588219 13:0.25075933 14:0.95023038 15:-0.3544977 16:-0.59684572 17:1.3754142 18:0.54641707 19:3.3537781 20:-0.37214316 21:0.69964071 22:0.61977479 23:0.047336465 24:-1.5130968 25:1.8318748 26:-1.6419023 27:-1.3338995 28:0.4290258 29:1.3233391 30:0.2086407 31:1.0114398 32:-1.4120083 33:0.41594516 34:0.83715862 35:0.73764882 36:-0.7377687 37:-1.2395194 38:0.23910755 39:-0.38128008 40:-0.39412181 41:-0.96588912 42:0.042382104 43:1.4171687 44:0.451647 45:1.095701 46:-1.1696049 47:-1.0309261 48:-1.222152 49:0.51566057 50:0.036791848 
5.12e-007 1:-1.06526 2:0.5198442 3:-0.99925591 4:1.5629439 5:-0.70921153 6:-0.2346329 7:-1.0382849 8:-0.99556697 9:-0.36266146 10:-1.0466239 11:1.6583143 12:-0.19341939 13:-0.48089232 14:-0.61473869 15:1.1032965 16:-1.3516016 17:0.20243925 18:1.5709648 19:-0.19594258 20:0.55967657 21:-0.59469616 22:0.24701377 23:-0.41333571 24:0.097488709 25:1.5560107 26:2.0542239 27:-2.0546777 28:-0.45776397 29:-0.28865245 30:-1.4390837 31:0.99457523 32:1.5212667 33:2.3220782 34:-0.58321615 35:1.1088895 36:2.4247135 37:-1.6428721 38:0.14540116 39:0.6352394 40:3.1442329 41:-0.54328624 42:-2.127825 43:-1.7953582 44:1.0403833 45:-0.020236483 46:-0.056907045 47:-0.19765734 48:-0.59375553 49:2.596956 50:1.5746764 
1.114758781009257e-007 1:-0.52515871 2:0.45712501 3:0.17999373 4:0.17013088 5:1.4480583 6:1.9417892 7:1.5929829 8:-0.13978685 9:1.3042943 10:0.70555572 11:2.1227392 12:-1.2891124 13:-1.1766317 14:0.33624319 15:-0.37091206 16:0.17374219 17:1.2877816 18:2.1195592 19:-0.74631613 20:-0.53533578 21:-0.98963784 22:-0.72897395 23:1.0673313 24:-1.2982735 25:2.2504752 26:2.57251 27:2.7588882 28:0.68368908 29:1.4180799 30:-0.12010237 31:-1.4096048 32:-0.61372738 33:1.9566103 34:-0.61116518 35:-0.08143012 36:-0.70328146 37:1.5190341 38:-0.78324203 39:1.7323109 40:0.37338063 41:-0.040911028 42:-0.13920502 43:0.33841312 44:1.0746922 45:0.99955623 46:-0.084932158 47:-1.6708651 48:1.1556186 49:-0.26640071 50:-1.6820184 
5.12e-007 1:-0.077758061 2:-0.36537719 3:0.29034583 4:-0.013997885 5:0.52775081 6:-0.28906967 7:0.0049227371 8:-0.3643271 9:-0.30999495 10:-0.75723205 11:0.60253134 12:-0.4346622 13:1.2090976 14:-0.64076806 15:-0.21722022 16:-0.040870527 17:-0.38765157 18:0.33939407 19:-0.30123386 20:1.1763064 21:1.6534216 22:0.10249986 23:0.26190574 24:-0.69913286 25:0.69513684 26:1.2057626 27:-1.1148397 28:0.093056648 29:0.14965308 30:-0.063979132 31:2.443449 32:-1.7672493 33:1.1673187 34:1.004064 35:-0.19330708 36:0.19067917 37:-1.8205724 38:0.94919164 39:0.64646504 40:-0.27907744 41:0.89611097 42:-0.63440276 43:-0.92958634 44:0.38822081 45:-0.4961063 46:-1.5742861 47:1.7341873 48:-0.164125 49:-2.7509505 50:-0.73069637 
3.804800948477292e-007 1:-1.2396477 2:-1.0896006 3:1.520842 4:1.2230417 5:-3.1013527 6:-1.4675223 7:-0.29676122 8:0.83813949 9:0.57950177 10:0.3798634 11:-1.5348237 12:0.22349215 13:0.45354059 14:0.47179855 15:-1.6634542 16:-0.6497193 17:0.37307507 18:0.18985624 19:-1.0511761 20:0.60928339 21:-1.1444695 22:0.36874526 23:0.51567912 24:-2.1926062 25:1.0376934 26:1.1069349 27:-0.56207616 28:-1.2529979 29:-0.17566009 30:2.5068459 31:1.326065 32:-0.25265938 33:-2.0264255 34:0.32079264 35:-1.0651983 36:0.62681238 37:1.3778042 38:0.40095538 39:0.54426491 40:-1.4260247 41:1.1450673 42:1.4745399 43:0.43628614 44:0.3214128 45:0.26563504 46:-0.43429074 47:1.0112264 48:0.069321442 49:2.2958924 50:0.57033326 
5.12e-007 1:-0.28869072 2:0.55506866 3:-0.79964334 4:1.3038163 5:-0.42649843 6:0.59685718 7:-0.73862039 8:-0.95325274 9:0.87419161 10:0.070485848 11:-0.19977614 12:-0.14472063 13:0.20035153 14:1.9312951 15:-0.20722456 16:0.0036110283 17:-1.3413262 18:0.39773772 19:0.999853 20:-1.4906591 21:0.094625583 22:-0.86052633 23:0.48141739 24:-1.3168532 25:-0.40574459 26:0.3249669 27:-0.77868216 28:0.63856096 29:-0.55482297 30:-1.1350098 31:0.93881771 32:2.2808295 33:-0.21796901 34:-0.29635925 35:2.0343326 36:0.286433 37:0.13299804 38:-1.2004716 39:0.24099895 40:0.5623228 41:2.2167113 42:-0.62172822 43:-0.52600713 44:1.3835587 45:1.0174904 46:1.0546162 47:-1.2080168 48:-1.2379637 49:-0.39022718 50:-0.12222121 
5.12e-007 1:-0.23466099 2:0.24753453 3:-1.0311806 4:0.42976154 5:0.16675116 6:-1.8854627 7:-1.5271338 8:-1.3448707 9:-0.32194865 10:-2.4272668 11:0.14852738 12:-1.4051219 13:1.967927 14:-0.88021309 15:2.0971778 16:2.2219103 17:-0.77309609 18:-1.4765021 19:-0.66083467 20:-0.34024222 21:-1.8620134 22:-0.97266145 23:-0.39899456 24:-1.5053572 25:0.94734637 26:1.2095789 27:0.43277064 28:0.9670557 29:-0.66904811 30:-1.3707542 31:0.72104509 32:-0.46880093 33:0.29108122 34:-1.2738415 35:1.3124105 36:-0.12014351 37:0.0045837414 38:0.12621543 39:-0.17071583 40:0.48700073 41:-0.068786848 42:-0.3362792 43:-0.47287953 44:-0.59888389 45:-0.87315021 46:-0.50116274 47:-0.54577805 48:-1.0060046 49:0.64826068 50:0.22359607 
5.12e-007 1:0.054105149 2:0.71596556 3:-0.18700237 4:-0.97436458 5:0.21131274 6:-1.852599 7:0.69372768 8:1.4549875 9:-0.76480917 10:0.42824383 11:0.9484163 12:-1.1179622 13:1.285548 14:-0.074906114 15:0.33463389 16:-1.4018463 17:0.77359402 18:-0.56885394 19:-0.039455058 20:0.31320467 21:-0.71667244 22:0.086651323 23:0.090811882 24:0.48082119 25:0.39545322 26:-0.15199259 27:0.68743707 28:-0.5343337 29:-0.0052358535 30:-0.33490048 31:-0.10128963 32:-0.24457876 33:-0.82986837 34:0.2651439 35:-1.1077045 36:-0.06482091 37:-0.90085758 38:1.3221191 39:-0.32607547 40:-1.352917 41:-0.59895324 42:-0.15536661 43:0.013094061 44:1.1340233 45:1.1752 46:0.93239002 47:0.23053588 48:0.17486105 49:-0.5459385 50:-0.27969468 
5.12e-007 1:-1.1318422 2:-1.4461362 3:0.84689678 4:0.044907922 5:-2.3173566 6:0.5483901 7:-0.14981375 8:0.37796655 9:-0.016623854 10:0.68183896 11:-1.96661 12:-0.38955573 13:-0.40548935 14:-0.37331063 15:-0.85534777 16:0.31011932 17:0.34937795 18:1.5235072 19:-0.44982335 20:0.34469377 21:1.1962412 22:-0.24763477 23:0.41512335 24:0.47318189 25:0.95921668 26:0.40229773 27:-0.061177851 28:-0.46235267 29:0.45352401 30:-0.29352344 31:0.29330707 32:-0.18616105 33:0.59162009 34:-0.036807164 35:-1.418309 36:0.5986409 37:-0.73702101 38:0.508326 39:1.2943118 40:-0.66020344 41:-0.3234312 42:0.12525995 43:-0.65446641 44:-0.017695192 45:-0.19125147 46:0.48439122 47:-0.13738181 48:2.1371254 49:0.099967757 50:2.7377055 
5.12e-007 1:0.17356211 2:0.44436956 3:1.760184 4:0.16917828 5:1.6712512 6:-0.27908914 7:1.3026452 8:-0.90406081 9:-0.87728074 10:0.45950436 11:-0.83174202 12:0.75957733 13:-0.011136044 14:0.15996041 15:1.5185561 16:0.29908579 17:0.0736061 18:0.13851034 19:0.38835642 20:0.89343499 21:0.74015862 22:0.20033601 23:-0.14297994 24:-0.08710314 25:0.092934985 26:0.8084352 27:-0.6495791 28:0.18213534 29:-0.33261075 30:0.78966739 31:-0.61211545 32:0.62546092 33:-0.12466825 34:-1.5546402 35:-0.013914916 36:0.19651869 37:0.50116454 38:0.16501138 39:0.049016189 40:0.27893761 41:0.43264681 42:0.27675881 43:-0.93883892 44:-0.80601077 45:0.16016513 46:0.52552537 47:0.72568572 48:-1.0103809 49:-0.15818776 50:-0.3659466 
5.12e-007 1:-0.16768451 2:1.5948038 3:-0.80023964 4:-0.9505817 5:-1.5522078 6:-0.25818637 7:-0.36332166 8:3.0471153 9:-0.23681758 10:0.9693211 11:-0.6407199 12:-0.85045729 13:-0.21004869 14:-1.03717 15:2.5931326 16:0.87729231 17:0.22795988 18:-0.37819394 19:0.1114085 20:-1.1534611 21:0.78585992 22:1.187607 23:0.76714564 24:-1.3563736 25:1.4730015 26:2.9906554 27:1.0842276 28:0.079980733 29:0.28855499 30:-0.61991571 31:0.97789122 32:0.30604242 33:-1.8572809 34:-0.25861433 35:-0.22918369 36:-0.39046906 37:1.889247 38:2.7554676 39:-0.72249205 40:0.18902206 41:-0.40622395 42:0.34496747 43:0.98697339 44:-0.89000527 45:-0.2682476 46:-1.2365702 47:-1.0313324 48:0.37889222 49:-0.44923819 50:0.40129765 
5.12e-007 1:0.26047845 2:1.5717565 3:-2.6778136 4:-0.63735901 5:-1.4321573 6:0.31549375 7:0.013842636 8:1.3954516 9:0.43666269 10:0.31278165 11:1.0133589 12:1.90724 13:0.48885325 14:-1.188134 15:-0.54367217 16:0.65462742 17:-2.1846529 18:-1.2857928 19:3.0060148 20:-0.44502634 21:1.7354757 22:-0.086875081 23:2.2565325 24:-0.25917925 25:1.4458982 26:-0.92098543 27:-0.2709843 28:-0.56660303 29:0.080072812 30:-0.79951136 31:-0.46937596 32:-2.6739173 33:-0.02932978 34:-0.5772267 35:0.1779293 36:0.76143487 37:-1.6093128 38:0.52051298 39:0.29906923 40:1.229428 41:-0.12118322 42:-0.39700398 43:1.4120544 44:0.20434531 45:-1.24458 46:0.2444776 47:-1.0587973 48:-0.5069698 49:0.5476688 50:-1.1146854 
4.869571766911711e-007 1:0.30859487 2:1.0379912 3:0.10832828 4:0.2239563 5:1.3091177 6:0.72963885 7:0.5450913 8:-0.29308551 9:1.5423023 10:1.0295487 11:1.0396924 12:0.85768194 13:0.34032409 14:-0.22587202 15:-0.96187525 16:-1.3663006 17:-0.55076073 18:-0.62596325 19:0.95958567 20:-3.3771455 21:-1.2052708 22:-0.65503941 23:0.93438329 24:-2.8573371 25:-0.30849093 26:-0.96812354 27:-0.97617525 28:1.6959765 29:0.014442319 30:-2.1914364 31:0.18710765 32:1.7448635 33:-1.0402723 34:-0.39734736 35:0.16162488 36:-0.76737059 37:-1.7630448 38:-1.6816953 39:0.67733013 40:1.5786235 41:0.372925 42:0.22894544 43:-0.28277607 44:-1.4066492 45:-0.8989868 46:-1.7527099 47:-1.0266017 48:-1.4416908 49:1.2621738 50:-0.42369912 
5.12e-007 1:0.37255635 2:-0.071207048 3:0.9168239 4:-0.1651975 5:0.21078622 6:1.0642976 7:-0.25211615 8:0.3963584 9:0.05804576 10:-0.46942666 11:-0.35325955 12:-0.40790329 13:-1.1602264 14:-0.79061109 15:-0.4055486 16:-2.5774983 17:-0.61642957 18:-0.46713972 19:0.92988905 20:-0.87706741 21:1.1365123 22:0.82668694 23:0.82038955 24:0.48444829 25:-0.062553834 26:0.23267644 27:-0.73033136 28:-0.32367413 29:1.9640047 30:0.39061757 31:-0.58201694 32:-1.9574023 33:0.48172999 34:1.6788183 35:1.6284155 36:0.49667512 37:-0.51751431 38:-2.252116 39:1.4047978 40:-0.054306792 41:1.7675294 42:-0.21473823 43:1.1975383 44:1.3635664 45:-1.1175437 46:1.4164212 47:0.29432522 48:-0.7497324 49:1.638653 50:-1.2794815 
5.12e-007 1:-0.00015866622 2:0.16164922 3:-0.67498855 4:0.78754147 5:-0.63098194 6:0.77120549 7:0.35669835 8:-0.41248404 9:-0.28907579 10:-0.36951474 11:0.5928318 12:0.4313948 13:-0.84925128 14:-0.28947028 15:2.736952 16:0.5606263 17:-0.67468232 18:0.0056315296 19:-0.091770407 20:-0.54215493 21:-0.13602992 22:-0.85966045 23:-0.61382595 24:-1.3978927 25:-0.34511988 26:0.37409128 27:-0.3824978 28:0.17952828 29:0.24136329 30:-3.3925838 31:0.10884418 32:-0.87233457 33:1.182211 34:1.1572068 35:-0.0068880199 36:1.6366736 37:0.72352294 38:0.35972266 39:-1.2372911 40:0.054479802 41:-2.9855895 42:0.27360169 43:-0.4462047 44:-0.52570751 45:1.1339331 46:3.279311 47:2.3118428 48:2.4430987 49:0.053958577 50:0.36583034 
5.12e-007 1:-0.61479579 2:0.32896714 3:-3.1955126 4:-0.31723482 5:0.40930824 6:0.92780165 7:-2.3807495 8:-0.97908771 9:0.44179718 10:1.262203 11:0.19703043 12:0.27269394 13:-0.51389942 14:0.29818382 15:0.080070381 16:-1.3529941 17:-0.72573198 18:-1.4308393 19:0.23183857 20:-0.83902408 21:0.063180236 22:-0.8173136 23:-0.70343968 24:0.42750846 25:-0.39583716 26:0.05661152 27:0.92539235 28:0.47664848 29:0.21483648 30:0.88526146 31:1.1226347 32:1.0849168 33:1.0575317 34:1.9666073 35:-0.38506845 36:0.60816933 37:-1.0314624 38:-0.53573744 39:-1.0925714 40:-1.487286 41:0.44520712 42:-1.1012897 43:-0.14662134 44:0.23661979 45:-1.0932475 46:-0.6172742 47:-0.26849827 48:0.082841914 49:1.3456272 50:-0.96265367 
5.12e-007 1:0.1808772 2:1.3105853 3:-0.2084338 4:0.68192912 5:0.93718916 6:0.4445344 7:1.5553556 8:1.1922221 9:1.5085924 10:1.2928946 11:-0.82041245 12:-0.14856457 13:-0.91839198 14:-0.35055823 15:1.0008465 16:-0.38049031 17:-0.010820024 18:0.68163705 19:0.27799983 20:0.49543351 21:0.01858695 22:0.72109465 23:0.33728359 24:0.049664434 25:-0.43004387 26:0.029836212 27:-0.69409767 28:-2.9270675 29:0.22568014 30:-1.5323214 31:0.27170499 32:0.65586264 33:-1.1675253 34:-1.4290492 35:-1.0715091 36:0.77744265 37:0.15287044 38:-0.29665381 39:0.26132214 40:-0.5384916 41:0.30836009 42:1.0156556 43:1.2834495 44:1.0587137 45:-0.42359716 46:-0.75315039 47:0.078209069 48:-0.88632396 49:-1.526245 50:0.098227813 
5.12e-007 1:0.37285924 2:-1.664367 3:-0.82328515 4:-1.0282205 5:-0.10568674 6:0.064991756 7:-0.69993305 8:1.5663799 9:-2.9613936 10:-1.9268835 11:0.81319347 12:1.8925071 13:0.77393088 14:-0.55065902 15:-1.2810458 16:0.051394412 17:2.5224324 18:-0.7381364 19:-0.15441389 20:1.0672371 21:-0.32398307 22:0.34968974 23:1.8211297 24:-0.13288032 25:0.86288009 26:0.52042825 27:0.73105623 28:0.55538053 29:-0.67833844 30:0.50007909 31:-0.08333059 32:-0.36395672 33:-0.77838167 34:1.1855231 35:1.0283563 36:0.87586659 37:0.015486811 38:-0.17305408 39:-0.39543469 40:1.5400944 41:0.27317169 42:0.30745748 43:-0.67373125 44:0.17860076 45:0.54361466 46:0.10508908 47:0.69168063 48:0.41481026 49:1.4930903 50:-0.14524659 
4.557949365148886e-007 1:-0.8435462 2:-0.95951646 3:0.10985313 4:-0.26984549 5:1.1638789 6:-0.6114322 7:-0.88120229 8:0.44647909 9:0.34359486 10:0.034784422 11:0.57035724 12:1.0611383 13:-0.28574341 14:0.27305181 15:0.24885095 16:-0.96958661 17:1.4900304 18:-0.55920405 19:0.21412756 20:0.448759 21:-0.83126296 22:-1.0096373 23:0.34052178 24:-1.0779717 25:-0.1455072 26:-1.0733506 27:1.9450788 28:-0.20736297 29:0.67215208 30:0.048107434 31:0.16215068 32:0.81114593 33:0.19170755 34:-0.49580273 35:-0.17173267 36:-0.35783295 37:-0.34086118 38:0.84742376 39:0.71701748 40:0.11811281 41:1.2212783 42:-1.4570812 43:0.74622597 44:0.20870228 45:0.73673358 46:-1.3222083 47:-1.2429124 48:0.44787732 49:-1.0397565 50:1.4158071 
3.979078524328904e-007 1:-0.48564849 2:0.17720347 3:0.13344001 4:-0.59229639 5:1.6174436 6:1.1379874 7:0.70369975 8:-0.34484613 9:-1.3780152 10:-0.71641598 11:-1.1847846 12:-0.30197953 13:-0.070610347 14:0.69715737 15:1.5720399 16:-0.59542899 17:1.3526856 18:0.21078275 19:1.3413439 20:0.99491523 21:0.36412489 22:0.55048622 23:0.60035619 24:1.4562117 25:-1.4911164 26:0.47362914 27:0.79576525 28:0.18528462 29:-0.58121993 30:1.0885244 31:0.35804901 32:1.0760671 33:0.13374273 34:-1.3835388 35:-0.74370178 36:-1.4810411 37:-0.62500758 38:0.24710165 39:-0.58957592 40:-0.85430957 41:-1.1881086 42:0.52320428 43:-0.15962517 44:-1.3829946 45:0.92124003 46:-0.093094737 47:-0.14384496 48:-0.39776639 49:-0.83900641 50:0.19359412 
8.203894744976013e-008 1:-0.97063392 2:0.48266679 3:1.533782 4:0.045125735 5:-0.30507765 6:1.2322484 7:-0.57812331 8:-1.0024596 9:-1.1662197 10:0.46200236 11:0.17425688 12:0.71501795 13:2.0318788 14:0.79700552 15:0.083192784 16:0.90813041 17:-0.68273833 18:0.65235623 19:0.48873785 20:0.58587423 21:-0.29391898 22:-2.5274025 23:1.1107547 24:0.20932561 25:-0.13464843 26:1.8146762 27:-1.9627106 28:-1.2220841 29:0.81001619 30:-0.30939321 31:0.021203821 32:0.13496419 33:1.5730921 34:1.2853974 35:-0.41336347 36:0.32057212 37:-0.50335691 38:-1.3489653 39:-0.18126522 40:0.067152545 41:-0.36205311 42:-1.4490343 43:-0.82963547 44:0.85449548 45:0.53972581 46:0.66679246 47:0.46712629 48:1.457216 49:-1.2515774 50:-0.03355156 
-2.603581800127442e-007 1:0.97464026 2:-1.5664148 3:-0.44619544 4:-0.77897259 5:-0.73586196 6:-1.816454 7:-0.38048065 8:-0.85742252 9:2.1551674 10:0.95248392 11:-0.15216565 12:0.72896381 13:-1.7076296 14:-1.0167447 15:0.059452345 16:0.99450499 17:0.23708115 18:0.067434026 19:-1.1809811 20:1.7994967 21:0.35504417 22:1.826304 23:1.08603 24:-0.86113543 25:-1.2935384 26:1.227671 27:1.0351775 28:0.89501825 29:1.1680638 30:0.17787245 31:1.3633945 32:0.18206942 33:-1.5325961 34:-0.63969451 35:0.38656542 36:-1.0465095 37:-0.74422109 38:-0.97962672 39:0.033099324 40:-0.52671059 41:1.0314178 42:-1.2653445 43:0.77099719 44:1.9804177 45:-1.2043663 46:0.99251652 47:-0.38439231 48:-0.88185813 49:1.3356704 50:-1.1216735 
-5.12e-007 1:0.76824396 2:-0.83369934 3:-0.88668234 4:0.94581649 5:1.6816699 6:-1.0466231 7:-0.13837031 8:1.1562972 9:0.23820299 10:-0.54666893 11:0.72178072 12:0.59862705 13:0.29227161 14:-0.32734831 15:-0.74243214 16:-0.73597766 17:0.20821769 18:-0.19960215 19:1.4815854 20:-0.055712818 21:-0.20619492 22:-1.0374744 23:0.87434764 24:-0.98455382 25:1.2105835 26:-0.68847164 27:-1.176512 28:1.0324706 29:0.7214773 30:0.54941661 31:-0.037730259 32:-0.30732263 33:-0.14644806 34:1.096082 35:1.3029632 36:0.50224846 37:-1.4905096 38:0.53880154 39:-0.040996074 40:-1.0695002 41:-0.89649741 42:1.9680068 43:0.95459174 44:0.49137293 45:0.36379488 46:-0.4001669 47:-0.15128585 48:1.3942764 49:0.19651237 50:1.3091202 
-5.12e-007 1:0.25591246 2:0.53246015 3:-0.89436721 4:0.67277255 5:0.29290826 6:-0.54543888 7:-0.40254792 8:-0.13467596 9:-0.90801198 10:-0.94167095 11:2.0431579 12:-1.1335187 13:-1.5993914 14:0.63149202 15:-1.4167104 16:-3.0193903 17:0.71235077 18:1.1923226 19:-0.72703563 20:0.38949635 21:-0.40355408 22:-0.47889558 23:0.53023984 24:0.0040170148 25:-0.25380894 26:0.62813027 27:0.91506746 28:1.6579423 29:-0.39260798 30:0.84496714 31:-1.808822 32:-0.56394803 33:1.915954 34:1.3033708 35:-2.0169587 36:-1.3394126 37:-0.61217134 38:-2.3784677 39:-2.4918995 40:0.33800902 41:-0.91685237 42:0.63889095 43:0.18226274 44:-0.67201256 45:0.42020894 46:-1.2853862 47:1.1064701 48:1.073726 49:0.30180339 50:1.1485739 
-5.12e-007 1:0.33314547 2:0.61952311 3:0.50083593 4:-1.068118 5:0.17167042 6:1.235341 7:0.21532271 8:-0.37815666 9:0.76687941 10:-1.0349864 11:0.23342263 12:1.5163073 13:0.20250566 14:1.6502028 15:-0.35440165 16:-1.7929094 17:-0.083443488 18:-1.090277 19:0.56199292 20:-1.4293866 21:1.7588726 22:0.41687808 23:0.4412022 24:1.3814395 25:0.36047121 26:0.23495392 27:1.7319318 28:0.77714852 29:-1.6442689 30:0.80641909 31:0.79391877 32:0.44538748 33:2.0048303 34:0.39164485 35:0.9849268 36:-0.33396605 37:0.65428382 38:-0.61388708 39:-0.15149997 40:0.01168134 41:0.11375794 42:-0.059333967 43:0.96666609 44:0.062695181 45:-0.36565833 46:0.71944282 47:-0.15967964 48:1.5581438 49:2.3790383 50:0.68759668 
-5.12e-007 1:0.61747907 2:-0.51456148 3:0.47576873 4:0.49276901 5:-0.2544439 6:0.046437054 7:0.15098317 8:-1.4071785 9:0.15393654 10:0.37359205 11:0.50127362 12:1.7354154 13:2.0240505 14:-0.031701028 15:-0.52213574 16:-0.66281704 17:0.62794141 18:-0.56440536 19:-0.1848384 20:0.57197128 21:0.69857385 22:-0.74097159 23:0.73792352 24:0.4187415 25:0.083264556 26:0.10245329 27:0.5396397 28:1.7179287 29:0.78879292 30:-0.90308515 31:0.28287146 32:-1.1168322 33:0.114045 34:1.2780419 35:1.5348936 36:-0.23993817 37:-0.76029281 38:-1.5121247 39:-0.97865667 40:-2.0785101 41:0.16205711 42:1.8385421 43:1.8050937 44:0.93717839 45:2.0074576 46:1.3800534 47:0.94958814 48:-0.42823356 49:0.16517643 50:1.035687 
-3.758254217768081e-007 1:0.53328583 2:-1.4003108 3:-0.021888133 4:0.45374981 5:1.7176955 6:1.1529113 7:-0.12099611 8:0.30610495 9:2.0181885 10:1.4473621 11:-0.38438463 12:-1.4048419 13:-0.85589904 14:-0.40634899 15:-1.3035375 16:0.12286823 17:0.1414905 18:1.1655629 19:0.84844492 20:-0.63194313 21:-0.040227672 22:0.044744588 23:-0.43875016 24:0.47722512 25:-0.45725553 26:0.74211071 27:-1.2936988 28:-0.31266376 29:-1.383478 30:1.5905474 31:0.87677139 32:0.74160452 33:0.94081341 34:-0.41488435 35:2.1606521 36:-0.29654635 37:-0.69121033 38:0.55659835 39:0.16561924 40:1.1493347 41:0.22750727 42:-0.55345236 43:0.45298935 44:-0.76976347 45:0.61929143 46:0.73865805 47:0.3146871 48:1.3110979 49:0.071251639 50:-0.79459824 
-5.12e-007 1:1.394016 2:-0.42863809 3:-1.1219907 4:-0.61626337 5:0.89625432 6:1.4056246 7:-0.56185883 8:0.77381508 9:-2.207722 10:-2.07789 11:0.099838669 12:-0.0059259389 13:1.5462961 14:-2.0077616 15:0.25419802 16:1.9472466 17:-0.3114468 18:1.0230936 19:-0.10779211 20:1.4518463 21:0.18775827 22:-0.29724677 23:-0.27716973 24:-0.59888783 25:2.2028145 26:-3.7720337 27:-0.14946424 28:-0.91367582 29:1.2082323 30:1.5945087 31:1.0815446 32:1.2189732 33:2.2024067 34:0.81806736 35:-2.1582014 36:-1.1767702 37:0.96411861 38:0.30740531 39:-0.15757146 40:-1.773029 41:-1.0956547 42:-2.8591857 43:0.44001564 44:0.47938378 45:0.67297017 46:-0.39693253 47:-0.024250125 48:1.0098094 49:0.47188115 50:-1.4006567 
-5.12e-007 1:0.19736966 2:0.5278639 3:0.92852817 4:0.640749 5:0.77491138 6:1.9454577 7:-0.070787239 8:0.17412519 9:0.3082526 10:0.36843593 11:0.95933727 12:-1.0836783 13:0.42712497 14:-0.64113887 15:1.7585263 16:-0.44210576 17:-2.6742107 18:0.48659466 19:0.50145191 20:0.90313761 21:0.84482188 22:-1.1849672 23:-0.51806652 24:0.11930537 25:2.3101591 26:-2.0924096 27:1.3875835 28:0.36177714 29:0.031859693 30:-0.23400176 31:-0.87598934 32:-1.1487957 33:-0.63472023 34:1.0824671 35:-0.91913952 36:-0.85497489 37:-1.4177981 38:0.21471289 39:-0.48704555 40:-0.44034492 41:0.95061568 42:0.65719296 43:-1.15609 44:0.14200745 45:0.88627233 46:-0.27488251 47:0.14266009 48:-0.5050593 49:0.85241383 50:0.088250309 
-5.12e-007 1:-0.41338302 2:1.0616911 3:0.58901031 4:-0.91320511 5:0.015319834 6:-0.6306627 7:0.44161365 8:-1.1640658 9:-0.91949302 10:0.58587033 11:-0.78259607 12:0.25363972 13:-0.24542577 14:0.29622434 15:0.51786118 16:-0.83222604 17:-1.0148897 18:1.5154716 19:1.844766 20:-0.93960552 21:-1.4348939 22:0.20572518 23:0.4187508 24:1.0006221 25:-0.098232092 26:0.88196598 27:0.56349617 28:0.98763822 29:-1.4675619 30:0.150312 31:-0.9210007 32:-1.2534763 33:0.504947 34:-0.0001783467 35:-1.1470177 36:0.52373908 37:0.84000666 38:0.16011558 39:-0.4900565 40:-0.44501834 41:-0.12574298 42:0.89148818 43:-1.5974639 44:-1.1659041 45:0.38243375 46:1.5350082 47:-1.7302814 48:0.35058571 49:0.078086677 50:0.26662108 
-5.12e-007 1:-0.041383575 2:-2.6191072 3:-1.3990335 4:-0.24848756 5:1.0558402 6:0.70166074 7:-1.4671327 8:-0.25182913 9:0.060103136 10:-1.7169819 11:-0.0010990752 12:1.1573035 13:2.0955417 14:0.96782863 15:-0.12970717 16:-0.052086897 17:0.33874936 18:-0.2234792 19:-0.21664889 20:-0.27353296 21:-0.69039003 22:0.40560987 23:0.3773502 24:-0.72782158 25:1.3423408 26:0.38312887 27:-0.37751704 28:-0.32687874 29:0.13631349 30:0.54345999 31:-0.058947012 32:0.0073408795 33:-0.30579938 34:0.65755492 35:0.11979744 36:-0.76530886 37:0.4947622 38:0.67536123 39:-0.58641561 40:0.39561527 41:0.74876651 42:0.77383761 43:-0.10464391 44:0.57575033 45:0.036598711 46:0.20415429 47:-0.23070603 48:-1.6846997 49:0.13940308 50:0.44186178 
-5.12e-007 1:-1.503347 2:0.53110748 3:1.3092187 4:0.50915697 5:0.87510984 6:0.00058249217 7:0.11384306 8:0.1167162 9:-0.65435275 10:-0.59195241 11:0.098166599 12:-0.59504682 13:-0.79600977 14:1.7406553 15:-0.78528501 16:0.016695022 17:-0.84317846 18:-0.60958684 19:0.64302829 20:0.89193797 21:0.7179825 22:1.0179053 23:1.1225706 24:0.15985343 25:0.98067765 26:-0.30682732 27:-0.44627061 28:1.3344947 29:-1.1548737 30:0.051318465 31:0.019647936 32:1.1353607 33:0.57586853 34:-0.31194281 35:0.0097465515 36:-0.15562496 37:1.5306591 38:-1.395377 39:-0.18034394 40:-0.79553023 41:-1.6889865 42:-2.1186498 43:1.1639938 44:-0.089187165 45:-0.43218217 46:-0.17607114 47:-0.96083222 48:-0.92865289 49:-0.61814177 50:-1.0301378 
-5.12e-007 1:0.85783234 2:0.4190702 3:0.84588447 4:-0.77998272 5:0.57058234 6:-1.2558962 7:0.37582653 8:0.29909471 9:0.20900407 10:-0.59019139 11:0.1254797 12:0.97911734 13:-0.049132649 14:-0.18816088 15:0.40285923 16:-0.029838328 17:0.58960644 18:0.19207035 19:-0.86420947 20:-0.99364662 21:1.470904 22:0.57715085 23:0.96754403 24:0.4575759 25:-0.062565202 26:0.1936064 27:-0.3072696 28:-0.71028553 29:-0.1991642 30:-0.90772139 31:-1.5409929 32:0.022997441 33:-0.22422329 34:-0.52408552 35:0.72621393 36:-0.12387796 37:0.34937647 38:0.8657409 39:-0.63752994 40:1.0022164 41:-0.20665987 42:0.62486747 43:-0.97168861 44:-0.063687262 45:-0.033366014 46:2.7316643 47:-1.1542749 48:-1.0979173 49:-0.30145443 50:1.2299315 
-5.12e-007 1:0.050318763 2:-1.0311486 3:-0.20937118 4:-0.9825482 5:0.18181663 6:1.1837119 7:-1.0150076 8:-1.9017311 9:0.51784164 10:0.51275754 11:-0.67811284 12:-1.1533786 13:-0.79543133 14:-0.96470337 15:-0.20319874 16:1.0421676 17:-1.5363721 18:-0.030901718 19:-0.15263222 20:-0.095138209 21:-0.42586762 22:0.61123272 23:0.58915002 24:0.60499421 25:-0.19723225 26:0.75313041 27:-1.9145256 28:0.65102723 29:1.1399831 30:0.70339965 31:-0.60629629 32:-0.74698254 33:-1.090047 34:0.054188164 35:-1.2747885 36:-0.40806602 37:-0.0065582133 38:0.26242547 39:-0.36708615 40:0.45321858 41:-0.64517964 42:0.55903683 43:-0.0737072 44:-1.0787373 45:-0.5776835 46:0.59548326 47:0.6960106 48:-0.40709097 49:-2.3335394 50:0.64373399 
-5.12e-007 1:0.20892381 2:0.66192694 3:1.8025398 4:0.46877819 5:0.69418816 6:-1.4790159 7:-1.0529756 8:0.20060708 9:0.013314302 10:0.9111637 11:0.65432245 12:0.61096152 13:-1.6271801 14:-0.21877228 15:0.19055512 16:-0.60408835 17:0.1000306 18:0.84092816 19:0.18471918 20:0.3519399 21:-0.13535029 22:0.085046491 23:0.21359822 24:0.1782645 25:0.34336367 26:1.0422483 27:0.65976952 28:0.62006796 29:0.18247442 30:-0.77748128 31:0.82224234 32:-0.29488236 33:-0.067562269 34:-0.75310918 35:0.29669741 36:-0.35816128 37:0.35313682 38:-0.041615574 39:0.97844058 40:-0.55587248 41:-0.61667548 42:1.5552401 43:-1.1773249 44:-0.32133149 45:0.41536234 46:0.23458514 47:-0.46057964 48:-0.34996173 49:1.1066823 50:0.11848157 
-5.12e-007 1:-0.10591009 2:0.42690067 3:-0.38780172 4:0.073633276 5:-0.162822 6:-0.0034650367 7:-0.72978571 8:-1.6509407 9:-0.70984025 10:1.9464093 11:0.038684311 12:-0.12474081 13:0.12724735 14:0.27756192 15:-1.6489221 16:0.82499128 17:0.3940939 18:-0.51516716 19:1.1469414 20:1.6059553 21:-0.48646973 22:-1.9234124 23:-0.12816122 24:-0.67604554 25:-2.8461994 26:-0.78177818 27:2.8222181 28:-1.3046505 29:-1.1833014 30:-1.4333543 31:-0.12826624 32:-2.4366057 33:2.490905 34:-0.87546129 35:0.56010773 36:-2.2550317 37:-1.4928046 38:2.0887526 39:-0.54192757 40:0.079344709 41:-0.42313571 42:-0.31016056 43:1.3840353 44:0.14103383 45:0.44053809 46:-1.99524 47:0.7409216 48:-0.6715116 49:-0.86337527 50:0.47845791 
-5.12e-007 1:-0.23720886 2:0.28378765 3:0.38621277 4:-1.3187455 5:-1.4389229 6:1.148245 7:-0.21766208 8:0.46778059 9:2.2238624 10:-0.64751562 11:1.1897605 12:0.15542827 13:0.17674977 14:-1.7278302 15:-1.0738702 16:-0.47372747 17:-0.043460769 18:0.19057435 19:1.6989947 20:-0.35101648 21:0.61246791 22:-1.2322715 23:0.77621983 24:0.028218249 25:-1.7543092 26:2.6168325 27:0.034159457 28:0.15772465 29:-1.3921597 30:1.6892128 31:-0.35480069 32:0.39550442 33:-0.80610035 34:0.84188456 35:0.66632143 36:-0.40683987 37:1.1538633 38:0.34352636 39:-0.29718563 40:0.07509673 41:-0.28549801 42:-0.65851097 43:-1.4401067 44:0.0028820367 45:-0.10552848 46:-0.78007185 47:0.5672608 48:-1.6015477 49:-0.41784677 50:-1.6067045 
-5.12e-007 1:0.28110943 2:1.5748028 3:-0.49213163 4:0.16064682 5:-0.20803328 6:0.64515945 7:0.083210487 8:0.12529667 9:1.0629807 10:-0.028278242 11:1.59353 12:-0.5727966 13:0.38350263 14:0.63993795 15:0.6327105 16:0.95597531 17:-0.85666161 18:-1.9375754 19:0.11657222 20:0.82051586 21:0.87275501 22:2.9208635 23:1.881989 24:-2.397956 25:-1.4018218 26:-1.0722723 27:-0.94465208 28:-0.35065338 29:-0.26708902 30:-0.47232379 31:-1.1703376 32:-1.0716255 33:1.1789392 34:-0.40897565 35:-0.34809925 36:-0.99395316 37:0.78213538 38:-0.5302393 39:-0.97724526 40:-1.1651095 41:-0.23282496 42:-1.3740635 43:0.39020005 44:-0.16596641 45:-0.73135565 46:-0.87282239 47:-0.87247068 48:0.11056398 49:-0.053390828 50:0.57723033 
-1.157305707202383e-007 1:0.75239887 2:0.1476558 3:-0.41013554 4:0.14018379 5:-0.48703574 6:1.1363961 7:-0.16744673 8:-1.1587691 9:-0.43837027 10:1.9414479 11:1.1024023 12:0.54050017 13:0.47698321 14:-0.22612631 15:-2.0994047 16:-0.70756942 17:0.58932085 18:1.2037529 19:0.030778826 20:0.45489087 21:-0.12465849 22:-0.34832507 23:0.21796545 24:-0.24825641 25:0.096688094 26:-1.379773 27:0.10318075 28:1.0085487 29:-0.66091055 30:-0.78988611 31:0.61477498 32:-0.73021123 33:1.8141114 34:1.5838211 35:0.315611 36:-0.17400131 37:2.0782139 38:0.80344566 39:1.1375154 40:0.66508551 41:0.79123519 42:-0.23899906 43:0.48855551 44:-0.61923317 45:0.87144701 46:0.74053446 47:-1.0556995 48:0.037811494 49:0.30720162 50:-0.020336793 
-5.12e-007 1:-0.89890583 2:0.44698613 3:0.91053294 4:1.8780609 5:0.13996054 6:0.67403075 7:-0.073452995 8:-0.025490898 9:-0.25297294 10:-1.3156972 11:0.2295818 12:-0.089570004 13:0.41758837 14:-0.21520477 15:-0.69615408 16:-1.0200317 17:0.9619789 18:-0.17456093 19:0.71780971 20:1.5638228 21:-0.99220572 22:0.44968367 23:-1.330267 24:-0.13315301 25:0.58469116 26:-0.83502464 27:-1.5796826 28:-0.48758919 29:1.9651883 30:0.45228869 31:-2.5042191 32:-0.92246844 33:-1.4383006 34:-1.4526201 35:0.24444867 36:-1.3355227 37:-0.91899795 38:1.2661335 39:1.6747459 40:-1.6267166 41:0.32352646 42:-0.99379594 43:-2.367134 44:0.31679589 45:-0.64799295 46:0.99374609 47:-0.26409738 48:1.4746206 49:0.34189039 50:2.5679312 
-5.12e-007 1:-0.53709917 2:0.82127525 3:0.66805066 4:0.95162106 5:-0.27038968 6:0.6737185 7:-0.42568002 8:0.28536423 9:0.13518646 10:0.43899187 11:-0.59756564 12:1.7530235 13:-1.6545817 14:-0.88265656 15:-0.58956294 16:0.13430217 17:-0.4121626 18:-0.096616911 19:-2.3632268 20:0.23309946 21:1.7114792 22:0.81665715 23:-1.2846842 24:-1.0264079 25:0.86799701 26:0.3452069 27:2.2250271 28:-0.60767071 29:-2.9073406 30:-1.1583675 31:-1.2514706 32:2.0442472 33:-0.70719284 34:2.0400947 35:-0.23147628 36:1.9144697 37:-1.6059727 38:1.8756606 39:2.3969173 40:-1.6349374 41:-0.13168194 42:0.62741001 43:0.053717171 44:1.1094123 45:1.4350085 46:-1.430973 47:1.068447 48:-0.34374194 49:-2.4333622 50:0.65947794 
-5.12e-007 1:0.21262806 2:0.034696847 3:-2.1323641 4:2.0546101 5:0.20531057 6:-0.53002495 7:0.92738828 8:-0.77670322 9:0.14505465 10:0.25787557 11:-0.1461809 12:-1.5954283 13:-1.1511489 14:-1.1326119 15:0.25369862 16:0.0064519223 17:1.1658113 18:-0.3919144 19:0.31651802 20:0.79194635 21:0.39580562 22:-0.34178983 23:-0.52354792 24:0.61450354 25:-0.74067169 26:-2.0228268 27:-0.83424929 28:0.65624567 29:1.3274041 30:0.52338918 31:-0.93800512 32:0.75415264 33:-0.52702468 34:-0.87909175 35:1.7396984 36:0.51890881 37:-0.18560019 38:-0.6056061 39:0.35079782 40:3.5045835 41:1.2813618 42:0.81729762 43:2.170382 44:-1.4008772 45:0.4064786 46:0.69533298 47:0.13835855 48:1.7779476 49:1.2706406 50:1.0306049 
-5.12e-007 1:-2.1988629 2:0.85622364 3:0.72319118 4:0.76713472 5:0.44163864 6:0.12725778 7:0.95791175 8:0.13066486 9:0.58525261 10:-0.83685878 11:0.40041893 12:0.049273996 13:-0.19374571 14:-0.62889865 15:0.16958197 16:0.91122519 17:-0.72674537 18:-0.94371759 19:-0.38816001 20:-1.0354537 21:-0.2376741 22:0.054320907 23:-0.63252034 24:-0.88469914 25:-1.3517237 26:1.2434246 27:-0.49246076 28:-0.97395435 29:-0.55481002 30:0.26529312 31:0.92449241 32:0.36437869 33:0.66053231 34:0.6199314 35:-1.8005641 36:0.84244349 37:-1.4428519 38:-1.0202643 39:0.64376102 40:-1.7413606 41:-1.0125455 42:0.78795112 43:0.74738577 44:-0.50340652 45:-1.2791823 46:-0.32592606 47:0.6483541 48:1.4609018 49:1.9765042 50:-1.0563131 
-5.12e-007 1:0.45902102 2:-1.9505126 3:0.68519221 4:0.74167903 5:0.36784602 6:-0.16912376 7:0.25653609 8:-1.4506263 9:1.0231184 10:-0.13051975 11:-0.00014961128 12:-0.46776629 13:0.68578483 14:-0.99369739 15:-0.27399684 16:0.98683101 17:-0.29737404 18:0.83753828 19:-0.97106291 20:0.43707805 21:0.98130949 22:0.19806083 23:0.32414952 24:-0.31622723 25:0.042123907 26:0.20908973 27:-1.2474842 28:-0.59780921 29:0.27175769 30:0.41271779 31:-1.1676753 32:-0.30195726 33:0.28077836 34:1.0657987 35:0.42117525 36:0.68681828 37:1.1625421 38:0.78470182 39:0.54469161 40:-0.57762483 41:0.47432495 42:-0.51766146 43:0.25607958 44:0.061686715 45:0.83996858 46:0.12492611 47:1.8468238 48:1.248779 49:1.3380979 50:-0.79824394 
-4.626483592432552e-008 1:0.97187005 2:-0.25200572 3:0.55965676 4:-0.44354163 5:-0.30972953 6:-0.5152715 7:1.5191012 8:0.41874395 9:-1.9918907 10:0.27891523 11:-0.3949328 12:-1.4031771 13:0.29226129 14:-0.11990424 15:0.34589492 16:-1.134812 17:-0.43012084 18:-0.5678813 19:-1.8214845 20:0.01036937 21:2.1300444 22:-3.4028466 23:0.44463552 24:-0.1333526 25:0.721811 26:-1.4977031 27:-0.56363671 28:-0.050683528 29:-2.0349338 30:-0.08982433 31:-0.71363759 32:-0.61416738 33:0.056726125 34:-0.34573588 35:-0.66744283 36:1.4240923 37:-0.36022581 38:-0.022807768 39:-1.1533542 40:0.59600061 41:0.69092101 42:0.13836988 43:0.65800352 44:0.51581885 45:-1.1298193 46:-0.40624866 47:-1.2706523 48:-0.53668815 49:0.70798104 50:0.05988597 
-5.12e-007 1:1.0235011 2:-1.3356044 3:-0.48124096 4:-0.54875726 5:1.0248801 6:-0.44094344 7:-0.54015461 8:-0.59196194 9:1.1871928 10:-1.27587 11:-1.5830102 12:-0.11230446 13:-0.93242184 14:-1.1051628 15:0.81164527 16:-0.31736501 17:0.56885939 18:-0.21501034 19:0.69683217 20:0.26857165 21:-0.43823527 22:-0.97520903 23:0.67385155 24:-0.84154199 25:-0.10275726 26:0.40384519 27:-0.23574626 28:-0.28130978 29:-1.0462276 30:-1.3248448 31:1.6782226 32:-0.38016798 33:-0.43279044 34:-0.019301376 35:-0.56097348 36:0.84246106 37:-1.5310603 38:-0.45332605 39:-0.87378138 40:-0.60184789 41:-0.13785169 42:-1.6935958 43:-1.7261759 44:0.72675392 45:1.332563 46:-0.062378637 47:-0.85240322 48:0.34934775 49:-1.6142227 50:1.3088713 
-5.12e-007 1:1.415325 2:0.15643269 3:1.4753232 4:-0.55037064 5:-0.24491242 6:-0.91310146 7:0.21883322 8:1.031903 9:-0.33004823 10:-0.93085065 11:-0.25505379 12:-1.4854348 13:2.5980606 14:-0.84905227 15:0.53365075 16:0.52920838 17:-1.5573935 18:-0.76182037 19:-1.1853965 20:-0.60819548 21:1.8758127 22:-2.0056356 23:0.51618722 24:-0.42347675 25:-0.63975962 26:-0.7517701 27:1.3525718 28:-0.30804739 29:0.15291427 30:-0.017466159 31:-0.21022702 32:0.63992048 33:0.37172998 34:0.027172901 35:-0.43172871 36:-0.41790058 37:0.064399542 38:-0.56081991 39:-0.12250277 40:0.10318769 41:0.019267064 42:0.40598216 43:0.96802321 44:1.1823431 45:0.26733919 46:-0.54195689 47:1.0113834 48:0.28336227 49:0.79385608 50:-0.51936182 
-5.12e-007 1:-0.79155926 2:1.4547201 3:1.4463109 4:-1.3123332 5:-0.36530633 6:1.7077754 7:-0.72264358 8:-0.47166776 9:0.19428801 10:-0.4765818 11:0.4516586 12:0.1620776 13:-0.51236503 14:0.013631453 15:-0.79754985 16:0.036650603 17:0.18410622 18:-0.14084669 19:-0.052184634 20:-0.17453262 21:-0.68057332 22:-0.15625646 23:0.58128687 24:-0.51651599 25:0.72478098 26:1.411527 27:-0.21117814 28:-0.40929795 29:0.52275345 30:-0.78634726 31:-1.0011408 32:-0.64584689 33:-0.033795287 34:0.76878259 35:1.1766553 36:0.27027962 37:-0.41081307 38:0.79021219 39:-0.20485008 40:-0.41829435 41:0.23283086 42:-0.60931042 43:0.20010004 44:-0.96361706 45:-0.81711636 46:1.2852562 47:0.87072037 48:0.14730548 49:-0.54366693 50:-0.0014626598 
-5.12e-007 1:-0.8494369 2:1.0764472 3:-0.29128238 4:-2.0191019 5:-0.67398351 6:0.018235063 7:0.3944667 8:-1.0494573 9:0.44696345 10:0.32453747 11:0.6346957 12:-1.1396908 13:0.22274508 14:-0.39273441 15:-0.35704494 16:-0.29371846 17:0.25182655 18:-0.35151542 19:-0.18859317 20:-1.3403596 21:-0.13190625 22:1.0024656 23:0.61150863 24:0.5330744 25:0.64101137 26:-0.17705096 27:0.67566933 28:0.56917036 29:1.6686491 30:0.69261527 31:0.86490276 32:-0.35823531 33:-0.29829507 34:0.77824387 35:0.076310782 36:0.52180512 37:-0.82244281 38:-0.26592763 39:0.14511019 40:-1.1490661 41:-1.0698254 42:0.71682782 43:-1.0109504 44:0.16398463 45:-1.2017404 46:-0.096992908 47:1.2513063 48:-0.054662316 49:0.71171557 50:0.98758495 
-5.12e-007 1:-1.7158996 2:-0.70579586 3:0.13750755 4:-1.1334684 5:0.0037015463 6:2.3286883 7:-1.3884555 8:-0.39171556 9:1.9168393 10:1.293495 11:-0.66243158 12:0.48306 13:-0.77579668 14:0.16147788 15:-0.041528616 16:1.0045947 17:-0.084687487 18:-0.093347618 19:0.4654332 20:1.2087074 21:1.0082184 22:-0.20373214 23:0.93350746 24:0.0011302409 25:-0.65613502 26:0.49042357 27:-0.079030781 28:-1.6387998 29:-0.67786725 30:0.38509089 31:-0.30203692 32:0.72791166 33:0.83108706 34:-1.1718472 35:1.5555137 36:-2.1055762 37:0.45176014 38:-1.2277148 39:1.0321279 40:0.22762027 41:0.061658598 42:0.88052629 43:-0.56780578 44:0.40406602 45:-0.7013884 46:0.87194401 47:0.15074027 48:0.62932803 49:0.7038274 50:1.304422 
-5.12e-007 1:1.1266847 2:-0.9299213 3:0.12979858 4:-0.59338247 5:0.81860226 6:-1.258018 7:0.21456685 8:1.061266 9:1.453758 10:2.2491063 11:-0.63626716 12:-0.28980725 13:1.4367363 14:-0.39308633 15:0.34898819 16:1.3005408 17:0.78423079 18:0.99506013 19:0.99915855 20:-1.7591966 21:0.67619302 22:0.26217266 23:-0.51540047 24:1.2421933 25:-1.1599838 26:0.85294574 27:-0.34667024 28:1.5549759 29:-1.226443 30:-0.63521456 31:0.040984304 32:0.18079712 33:0.88562784 34:2.6998244 35:-0.1907498 36:1.2713163 37:-0.78709298 38:-0.5631824 39:0.45057085 40:0.30965693 41:0.3667831 42:-0.67990307 43:0.98066767 44:-0.82726601 45:-0.20892937 46:-1.0800297 47:0.73213732 48:0.75642832 49:-0.22374344 50:0.84060952 
-5.12e-007 1:1.1139396 2:0.71043235 3:1.1153508 4:-0.80813803 5:0.24231795 6:-1.2022444 7:-0.54970623 8:-0.79936539 9:-0.26752352 10:-1.1922109 11:2.6977587 12:1.0751642 13:-0.69905914 14:0.33239389 15:1.1020012 16:-0.055845215 17:0.73894058 18:1.0380519 19:-0.91486734 20:-0.27320499 21:0.058320768 22:0.24880114 23:-0.093167369 24:0.18149349 25:0.29671986 26:0.10366367 27:-0.32799527 28:-0.36950191 29:-0.3297333 30:0.55548301 31:0.63495226 32:-0.10141263 33:-0.10107535 34:-0.66366725 35:-0.58666357 36:0.35635286 37:0.6371892 38:0.22632476 39:0.72385472 40:0.44401978 41:-1.3390174 42:-0.12485137 43:0.49605916 44:0.10626777 45:-1.4886993 46:1.5562173 47:-1.5091642 48:-0.88302824 49:-0.55004979 50:-0.13660212 
-5.12e-007 1:0.99562783 2:0.91582944 3:-1.0748154 4:0.29000173 5:-1.2189058 6:0.16371087 7:1.3918449 8:0.29276479 9:-1.7318127 10:-0.084562312 11:-0.14104333 12:-1.288997 13:-1.9664177 14:0.068812052 15:0.46531116 16:-1.2657226 17:0.23158855 18:-1.5319657 19:0.093624905 20:1.2846027 21:-1.7484799 22:-1.459231 23:1.3810726 24:1.8038266 25:-0.19294371 26:-0.1070372 27:-0.78393857 28:0.23925886 29:2.3427242 30:-0.47455166 31:1.3608855 32:0.0077121766 33:0.60334462 34:1.5192575 35:-1.0657469 36:0.16983482 37:0.0020086027 38:-2.8082163 39:0.82110072 40:-1.408774 41:0.89295799 42:-1.6799218 43:0.066814859 44:-0.64504663 45:1.1078002 46:-1.1626556 47:-0.050740196 48:-0.75594538 49:0.73517021 50:0.79216542 
