svm_type c_svc
kernel_type polynomial
degree 1
gamma 390625
coef0 0
nr_class 2
total_sv 159
rho -0.0258093
label 0 1
probA -0.489581
probB -0.117911
nr_sv 81 78
SV
1.536e-006 1:1.0107312 2:0.34480381 3:0.071613322 4:0.48752985 5:-1.7848094 6:2.5477556 7:-1.6822283 8:-0.23055823 9:0.16987246 10:-0.51142755 11:1.0014324 12:2.1109263 13:0.58374678 14:-1.106382 15:0.8128591 16:0.13936537 17:-0.34701146 18:-0.21122285 19:-1.6780502 20:-0.26849951 21:-0.65712633 22:-0.57870731 23:-0.25109684 24:1.8115834 25:0.2569425 26:1.9202256 27:1.9901602 28:1.305605 29:-0.69089607 30:-1.2600955 31:0.092544064 32:-3.0509409 33:1.0290211 34:1.0887492 35:0.67995024 36:-2.1550813 37:1.6933698 38:0.68578943 39:0.044986668 40:1.5297235 41:-0.10660676 42:-0.8203394 43:-0.13725471 44:2.8371338 45:3.8901192 46:0.35136859 47:-0.015103637 48:-0.034059023 49:-0.2419638 50:-2.9783162 
1.536e-006 1:0.23151448 2:-1.8043121 3:1.8558209 4:-0.67361566 5:0.49450748 6:0.53850948 7:0.57860358 8:0.50445309 9:-0.64509408 10:-0.40422547 11:-0.084228798 12:-0.24674352 13:0.18099775 14:-1.1731135 15:-0.29534206 16:-0.52968391 17:0.46153944 18:-0.0048514469 19:1.1215549 20:-1.3677273 21:0.082835208 22:-1.5647513 23:-0.81758137 24:0.094326127 25:0.74223163 26:0.2767185 27:-0.172639 28:0.099633696 29:-0.68035201 30:0.77193197 31:0.98031217 32:0.026813097 33:-0.90361851 34:-0.72148028 35:0.70158432 36:0.042802532 37:-0.43246083 38:-0.45579836 39:0.89873486 40:-0.27229883 41:0.47224936 42:-0.59703235 43:0.4898153 44:-0.28617335 45:-0.99185454 46:0.051078503 47:0.49906518 48:-0.61971118 49:-0.49234155 50:0.61863663 
1.227318610234237e-006 1:-0.3603965 2:0.048404168 3:0.01943933 4:0.48562927 5:0.38280806 6:-1.1264029 7:-0.91565408 8:0.41832045 9:-1.0348712 10:1.6501916 11:1.041529 12:-2.207236 13:-0.66179561 14:1.2354776 15:-1.432078 16:-0.66111164 17:-0.7410462 18:1.0565706 19:-1.531649 20:0.077700502 21:-1.2395293 22:1.7027722 23:-2.0300756 24:-0.12115137 25:0.49698286 26:0.42472321 27:1.5440971 28:-0.059549774 29:2.6272816 30:0.31997879 31:-0.36300769 32:-0.82062358 33:-0.47429358 34:-0.3305222 35:-1.4039888 36:0.98838693 37:-0.21301222 38:-1.1749847 39:-1.1223428 40:-0.59328774 41:1.2742765 42:-0.86606287 43:0.088272077 44:0.30565494 45:-0.66181466 46:-1.5343521 47:-1.0203297 48:-0.16246797 49:0.3348919 50:-0.84688138 
8.135925749485509e-007 1:0.48872857 2:0.80551256 3:1.0088823 4:0.26591095 5:0.8889371 6:2.3942249 7:-0.43650086 8:-1.0568438 9:-1.0561845 10:0.28897957 11:-0.49378308 12:1.313764 13:0.3339077 14:-1.4776804 15:1.3645963 16:-1.2968388 17:2.1257049 18:0.22461479 19:-0.22098602 20:-0.62035911 21:0.42713473 22:-0.38217882 23:-0.22043005 24:1.2058565 25:-0.89343389 26:-0.77223028 27:-0.064304519 28:0.36651188 29:-1.4369122 30:0.9917696 31:0.72945518 32:0.36600141 33:-0.59121594 34:0.29630391 35:-0.63524672 36:-1.9547939 37:-0.63978957 38:0.78547387 39:-0.5473255 40:0.19665183 41:1.2846749 42:3.8884101 43:0.55119226 44:1.741205 45:-1.1199815 46:-1.1930947 47:1.6572185 48:-0.062131487 49:1.1267669 50:-0.32650916 
1.536e-006 1:-0.16789095 2:-1.6433282 3:1.1032504 4:0.97504216 5:-0.88398449 6:2.0497764 7:1.0131533 8:1.6661776 9:0.96731085 10:-0.66286252 11:-0.63847129 12:0.45472546 13:0.33458802 14:0.97076301 15:2.2958873 16:-0.29996543 17:0.50830835 18:-0.49993037 19:0.79103204 20:2.4537512 21:-0.35314693 22:0.035292468 23:-1.0829938 24:-0.12607853 25:1.2028369 26:0.34116322 27:-0.29203533 28:-0.37367694 29:-0.58819973 30:0.26022101 31:-0.84528372 32:1.0750882 33:-0.69942745 34:-0.40549911 35:-0.49233775 36:-0.14697896 37:0.0092157144 38:-0.43238099 39:0.89438078 40:0.42383261 41:0.10935779 42:0.20405208 43:-0.36874878 44:1.1659966 45:-0.23805962 46:-0.3405542 47:-0.49529533 48:0.051144295 49:0.52097153 50:-0.65731967 
1.536e-006 1:-1.0626315 2:-1.419718 3:1.2867678 4:-0.62953571 5:-1.9706465 6:0.52133129 7:-0.076198711 8:0.18987441 9:-0.57471971 10:1.2532208 11:-0.95599404 12:-0.75279162 13:0.12119406 14:0.35211977 15:-0.34268573 16:0.82708977 17:0.61590876 18:-0.94237519 19:1.7130971 20:0.66281976 21:0.41115223 22:1.0243192 23:-0.32320417 24:-0.82860696 25:0.12457995 26:-0.51479164 27:-0.28999608 28:-0.40813306 29:-0.093697869 30:0.66400572 31:-0.64559913 32:0.24263885 33:1.5372362 34:0.078713235 35:0.95542957 36:-0.67122202 37:0.93835246 38:0.489784 39:-0.8077764 40:-0.67194902 41:-0.43944314 42:0.99504236 43:0.32477484 44:-0.46045924 45:0.26478356 46:-1.3655604 47:0.2396139 48:-0.20312597 49:-0.023346492 50:0.73081932 
1.094271013550154e-006 1:-0.647015 2:2.1576689 3:1.8483664 4:0.70566914 5:0.14378096 6:0.3632022 7:-0.00041057385 8:-0.86195763 9:0.59217996 10:-0.49176687 11:-0.5638892 12:0.9560759 13:0.29851065 14:-1.5660904 15:0.60115043 16:0.73159825 17:-0.52207116 18:-1.1525969 19:-0.69822941 20:0.57656739 21:0.77051931 22:-0.9945004 23:1.4612401 24:-1.5135303 25:-1.0784134 26:0.99387008 27:0.51899361 28:-0.28714482 29:-1.4169489 30:-1.2157659 31:1.6680437 32:-1.6981605 33:-0.038151859 34:0.34429991 35:-0.56325734 36:2.0765958 37:-1.5901444 38:-0.24329107 39:-0.44085609 40:-0.18466275 41:-0.040170292 42:0.10725626 43:-0.38643792 44:-0.78298629 45:-0.13014867 46:0.5391523 47:0.58634029 48:-0.3601645 49:-0.33004416 50:0.26808868 
9.089890914635414e-007 1:-0.3993617 2:-0.13278997 3:0.43690246 4:0.99398273 5:0.8502895 6:0.24559597 7:1.379661 8:1.2896908 9:0.32677103 10:2.4601625 11:-0.2548507 12:1.1839541 13:-1.8391144 14:-1.1859268 15:1.3223988 16:-0.3812309 17:-0.035532108 18:1.250963 19:-0.10498039 20:-1.3388274 21:-0.63467879 22:-1.275148 23:0.61590993 24:0.15549253 25:-0.60772045 26:-0.19084255 27:0.16016969 28:-0.4607992 29:-1.1170394 30:-0.80692139 31:-0.24771769 32:-1.2077215 33:0.60556228 34:0.44699535 35:2.3225986 36:-0.78627718 37:-0.24627776 38:1.4729442 39:0.42152042 40:0.57670729 41:-0.58909348 42:0.24769533 43:-0.23812436 44:-0.89227158 45:0.26198289 46:0.47961009 47:0.3312338 48:-0.70876783 49:-0.18579947 50:0.65385533 
1.536e-006 1:0.66497039 2:0.38235955 3:0.49700011 4:-0.11068356 5:0.040396882 6:-1.7412954 7:-0.76521266 8:1.7819871 9:-0.91384029 10:-0.89862822 11:0.18766145 12:1.4399653 13:-0.12214544 14:-0.14886244 15:1.6976284 16:-0.30684719 17:-0.13512848 18:-2.0989024 19:-0.5716506 20:-0.68134748 21:-0.70407765 22:-0.47261074 23:0.82156804 24:0.30951242 25:-0.11791985 26:0.37893783 27:0.27344737 28:1.7274172 29:1.9369562 30:-0.98838295 31:-1.2876051 32:1.179597 33:0.81737204 34:-1.2232513 35:0.093918991 36:-0.70945577 37:-1.9756138 38:0.22103318 39:-0.46006827 40:2.0808843 41:-0.54222024 42:-0.075513549 43:-0.35154433 44:0.20694169 45:-0.20757966 46:-0.32319549 47:0.16724783 48:-0.34835158 49:0.53598862 50:-1.0732168 
5.347015648345894e-008 1:0.74275961 2:1.4759234 3:-0.58840075 4:1.0944896 5:1.863932 6:1.1665008 7:1.3281933 8:0.26697463 9:0.20340951 10:0.069395485 11:-0.49410962 12:1.8048922 13:-0.55323807 14:-0.39712022 15:-0.78164734 16:0.3773434 17:-1.2248597 18:0.48433202 19:0.12649012 20:0.75302875 21:0.21092782 22:1.5318852 23:-0.39802834 24:0.92316016 25:0.49913225 26:0.45014825 27:-1.14417 28:0.29128357 29:-2.2114033 30:1.6376519 31:1.0736079 32:-1.9268272 33:-0.41153348 34:0.58679478 35:2.0331033 36:-0.32146097 37:0.40366243 38:0.60071176 39:-1.551974 40:-0.89580426 41:-0.56878525 42:-0.024580171 43:2.266221 44:-1.2414495 45:-2.0399013 46:-0.14296782 47:0.86862409 48:1.4909203 49:0.2589015 50:0.73187224 
1.536e-006 1:0.82582024 2:-0.33628455 3:-0.94899696 4:-0.97210879 5:0.42361722 6:0.67743828 7:0.93645945 8:-0.65773704 9:-0.54521341 10:-0.35744938 11:-0.29755462 12:-0.23152944 13:-0.57495277 14:-0.8138895 15:0.97223596 16:0.99875673 17:-0.32586111 18:2.3151023 19:1.0239689 20:0.15368806 21:0.46231964 22:-0.16313171 23:0.79745353 24:-0.13782217 25:-1.2740201 26:0.87163481 27:-2.0270362 28:-0.11802182 29:-1.4464856 30:-0.15145379 31:-1.1200386 32:0.83573498 33:1.0956007 34:-0.57516231 35:0.22764248 36:0.80457944 37:0.0047400447 38:-1.6863331 39:-0.6187339 40:0.79999096 41:1.8820545 42:-1.8242293 43:0.61906347 44:0.61783019 45:-0.87853502 46:1.0887165 47:-1.0913341 48:-0.532388 49:-0.031275622 50:1.7371388 
8.6051002265102e-007 1:-0.87226422 2:-0.17327425 3:-0.50919072 4:-2.1222346 5:-0.79506761 6:0.081411456 7:0.7254103 8:1.2127635 9:-1.5113447 10:2.19252 11:-0.13363986 12:1.0437787 13:0.9367481 14:-1.1971739 15:-0.54045063 16:0.20490244 17:-0.16792825 18:-2.4987466 19:-0.43540174 20:-0.65919137 21:-1.282015 22:1.8118142 23:1.4940136 24:-2.3299734 25:-1.8980151 26:0.52411895 27:0.79113017 28:0.074524305 29:0.26658286 30:0.45150296 31:0.47318163 32:0.056490797 33:0.93615287 34:-0.26101911 35:-0.84552402 36:2.1499423 37:0.2057363 38:0.34630079 39:0.88418136 40:1.6377019 41:-1.3560103 42:0.14661844 43:-1.0136235 44:-1.4655221 45:-0.38391161 46:0.45135384 47:0.09978825 48:-0.28310385 49:-1.150782 50:0.94619554 
1.536e-006 1:0.64827988 2:0.39506342 3:-1.0464928 4:0.037577864 5:0.52524371 6:1.1703193 7:-1.5004174 8:-1.4088003 9:0.40246526 10:0.54121914 11:0.99824997 12:1.2633974 13:0.5123449 14:-1.4656972 15:-2.3922811 16:1.7973531 17:-0.77410963 18:-0.64941595 19:0.10630508 20:0.14241304 21:-0.38141789 22:-1.5894655 23:0.20239171 24:-1.3200883 25:-0.13057478 26:-0.093650832 27:0.64599811 28:-0.35983117 29:0.88599086 30:0.56109654 31:1.0393804 32:-0.51227313 33:-0.43997611 34:-0.13950797 35:0.41810087 36:2.6014511 37:-0.052424964 38:-0.42428529 39:-0.08077097 40:-1.4750687 41:0.18399806 42:-0.63116472 43:0.26770467 44:-1.7718566 45:1.2127037 46:-0.091262417 47:0.89969053 48:-0.32804863 49:-0.85117499 50:0.5642225 
1.026340350468287e-006 1:-0.49516646 2:1.2532764 3:-1.5814068 4:2.0139105 5:2.6365256 6:0.81645809 7:-0.64022141 8:-0.3272187 9:0.30079064 10:-1.0334907 11:-0.73317422 12:-0.40629273 13:0.28735337 14:0.059450877 15:1.1847064 16:-0.75436349 17:0.030762623 18:1.0117235 19:0.76189546 20:-0.38232623 21:0.18110884 22:0.8597102 23:0.12826692 24:-0.74602123 25:-0.095342772 26:0.90376396 27:1.0136602 28:-0.65065885 29:0.034292089 30:0.39105049 31:0.55219857 32:0.9506091 33:1.5666116 34:-0.50038565 35:-0.17543083 36:1.3118362 37:-0.47232191 38:1.4261382 39:-0.52530224 40:-1.6494203 41:0.49069063 42:0.16953132 43:-0.42728647 44:0.99778527 45:0.25509275 46:1.0903636 47:-0.28310117 48:0.72193122 49:0.79141203 50:-1.9707457 
1.536e-006 1:-2.1755373 2:0.059997194 3:-1.1750471 4:0.43222154 5:-0.053562682 6:-0.73233624 7:0.12839565 8:-0.53741979 9:-1.0541568 10:1.1448139 11:-1.0993282 12:0.11432274 13:-1.053776 14:1.786196 15:0.45816137 16:0.53059319 17:-0.31989219 18:0.058988688 19:-0.35564869 20:-0.24905472 21:0.51774731 22:1.9136521 23:1.6935638 24:0.59277139 25:-0.13230033 26:-0.40943976 27:1.2236883 28:0.90764358 29:-1.1758397 30:0.92670188 31:-0.067978884 32:-1.2734714 33:-0.73122668 34:-0.93376329 35:-0.87743301 36:0.72392566 37:1.9315041 38:0.50579587 39:-0.67961288 40:0.69701091 41:0.55994972 42:-0.33359493 43:-0.089097264 44:-0.34187188 45:-0.30182663 46:0.70176731 47:-2.3386706 48:0.77578895 49:0.53932952 50:0.43472561 
1.536e-006 1:-0.68813796 2:-1.2115938 3:0.23143616 4:-0.046292489 5:0.69836346 6:1.1852469 7:-0.46484107 8:-0.47132951 9:-0.38738691 10:-0.17696254 11:0.61031379 12:-1.3766205 13:1.3634386 14:0.58789051 15:-1.2543362 16:0.73050045 17:-0.30637077 18:1.4718048 19:1.071598 20:-0.29531029 21:0.26695158 22:0.45018986 23:1.3068239 24:0.6957196 25:-0.39802332 26:0.87701172 27:0.085508482 28:0.32573618 29:-0.38946291 30:0.82677244 31:1.0309605 32:1.00189 33:1.1638442 34:-1.4774906 35:-0.4827228 36:-0.7422214 37:-0.54085123 38:-1.0052248 39:-0.031519613 40:-0.42536807 41:-0.8475943 42:-1.4917583 43:-2.7039414 44:-0.27905244 45:1.5129912 46:-1.0208642 47:-0.56006972 48:0.14873295 49:-0.1931339 50:0.037541293 
1.536e-006 1:-0.85351122 2:-1.0634139 3:-0.0574575 4:1.8571988 5:-0.8856657 6:0.59986336 7:-0.22243764 8:0.19552539 9:-0.46244555 10:0.33086638 11:-0.52387311 12:0.50479401 13:-1.0603414 14:-0.27085206 15:-0.16872211 16:0.72438639 17:-0.51258805 18:-0.43897104 19:-0.58254407 20:0.57754974 21:-1.5273984 22:0.18476238 23:0.58178136 24:-1.73051 25:0.054900999 26:1.0214461 27:-0.10358025 28:0.80446914 29:-0.45374034 30:0.50034448 31:0.10664289 32:1.1840732 33:-1.2214304 34:0.53304045 35:0.83519801 36:-0.27739515 37:-0.99154528 38:0.79516506 39:-0.039635915 40:1.0525063 41:-0.52044508 42:0.980648 43:-0.70285169 44:0.053685635 45:0.014576414 46:1.0162856 47:-1.032145 48:0.74511474 49:-0.2550794 50:0.026409785 
1.536e-006 1:0.8195221 2:-0.066121199 3:0.25037147 4:-0.09460261 5:-1.4131519 6:2.9615396 7:0.58594253 8:-0.34721246 9:0.88049984 10:0.79361985 11:0.67598505 12:-0.12380588 13:-1.5934191 14:0.39477051 15:0.75881959 16:-0.62447487 17:-0.33048698 18:1.2107554 19:-0.036378657 20:0.055726333 21:-0.019472731 22:-0.86265742 23:0.28810268 24:2.1870791 25:0.84515291 26:0.10729072 27:0.96992688 28:0.048021633 29:2.4403024 30:0.84034836 31:-0.06257251 32:1.0174342 33:-1.8332838 34:-0.64660159 35:-0.25897806 36:0.52135902 37:-0.71849958 38:0.88598169 39:0.098890599 40:-0.0050453173 41:1.3213936 42:-0.66157842 43:0.42594585 44:-0.21038695 45:-1.1369734 46:-0.71038105 47:0.85107888 48:-0.29081323 49:0.28122431 50:1.0055866 
7.392792583391352e-007 1:-1.618837 2:0.70826016 3:0.4819767 4:0.13259488 5:-1.217137 6:-0.57217884 7:0.80723016 8:-1.1517308 9:0.064264502 10:1.6569063 11:-1.2525067 12:0.52564359 13:0.80568081 14:0.45574678 15:0.13392426 16:-0.31339847 17:0.32498982 18:1.3865289 19:2.0138812 20:-1.0120202 21:1.2315311 22:0.41831134 23:-0.51158606 24:-0.92269116 25:-0.24413443 26:1.0269877 27:0.65333157 28:-0.66742539 29:0.25568949 30:1.9995567 31:-0.31659765 32:-1.3435805 33:0.391128 34:-0.93556694 35:-0.040454616 36:-1.8934746 37:-0.54734646 38:0.61660456 39:0.090028079 40:0.97660443 41:-1.2789297 42:-0.8868085 43:-0.19942146 44:-0.038061989 45:0.81201041 46:0.78445618 47:0.25968317 48:1.1796766 49:-0.96784923 50:0.75819326 
1.536e-006 1:0.056447455 2:0.57434941 3:0.45484029 4:-0.54634624 5:0.94677215 6:1.015037 7:-2.1403458 8:-0.73336826 9:0.96197733 10:-0.36454738 11:2.2411839 12:-1.2984756 13:0.087194183 14:-0.088985376 15:-1.3830333 16:-0.60391416 17:1.61092 18:0.093309344 19:-1.0606551 20:-2.1965124 21:-2.5383058 22:-0.060150399 23:-1.0315651 24:-0.64596829 25:-0.05222385 26:1.1279125 27:-2.1531872 28:0.48544232 29:-1.4456452 30:0.068043935 31:-1.8816849 32:-2.0707889 33:1.8289469 34:-1.6348977 35:0.25874921 36:1.3216828 37:0.26338695 38:0.68638498 39:-0.20873921 40:0.26977609 41:0.30588272 42:0.35217309 43:0.81290978 44:-1.5284273 45:0.78489869 46:-0.68533991 47:1.0058703 48:-0.35427646 49:0.214226 50:0.40587025 
1.536e-006 1:-0.62812508 2:-0.56584417 3:1.955417 4:-0.37224521 5:-0.31251514 6:0.17829884 7:0.8041466 8:1.2586056 9:1.5197045 10:0.71179914 11:-0.12014758 12:-0.11168886 13:-0.42789448 14:-0.089129101 15:0.15910927 16:0.30215648 17:2.1250495 18:-0.90460784 19:2.1748364 20:0.63590098 21:0.88095341 22:-0.35560618 23:-1.1188185 24:-0.40962752 25:0.59033936 26:0.22253585 27:0.13454532 28:-0.21721388 29:-0.35598717 30:-0.65521214 31:1.0417218 32:0.24201379 33:-0.26074452 34:-0.3988218 35:0.67516966 36:0.66626724 37:-0.70647448 38:0.053590324 39:-0.19238587 40:0.27284769 41:-0.085532086 42:-0.10628556 43:-0.45355725 44:-0.97402335 45:-0.18031207 46:-1.2433554 47:0.74957234 48:0.55463323 49:0.19866045 50:-1.1004403 
1.469720186061734e-006 1:2.6160311 2:0.54062637 3:-0.6808445 4:-1.2232895 5:-0.049421606 6:-0.35498271 7:0.056006361 8:0.30438208 9:-0.29050999 10:-0.5108214 11:-0.49639128 12:0.40895902 13:0.52393519 14:0.097920595 15:-0.19756363 16:0.72828278 17:-0.44343493 18:1.3174516 19:0.96818819 20:1.0844354 21:-0.1124416 22:-1.0989738 23:0.25407374 24:0.12063982 25:-0.89732134 26:-1.3272282 27:0.25223141 28:-0.85719643 29:0.87641498 30:0.54016938 31:-0.43668349 32:-0.52444938 33:-0.90713625 34:2.2125297 35:0.15563258 36:0.027940742 37:0.86421578 38:0.13137464 39:-1.7430114 40:-0.18795214 41:-1.2503466 42:1.3627059 43:-0.28659453 44:-1.1136802 45:-0.74626708 46:0.43986752 47:-0.023043748 48:0.13120968 49:0.75078699 50:-1.5660748 
9.677840924901847e-007 1:1.2547358 2:-1.2268737 3:0.89015451 4:0.25819547 5:-0.14901397 6:-0.90901639 7:0.085450322 8:0.23489576 9:0.41496512 10:-0.4005647 11:-1.5589283 12:0.19810463 13:-0.76497912 14:-1.6517489 15:-0.47826137 16:0.09619422 17:0.34302413 18:-0.76944093 19:1.00515 20:0.081168911 21:0.099820081 22:1.0085123 23:0.00075451515 24:0.50171156 25:-0.80852945 26:0.37345553 27:0.82295793 28:-0.81593235 29:-0.17290899 30:-0.59470847 31:2.0171436 32:0.53163496 33:-0.40964963 34:0.25322381 35:0.78927091 36:0.28641536 37:0.66886146 38:0.54790074 39:-1.4786395 40:0.69100154 41:0.34574539 42:-1.0193652 43:-0.093084594 44:-0.36668993 45:-0.68124726 46:-0.9804763 47:0.36435753 48:-0.097274808 49:1.0558539 50:0.12729543 
1.536e-006 1:0.47359486 2:-0.37685957 3:-0.041791684 4:2.4413509 5:-1.8173623 6:0.044639588 7:0.22754883 8:-0.56806371 9:1.5681749 10:0.32889764 11:0.57238959 12:0.04207821 13:-1.0898755 14:-0.096252789 15:-0.20256376 16:0.67215988 17:-1.0849665 18:1.4568314 19:-0.70181984 20:0.066176401 21:-0.7540769 22:0.081006155 23:1.9798602 24:0.09874278 25:1.13733 26:0.9292566 27:-1.0028059 28:0.43083411 29:-0.36128553 30:0.88759568 31:-0.11732772 32:0.09004386 33:0.029928956 34:-0.62242596 35:0.46587284 36:-0.34742702 37:-0.19377805 38:0.76016009 39:1.3456177 40:0.99574981 41:0.70389099 42:-0.79401929 43:0.53236252 44:-0.99362795 45:0.18414748 46:0.19722037 47:-0.4494181 48:0.66500208 49:-1.0596174 50:0.30871444 
1.536e-006 1:-1.2523402 2:-1.8098052 3:0.040283194 4:-0.87859491 5:0.052117958 6:0.083308104 7:0.33975941 8:-0.28354292 9:0.45924291 10:0.17788266 11:0.37898622 12:1.0348678 13:-1.0083825 14:0.32123609 15:-0.23217596 16:-0.42686891 17:0.0084061086 18:0.42931695 19:1.1711229 20:-0.85338433 21:0.46562998 22:-0.63416561 23:0.094144331 24:-0.91896015 25:0.74176888 26:-0.19987457 27:0.44334736 28:0.047584985 29:0.066826741 30:0.20119263 31:0.46036378 32:-0.57309155 33:0.41398689 34:0.10508356 35:0.97224641 36:-0.79166038 37:-0.44507743 38:-0.90829211 39:0.53392447 40:-0.0038850689 41:-0.91069493 42:0.28689733 43:-0.018948799 44:0.33987693 45:-0.46393785 46:0.40658923 47:0.90873277 48:0.5978295 49:0.66277962 50:-0.67953981 
1.536e-006 1:1.0189308 2:-1.4888809 3:0.28107329 4:1.3375792 5:-1.9637835 6:-0.066231878 7:0.33525308 8:-0.26804981 9:0.67471099 10:0.36985582 11:0.50664486 12:1.0636886 13:3.0164462e-005 14:0.80842798 15:1.2655837 16:-0.91698806 17:-0.07290535 18:1.1384888 19:-0.16117861 20:-0.19568861 21:-0.66627287 22:0.97196872 23:-0.63022482 24:0.341464 25:1.5131623 26:-1.0841099 27:-1.1906941 28:-1.3435699 29:0.68921907 30:0.28814148 31:-0.88516477 32:0.31555861 33:0.072154736 34:-1.0913568 35:-0.59073156 36:0.2188025 37:-0.4530473 38:0.56016213 39:-0.47717245 40:0.44316956 41:-1.0632874 42:-0.65014337 43:0.0040428395 44:-0.31066137 45:0.87042051 46:1.075101 47:0.82520633 48:0.34580653 49:0.36364831 50:-0.5607419 
1.536e-006 1:1.7195121 2:1.0950984 3:-0.4123342 4:-0.69407755 5:0.084867147 6:0.050360332 7:-0.42616296 8:-0.5428251 9:-0.56837484 10:0.19140425 11:0.92554799 12:-1.2505735 13:1.4926611 14:-0.63294165 15:1.1794053 16:-0.19324075 17:1.4205913 18:0.2025295 19:-1.3724274 20:-0.95061741 21:-0.11754168 22:0.31747049 23:-2.3952518 24:-0.023192031 25:1.0785865 26:0.45932136 27:0.32542439 28:0.38144802 29:-0.55191022 30:1.2347847 31:-0.1659774 32:1.0966389 33:-0.20573414 34:-0.97376149 35:-0.19965531 36:0.46007283 37:-1.6242393 38:-1.2227114 39:-0.27336545 40:1.321814 41:0.05109671 42:-0.4972064 43:0.71605754 44:0.14651569 45:2.1229959 46:-1.4984966 47:-1.3984137 48:0.17827817 49:-0.1871546 50:0.96508059 
1.536e-006 1:-1.3586649 2:-1.1454497 3:-1.4096631 4:0.43255733 5:-0.51169657 6:0.03650993 7:0.54008773 8:0.22918931 9:1.885481 10:0.82441283 11:0.59531937 12:-0.91766187 13:1.1163044 14:3.7645413 15:0.77218315 16:-1.8916692 17:-0.51104628 18:-2.3904614 19:-0.12195586 20:-0.64940457 21:1.9269361 22:0.57775145 23:3.0391044 24:0.02463796 25:-1.5244828 26:-0.5833599 27:1.756328 28:-0.041815509 29:-0.85635257 30:0.81705957 31:-1.1416958 32:0.056137541 33:-1.006993 34:0.67445987 35:0.65469959 36:2.9954855 37:1.044768 38:-0.80791317 39:-1.1323238 40:-0.97250274 41:0.047261842 42:0.29683665 43:-0.44381145 44:-1.3171591 45:2.4524772 46:-1.7724426 47:-0.53812262 48:-1.0445614 49:-1.8118192 50:-0.51514176 
1.536e-006 1:-0.90705436 2:2.9540235 3:0.7445589 4:0.49019614 5:0.18887291 6:-0.61185184 7:-1.086326 8:-0.10864385 9:-0.029817494 10:0.33057248 11:-0.77698911 12:0.26831798 13:0.27140477 14:-0.103357 15:-0.42285905 16:0.21391555 17:0.43630456 18:-0.30142602 19:-0.16099679 20:-0.33203016 21:0.6840666 22:0.81494276 23:0.185851 24:-0.4689877 25:-0.59484923 26:-0.37390967 27:-0.6532292 28:-0.06155715 29:-0.51188802 30:-0.89557318 31:-0.28009624 32:-1.0823548 33:0.14685504 34:-0.41415463 35:0.16952227 36:-0.24202689 37:0.38812109 38:-0.26275652 39:0.13943768 40:0.31608784 41:0.4642766 42:0.65569964 43:-0.50168004 44:0.34689642 45:0.80816318 46:0.071902433 47:0.56020616 48:-0.30733912 49:0.59234853 50:1.4184135 
1.536e-006 1:-1.5708229 2:1.7180962 3:0.093157792 4:1.2674892 5:0.32138947 6:-0.57756555 7:0.89278832 8:0.59079169 9:2.3680435 10:-1.097741 11:0.095356365 12:0.87516386 13:0.61173857 14:-0.67424602 15:1.2458671 16:0.34848768 17:-0.33538084 18:-1.7717572 19:0.87101716 20:1.7077247 21:1.3124607 22:-1.6069948 23:0.51742224 24:-0.44890163 25:-0.4120147 26:-0.36951648 27:0.59980818 28:0.49357033 29:0.97037029 30:1.1642646 31:-0.023496005 32:0.063319514 33:-0.091157751 34:-0.16108864 35:-0.48642793 36:0.74295475 37:-0.92719794 38:-1.3404236 39:-0.41216547 40:0.3669753 41:-0.094108396 42:-0.51397285 43:0.60488481 44:-0.22083111 45:-0.33836328 46:-1.4344345 47:-0.0060453601 48:-0.28573761 49:-0.14985785 50:-0.36631552 
1.536e-006 1:1.5472017 2:0.68833001 3:0.31112085 4:1.4186467 5:0.006157334 6:0.34784262 7:-1.7661834 8:2.2176276 9:0.27887558 10:1.2795773 11:-0.61432137 12:-0.42328051 13:-1.6203939 14:0.7498882 15:-0.45898408 16:1.8335633 17:-0.260593 18:1.3384699 19:0.58322446 20:1.8907338 21:-0.52050003 22:2.427823 23:-1.1179762 24:-0.29134275 25:-0.30646605 26:-0.45249622 27:-0.36857271 28:-1.2856846 29:-1.8829312 30:-0.62987546 31:0.23462985 32:1.7997889 33:0.59787587 34:-0.69412533 35:0.41028983 36:-0.63745791 37:-1.2989523 38:-0.58108481 39:-0.36707385 40:-0.44446379 41:0.31289678 42:0.6554619 43:-0.74941724 44:-0.72515854 45:-0.49220424 46:-0.9432538 47:-0.99139844 48:-1.6946668 49:-1.3696857 50:-0.65675972 
1.536e-006 1:-0.84012998 2:0.17277183 3:0.19350537 4:-0.87063638 5:0.43656467 6:-1.4029802 7:0.14117336 8:0.22880248 9:0.58503305 10:0.41240084 11:-0.15248663 12:0.59959875 13:-0.049387466 14:-0.33541414 15:1.305648 16:0.6894422 17:0.64488839 18:-1.5499124 19:0.43520122 20:0.71607976 21:1.2385406 22:0.57831427 23:-1.6355146 24:0.73590635 25:-0.73801539 26:0.55828907 27:-0.14050984 28:1.3015431 29:0.68749484 30:1.2133009 31:0.28209124 32:-2.2412405 33:-0.73660325 34:-0.14542921 35:-0.61228654 36:-0.28533283 37:1.7209826 38:-0.57564884 39:-0.68694477 40:0.015029085 41:-1.2616029 42:-1.9462707 43:0.29832107 44:-0.037019418 45:-1.0634586 46:-1.2575142 47:-0.96112715 48:1.1446058 49:-1.5277855 50:-0.23535465 
9.064863869241021e-007 1:-1.5754777 2:-0.30767771 3:0.92008424 4:-0.69590299 5:0.21103302 6:1.4048934 7:0.31819181 8:-0.67160065 9:0.042171762 10:-0.25136821 11:0.93920062 12:-0.61936035 13:-1.276343 14:0.68879373 15:0.28732884 16:0.73435284 17:-0.22739229 18:0.45324453 19:0.12345005 20:0.99837928 21:-1.3778485 22:0.13113191 23:0.12891833 24:-0.4359424 25:1.7021103 26:-0.48896541 27:0.52641954 28:0.13448188 29:-0.56343502 30:-0.3960523 31:-0.39456051 32:-0.16671448 33:0.64863272 34:0.32633077 35:-0.71040077 36:0.59532184 37:-0.65631743 38:1.3026768 39:1.025847 40:-0.16283599 41:-0.23003277 42:-1.1558641 43:0.20920998 44:-0.48258074 45:0.038462534 46:1.1200218 47:-0.39287369 48:0.85938569 49:-2.659675 50:0.11196978 
1.514512298405215e-006 1:1.1339783 2:-0.56973736 3:1.0949545 4:1.13475 5:-0.52358485 6:-0.60107528 7:-0.93330664 8:1.0020738 9:-0.29161958 10:-0.1721129 11:0.78986453 12:0.74555508 13:0.17479116 14:-0.3590365 15:-1.3377471 16:-1.7255872 17:-0.69813524 18:-0.087422598 19:0.16253833 20:-0.037334567 21:1.139538 22:0.70407123 23:0.69931892 24:-0.10685444 25:0.24432348 26:0.31996744 27:0.1262689 28:0.28276087 29:-0.28097474 30:0.20942372 31:-0.43711225 32:1.9331805 33:-0.23434047 34:-0.057109586 35:-1.439815 36:-0.28166775 37:-1.3939011 38:-0.54639484 39:0.42250228 40:0.057905347 41:-0.40708819 42:-0.62060835 43:-0.026335809 44:1.0531911 45:0.97825733 46:1.4338979 47:-1.3504019 48:1.5084053 49:0.49348264 50:0.30326775 
7.374866475214068e-007 1:1.385431 2:-0.41304956 3:0.7852927 4:-0.19309725 5:-1.6514742 6:0.92034429 7:0.15825782 8:1.0554144 9:1.4713573 10:-0.13611292 11:-1.0733269 12:-1.0273692 13:-0.74900033 14:0.54520301 15:-1.0309408 16:-0.16202623 17:-0.94994337 18:0.099552751 19:0.4757296 20:-0.023907331 21:0.15376026 22:0.2792342 23:1.2414614 24:-0.62531251 25:1.4762898 26:-0.15638441 27:0.45925649 28:-1.0523742 29:1.2155305 30:1.4395043 31:-0.14102057 32:0.41379629 33:1.2183041 34:-1.3938255 35:0.4744934 36:-0.70559409 37:2.5763441 38:-0.56197645 39:-0.36378545 40:0.34875115 41:-0.19384536 42:-0.074636889 43:1.0960716 44:-0.045375908 45:-0.82390373 46:-0.022191717 47:0.65251086 48:1.7181634 49:-1.1638014 50:-0.81752575 
1.536e-006 1:-1.505017 2:-1.7995385 3:-0.44308246 4:-1.3062009 5:-0.9533762 6:-1.3452606 7:0.44716355 8:-1.620805 9:-0.95952394 10:-0.64698574 11:0.14159475 12:0.1477016 13:-0.52175645 14:-0.05248695 15:0.20882702 16:-0.24582669 17:-0.65570456 18:-0.50909549 19:0.64403037 20:-0.12142481 21:-0.84551199 22:0.039148281 23:-1.3672528 24:-0.13217688 25:-0.82749362 26:-0.95111882 27:-0.37738793 28:0.48878043 29:-0.14750437 30:0.83012743 31:-0.25479396 32:-0.083423922 33:0.45362055 34:-0.51053185 35:-0.26229542 36:-0.561285 37:0.43160806 38:0.24412394 39:1.1469931 40:-0.1039566 41:0.15683697 42:0.35765381 43:1.1768987 44:0.75928883 45:-0.51568357 46:0.12776716 47:0.41333054 48:-0.461389 49:-0.78812823 50:-1.4780628 
1.536e-006 1:-0.74652255 2:0.18158702 3:-0.88986643 4:0.88733405 5:1.3652775 6:-1.0125523 7:-1.3928181 8:1.7566953 9:0.31183663 10:-1.5107218 11:0.35806527 12:1.8957866 13:0.023726442 14:-0.55247551 15:-0.5272634 16:-1.4872077 17:-0.25706703 18:1.0425041 19:0.72643423 20:-0.48397783 21:0.46922929 22:1.3547147 23:-1.3147185 24:-1.0662481 25:0.76839861 26:0.089111347 27:0.52997051 28:-0.12588403 29:-0.48395586 30:-0.61172876 31:0.36637321 32:0.19225475 33:-1.2494065 34:0.31103636 35:-0.73125992 36:0.16339613 37:-0.42711223 38:-0.15334955 39:-0.51162071 40:-0.21790792 41:0.35610006 42:-0.63807552 43:-1.2324191 44:0.81959194 45:-0.81433254 46:0.30415651 47:-0.021198318 48:-1.214738 49:0.94532594 50:-0.35128419 
1.536e-006 1:0.89588599 2:-1.5974227 3:0.27741391 4:0.061955732 5:0.90307424 6:-2.4075819 7:0.30457494 8:-0.6223902 9:-0.65319585 10:1.4911913 11:0.77210403 12:-0.41580745 13:-2.0397922 14:-0.51950264 15:1.2404374 16:0.041827485 17:-1.2990363 18:-1.0535753 19:-0.69729724 20:0.0023271037 21:0.39638918 22:-0.94805531 23:-0.97132717 24:0.40162904 25:-1.5098794 26:-1.0164046 27:1.3356155 28:-0.63823763 29:-1.8832627 30:-1.0052295 31:-0.60816379 32:0.083020456 33:-0.79131332 34:-0.07938348 35:-1.5096927 36:-0.88054889 37:0.36299539 38:0.43172998 39:-1.8601434 40:0.00024505125 41:-0.58757042 42:0.86726593 43:-0.21428938 44:0.27648013 45:-0.20325912 46:0.50897033 47:-0.67716053 48:-0.55565582 49:0.31401945 50:0.093644952 
1.536e-006 1:-0.62491048 2:-0.24553963 3:1.5268399 4:0.76496828 5:0.22888915 6:0.40105946 7:-0.92704173 8:0.18802043 9:-0.13640452 10:0.11130214 11:-1.4567299 12:0.20445732 13:-0.6638654 14:-1.6810221 15:-0.010593806 16:1.2185326 17:-2.0346304 18:-1.1051984 19:-0.23100903 20:-1.8527043 21:1.0973729 22:-0.35610716 23:-0.070219525 24:0.14135337 25:1.3436728 26:-0.43049215 27:-0.041811223 28:1.3296619 29:-0.45307269 30:0.10318905 31:0.85124258 32:0.94367106 33:0.23853334 34:1.161505 35:-0.30910665 36:-0.30161513 37:-0.91391667 38:-0.9571468 39:0.65852677 40:-0.61958039 41:0.89369335 42:-1.4743192 43:0.28418364 44:-1.6042337 45:0.18334485 46:0.040059828 47:-0.59504894 48:-1.7323319 49:-1.190203 50:-0.35725565 
2.89177185195446e-007 1:0.15336509 2:0.59709059 3:0.70089442 4:2.5665994 5:-0.30713752 6:-1.2854808 7:3.7432032 8:0.087027746 9:1.1015769 10:-0.1348028 11:-0.89641982 12:-0.36269028 13:1.7564001 14:-0.29155246 15:0.98421482 16:0.23521445 17:1.0637849 18:-0.51890321 19:-0.13341101 20:-0.63141231 21:-0.36482772 22:0.23282956 23:0.18723675 24:-0.31899484 25:-0.070568752 26:0.35965876 27:-1.3504031 28:0.043240079 29:0.91018241 30:0.65875421 31:-1.0491422 32:0.031840592 33:-1.4723956 34:0.38670101 35:0.21500456 36:1.2603018 37:-0.1971988 38:1.3004011 39:-0.61774752 40:-0.90997697 41:-0.26512679 42:1.0616027 43:0.056549454 44:0.80271864 45:0.069417168 46:0.28184066 47:-1.0231123 48:0.14605077 49:-0.76504692 50:-0.40184514 
1.536e-006 1:-0.90650439 2:-1.5787781 3:0.76384676 4:2.1682399 5:0.34722176 6:0.19410534 7:0.013938514 8:-0.80773473 9:-0.36974117 10:-1.1292872 11:-0.87297113 12:0.41733201 13:-0.11953036 14:-0.84412692 15:0.21382987 16:-0.51007817 17:0.24449033 18:-0.55556177 19:-0.36179014 20:0.8598586 21:-0.50192795 22:0.51187294 23:-0.10375789 24:0.88171623 25:-1.3709038 26:1.0308168 27:-0.75990003 28:0.062877722 29:0.023974348 30:0.28876477 31:-0.031829323 32:-0.11774887 33:-1.0430135 34:-0.90548927 35:-1.1574656 36:0.75181173 37:-0.094992945 38:0.47987841 39:-0.59684741 40:0.17107338 41:1.0546259 42:0.79086539 43:0.60281556 44:-0.3826261 45:0.28012048 46:0.24914657 47:-0.1145971 48:0.059346401 49:1.3305202 50:0.46213819 
1.483337775868799e-007 1:-0.63175949 2:-0.089756579 3:0.59843575 4:-0.18862055 5:-0.40398672 6:0.46430759 7:-0.78662131 8:-2.4185816 9:0.74658481 10:-1.0266633 11:-0.72910219 12:1.026643 13:0.46212438 14:0.30255449 15:0.65220034 16:-3.1824018 17:0.22274958 18:-0.949425 19:0.47784752 20:0.66326557 21:0.027982412 22:0.86247785 23:1.5697239 24:0.17607806 25:-0.94858541 26:-1.7971882 27:-0.2835044 28:-0.17848672 29:1.5759923 30:-0.77737836 31:-0.16390734 32:-2.0131245 33:0.77143613 34:0.32737338 35:1.0527833 36:-0.41574628 37:-1.5247445 38:-0.94043037 39:-0.091017773 40:-1.0746613 41:0.95672069 42:-0.9341857 43:-0.23798743 44:0.78828622 45:0.87320283 46:-0.62368581 47:0.61123349 48:-1.3576909 49:0.58855889 50:0.98586219 
1.536e-006 1:-1.2721228 2:-0.25176485 3:-0.96429424 4:1.991477 5:-0.088161433 6:-1.5947227 7:1.4236185 8:3.002584 9:0.23917014 10:-0.39940775 11:-1.1086363 12:-1.9810045 13:0.30692004 14:-1.4474954 15:-0.51817237 16:-0.84943205 17:0.56222724 18:1.315716 19:-1.2514841 20:0.38476563 21:-0.30339218 22:0.75430655 23:0.14355093 24:1.1666979 25:-0.11478226 26:-0.068855777 27:-1.566896 28:1.12345 29:-0.27848205 30:-0.0069678332 31:-0.23276896 32:0.28920795 33:0.092535785 34:-0.11291373 35:0.0657406 36:0.34669931 37:0.90312501 38:1.1366955 39:-0.24481791 40:0.25981349 41:0.5530359 42:-0.12288655 43:-1.058123 44:-0.28015861 45:-0.46551453 46:-0.21220674 47:0.20938044 48:-0.58786876 49:0.33638045 50:-0.1687886 
1.536e-006 1:1.3194271 2:0.061643492 3:1.1305772 4:0.49022052 5:-1.1098402 6:-1.1883812 7:-0.1554315 8:1.0440071 9:-0.9810749 10:0.49373761 11:1.4835046 12:1.3551073 13:1.0336949 14:-1.3222506 15:1.4125767 16:0.78714138 17:-0.74473208 18:-0.60205796 19:-0.92602411 20:1.9968401 21:1.1447368 22:-0.7166023 23:0.40270486 24:0.17246504 25:-0.16028509 26:0.40597989 27:0.52925984 28:-1.366588 29:2.6012812 30:-1.2825639 31:1.5097174 32:-1.3227591 33:-1.1442308 34:0.62860692 35:0.77082281 36:0.74372669 37:-0.31274757 38:0.13853379 39:1.3131372 40:-0.46036656 41:-0.26462225 42:-0.64488018 43:-1.680177 44:0.92187077 45:0.55260345 46:-1.668609 47:-0.021898651 48:-0.9828474 49:-0.45211293 50:0.94323142 
1.536e-006 1:-0.53564328 2:1.5415076 3:-1.4192224 4:0.3246353 5:-0.19063318 6:-1.330252 7:-1.2374952 8:0.89287973 9:-0.53356078 10:-0.7778606 11:-0.76309359 12:-0.42011486 13:2.0409006 14:0.99543956 15:-0.064012619 16:0.47080265 17:-0.27512317 18:0.094720046 19:0.095632078 20:0.37782142 21:-1.3802578 22:0.53242758 23:-0.22637488 24:0.92885693 25:-1.4780333 26:-1.2720748 27:0.6113691 28:0.52785905 29:-0.15162487 30:-1.812549 31:0.50895239 32:2.0611774 33:-0.75819894 34:0.63784179 35:-2.4857151 36:-0.28780751 37:0.43479445 38:-0.080936623 39:-0.051688896 40:-0.1180983 41:-2.4487607 42:0.80528481 43:0.59424055 44:0.18266426 45:-1.9062879 46:-2.0352093 47:2.7982177 48:3.2481901 49:-1.1569037 50:2.5194827 
5.486396539667896e-007 1:-1.494928 2:1.4706943 3:0.63075333 4:0.63924885 5:-0.67660139 6:0.42105756 7:-0.97026604 8:0.74969347 9:-0.52923467 10:-0.53301758 11:-0.33718391 12:-0.64097339 13:1.2207807 14:0.96951369 15:-0.53294001 16:-0.65384224 17:-1.3975667 18:1.2621655 19:-0.72517087 20:-0.44467431 21:-1.1734377 22:-1.5528994 23:1.3170978 24:1.4487168 25:-0.11227474 26:-0.049369988 27:0.072661507 28:0.1135578 29:-1.7047826 30:-0.86226389 31:0.44286574 32:0.67532534 33:-1.3471716 34:1.2725028 35:0.013012723 36:0.23527601 37:0.28810709 38:-0.50359984 39:-1.6568281 40:-0.06748799 41:0.81834461 42:-0.756616 43:-0.49131419 44:0.80874767 45:-1.4884624 46:0.14940444 47:1.2711726 48:-0.62715275 49:-1.1708807 50:-2.3729897 
1.536e-006 1:1.299631 2:1.1000939 3:-1.5115642 4:2.375073 5:-0.57535437 6:-0.073347608 7:-0.22926677 8:-1.5193632 9:-2.1298135 10:0.076834502 11:-0.081394866 12:1.4410201 13:0.66590187 14:-0.099576286 15:-0.79696965 16:-1.6138948 17:0.26786491 18:-0.00061146048 19:1.0907123 20:-0.53692 21:-0.40198686 22:0.10116404 23:1.1388657 24:0.60296937 25:-0.78923089 26:-0.027226652 27:-0.90590799 28:0.55744792 29:0.035365384 30:-0.74155621 31:-0.14133474 32:-0.93511075 33:-0.84712134 34:0.44876459 35:-0.52165935 36:-0.51590301 37:-0.61413267 38:-0.88597859 39:-0.8295409 40:-0.2619364 41:0.2518137 42:-1.0373131 43:-0.40970461 44:2.1243398 45:-0.22305824 46:0.75239863 47:-1.0553143 48:-1.1235025 49:0.15097192 50:0.90607526 
1.536e-006 1:1.9341841 2:-1.7388311 3:-0.11545099 4:0.58404666 5:-0.88894009 6:0.52963387 7:0.29170152 8:0.88829432 9:0.80008244 10:0.44791952 11:0.60876992 12:0.94219484 13:0.65157222 14:0.74536328 15:0.49438201 16:-1.6143608 17:0.14777875 18:0.60937741 19:-0.39972368 20:-1.762946 21:-0.86664806 22:-0.60894979 23:0.61826464 24:-0.67086586 25:0.26536805 26:-0.32620972 27:-0.30067196 28:-0.88643097 29:-0.92424855 30:-1.4213697 31:-0.1069595 32:-0.5193119 33:-1.2477037 34:-0.67930864 35:1.1680941 36:0.21057656 37:0.3064488 38:-1.0888055 39:0.13124364 40:-2.0126188 41:-0.16509982 42:-0.15386941 43:0.44128674 44:0.70423623 45:0.6044425 46:-1.2145824 47:1.2669396 48:-0.94703781 49:-0.112719 50:-0.060478169 
1.536e-006 1:1.3868937 2:1.3584814 3:-1.2669229 4:-1.4629566 5:0.1846257 6:-0.86897641 7:-0.28083931 8:0.59687876 9:-1.1448969 10:-0.30556288 11:-0.80555686 12:0.67938964 13:1.2318036 14:-0.31322404 15:0.81870933 16:3.7150257 17:-0.34151982 18:0.92022316 19:0.81401768 20:2.3562813 21:0.074607614 22:-0.92201663 23:0.017419924 24:0.0043979213 25:-0.051217329 26:0.46481064 27:-1.1301224 28:1.7605464 29:-1.8235214 30:0.26494348 31:-0.80663402 32:0.21638114 33:0.93188244 34:1.2695606 35:-0.69633747 36:0.27790845 37:0.67823416 38:-0.016710213 39:-1.4602324 40:-2.1235879 41:-0.21468116 42:-0.40173822 43:-0.74291722 44:1.3010318 45:1.2309198 46:-0.014336097 47:-0.39304609 48:0.33418768 49:0.61005906 50:0.19849513 
1.536e-006 1:-0.57283321 2:0.50511706 3:0.90987765 4:1.7798986 5:-1.2938639 6:-0.24009499 7:-2.1401288 8:-0.52343364 9:-1.6490596 10:0.26320531 11:-0.020040259 12:0.58163993 13:0.85230083 14:-1.0760817 15:-0.58243429 16:0.29187786 17:-1.2670655 18:-2.5806163 19:0.6682887 20:0.2791508 21:0.20387702 22:-0.87235702 23:-0.47229716 24:2.2307573 25:-0.49856006 26:-0.96194707 27:-0.11671229 28:-0.29571673 29:1.1930725 30:-1.3900902 31:0.0023255615 32:-1.1677318 33:-0.28099696 34:-0.88477346 35:-0.34477771 36:-1.8387559 37:0.59660237 38:3.2971575 39:1.676754 40:2.2323389 41:-0.35453552 42:-0.26063975 43:-0.90882229 44:-0.87560863 45:-1.1236276 46:-0.79695553 47:0.41717463 48:0.62082093 49:1.216885 50:0.11163049 
1.536e-006 1:0.87077736 2:-0.16284572 3:-0.16911809 4:-2.7770038 5:2.5248777 6:-0.16486215 7:0.053071152 8:1.5722106 9:-0.29490275 10:-0.59103273 11:-0.80301201 12:-0.55835835 13:0.27906201 14:0.98164281 15:-1.1412317 16:0.1113123 17:-0.094815462 18:0.53889175 19:0.66599376 20:-0.6675414 21:-0.1516907 22:-0.39289047 23:-0.90815266 24:0.054247858 25:0.061163564 26:-0.88824959 27:0.48273494 28:-0.32547935 29:0.13905252 30:-0.43060946 31:-0.6138173 32:-0.036868492 33:0.095629582 34:-0.16207432 35:-0.056044811 36:0.49765776 37:0.71209929 38:0.99569964 39:-0.077591545 40:-0.62062042 41:0.7065924 42:0.10704581 43:0.11365124 44:0.246962 45:0.13715505 46:0.081220183 47:0.10630621 48:0.5274726 49:0.91733104 50:-0.47188155 
1.536e-006 1:0.11783166 2:0.25665995 3:-0.54841849 4:0.52571639 5:0.61396774 6:-0.70057368 7:-1.0642885 8:1.6511146 9:-1.2186858 10:2.2360037 11:1.954446 12:-0.5098012 13:0.35174365 14:-0.30202394 15:0.39080226 16:-2.6884946 17:1.7249332 18:-1.108666 19:0.28252975 20:0.85064127 21:1.9928698 22:-0.35221194 23:0.14057802 24:0.080186426 25:0.53769303 26:0.63205011 27:-1.0973852 28:0.3845747 29:-0.44458842 30:-0.86375949 31:0.22538926 32:0.17499461 33:-0.02590698 34:0.15281023 35:0.81616709 36:-0.02939905 37:2.2375157 38:-0.94541166 39:2.3180841 40:-0.69615345 41:-0.4954783 42:1.2033843 43:-0.31219599 44:-1.8897397 45:-0.88108488 46:-0.55540848 47:0.29291078 48:-1.0983641 49:-2.17319 50:-0.4590319 
8.189459291695313e-007 1:0.077609163 2:1.8646605 3:-0.33226846 4:-0.85680046 5:0.18018408 6:-0.55693106 7:-0.64291842 8:0.57291902 9:2.39061 10:-0.5255134 11:0.35215128 12:2.2697192 13:0.57437768 14:-2.2018056 15:0.9101533 16:1.1939721 17:-0.12478698 18:0.68001028 19:0.94747581 20:1.144084 21:-1.3405749 22:-0.75715894 23:0.048509739 24:1.5622768 25:-0.11254773 26:-0.21901247 27:1.2161221 28:0.18960199 29:0.29028799 30:0.21137297 31:2.0811823 32:-0.78625132 33:-0.3237654 34:-1.1617444 35:-0.94305571 36:0.69423936 37:0.70804845 38:-1.2641328 39:2.1330165 40:-0.49269469 41:1.2196046 42:2.5178034 43:-0.85739334 44:-1.702733 45:0.70246145 46:0.039701001 47:-1.0990416 48:0.2783907 49:-0.11308932 50:-2.348429 
1.536e-006 1:-2.0440767 2:-0.3993856 3:-2.332902 4:0.97073947 5:-1.3927882 6:0.091281977 7:0.70878318 8:-0.13048498 9:2.6401693 10:0.81649826 11:0.47716446 12:-0.74702831 13:1.8569615 14:0.025466452 15:0.3165826 16:-0.99210245 17:-0.47753935 18:-0.61695511 19:0.32258643 20:-1.6351602 21:0.13203858 22:1.2267112 23:0.73281426 24:1.8599815 25:0.079463297 26:0.4813836 27:-0.71085775 28:-0.47367406 29:-0.59585747 30:1.008868 31:1.6455741 32:-1.3226625 33:2.8415235 34:-1.1210127 35:-0.77533565 36:0.7638197 37:1.6715539 38:-1.797354 39:-1.2427438 40:0.4457353 41:0.74274988 42:0.84381856 43:-0.39258692 44:-2.1377747 45:-1.6577422 46:-0.59882802 47:-0.051433964 48:0.075964847 49:1.7822583 50:-0.16034651 
1.536e-006 1:0.15041366 2:-1.3449888 3:-0.19435854 4:-2.2668955 5:0.51753579 6:-1.8871086 7:-0.9311653 8:-0.44321543 9:-1.0654149 10:-0.21386277 11:-0.26683359 12:0.33293139 13:2.2460859 14:-0.19869883 15:-0.52092587 16:0.61084745 17:0.769658 18:-1.3647172 19:0.94492592 20:-1.0234313 21:-1.6165706 22:0.24948923 23:-1.0758484 24:0.96027231 25:0.10932553 26:-0.015591251 27:0.25028156 28:-0.5565469 29:-0.16110152 30:-0.23835427 31:0.12788549 32:-0.098240005 33:-0.41005258 34:0.60142908 35:-0.82274525 36:-0.022326822 37:-0.1426297 38:-0.2555031 39:0.050684187 40:-0.82407152 41:0.030336821 42:0.80244645 43:0.34221434 44:1.1387276 45:-0.91595916 46:0.49720588 47:0.091772569 48:0.066857532 49:-0.29109837 50:-0.061181083 
1.441817443147834e-006 1:1.5537198 2:-1.5098897 3:0.57174558 4:0.7388037 5:-0.88638908 6:-0.47153625 7:-1.8291871 8:-0.71641353 9:-0.21796278 10:0.30446538 11:-2.4598763 12:-1.7873599 13:-1.2548114 14:-1.4162014 15:-1.5687918 16:1.1463799 17:0.24041255 18:2.0284121 19:-0.012058226 20:1.1947686 21:0.89292327 22:-0.085635962 23:2.3323191 24:-0.68087749 25:-1.4747607 26:0.871576 27:1.7295138 28:-0.6642198 29:1.3589489 30:0.49151416 31:-0.47240779 32:-1.0330944 33:-0.9184226 34:0.63587891 35:1.8382239 36:0.58528841 37:1.6357097 38:-0.80490368 39:-0.33058 40:-0.70164629 41:0.017698802 42:1.0369704 43:-0.33193792 44:0.56845173 45:0.46266872 46:0.11671539 47:0.11382544 48:0.093906198 49:1.1081594 50:0.35780894 
2.878833647642342e-007 1:0.88180794 2:-1.6345216 3:0.29469968 4:0.11770279 5:0.88817724 6:-2.4021184 7:0.34106803 8:-0.62850572 9:-0.61079924 10:1.5131499 11:0.67425801 12:-0.50083574 13:-2.0479681 14:-0.52726965 15:1.2879811 16:0.12331132 17:-1.2481815 18:-1.189795 19:-0.30808728 20:0.022606962 21:0.62400986 22:-0.64691158 23:-0.93938423 24:0.45420689 25:-1.4769234 26:-1.0351611 27:1.1802792 28:-0.84370864 29:-1.7732872 30:-1.0117575 31:-0.31609788 32:-0.12231073 33:-0.81200819 34:-0.34365519 35:-1.5217877 36:-0.50743398 37:0.34100426 38:0.24085141 39:-1.9508353 40:-0.018094237 41:-0.56398132 42:0.8442438 43:-0.12583935 44:0.15331979 45:-0.41873735 46:0.50253145 47:-0.47927954 48:-0.3678127 49:0.17047906 50:-0.17452481 
1.536e-006 1:-1.3911191 2:-0.50789419 3:-1.695459 4:0.23990836 5:0.18355343 6:-1.4628325 7:-1.7189254 8:0.93543337 9:-0.57853349 10:1.8643795 11:-0.02780653 12:0.28754197 13:1.5577125 14:0.14410382 15:0.42343365 16:0.11882861 17:1.1892772 18:0.65127153 19:-0.75139333 20:-1.1933695 21:0.76313712 22:-0.80200016 23:0.40806434 24:-0.32551121 25:0.23930196 26:-0.2135404 27:-0.64782614 28:1.353429 29:-0.90787228 30:-0.023233743 31:-0.95749724 32:-0.59842302 33:-0.87776347 34:0.30897666 35:0.22848181 36:-0.76036998 37:0.55084669 38:-0.4944796 39:-0.40821756 40:-0.29601958 41:-0.061469131 42:-0.031160665 43:0.18714452 44:-1.1305382 45:0.21824773 46:0.98074196 47:0.088499094 48:1.0169764 49:0.11130574 50:0.6745256 
1.536e-006 1:0.73828437 2:-1.2266756 3:0.48047518 4:-1.2312803 5:0.061685693 6:-0.62745096 7:-0.34267543 8:-0.13288457 9:-1.4562554 10:-0.39009684 11:0.11804272 12:0.59424766 13:-1.2470379 14:-1.2981164 15:-0.1962306 16:0.72250082 17:0.00089973377 18:1.5054716 19:0.22523581 20:0.58083676 21:-1.4156459 22:-0.34843472 23:-1.5235072 24:-0.069789309 25:1.0405388 26:-0.29192293 27:-1.5696207 28:-0.26279975 29:1.6710572 30:0.48736042 31:0.9816592 32:-0.49263599 33:-0.11478613 34:0.45818029 35:-0.45653701 36:-0.14307009 37:0.065333567 38:0.58442008 39:0.20199947 40:1.2705156 41:0.25003348 42:-0.53581985 43:-0.64213958 44:0.30351291 45:0.35364463 46:-0.077143232 47:-0.39860031 48:-0.36354004 49:-0.71584127 50:1.0216271 
1.536e-006 1:0.65522727 2:0.1483423 3:1.1441571 4:-0.36659546 5:0.63835364 6:-1.3261306 7:1.1189047 8:-0.63093546 9:0.035550202 10:0.93029735 11:-1.5210308 12:-0.51667154 13:0.022239368 14:0.16628766 15:0.1237753 16:0.073436574 17:-0.02828116 18:-0.65464516 19:-0.82559298 20:-0.11609111 21:0.076933582 22:0.22532587 23:-0.12623528 24:0.26119501 25:1.3891824 26:0.53079854 27:0.44630595 28:0.31077219 29:0.44093854 30:0.42183221 31:1.9118955 32:-1.4422348 33:0.47787088 34:0.67650565 35:0.45132314 36:0.062942956 37:0.3955909 38:-1.9972665 39:-1.5000955 40:-0.072773419 41:0.94865628 42:-0.74123372 43:-0.31788768 44:0.067154022 45:0.5721003 46:-0.74590246 47:0.27997077 48:0.22449275 49:0.12839177 50:1.7958891 
1.536e-006 1:2.0849887 2:-1.5740802 3:-1.8913001 4:-0.75663465 5:-2.3208051 6:0.64761367 7:1.1145135 8:-1.6330029 9:1.2701685 10:-0.22909212 11:1.074673 12:0.31968409 13:-0.80504346 14:0.5150672 15:-0.50323508 16:-0.1857274 17:-2.988974 18:-0.093315909 19:-0.042017085 20:0.26228446 21:0.19765083 22:1.5510308 23:-0.77288733 24:0.5588096 25:1.3430771 26:-0.5877486 27:-1.3503079 28:-0.30282341 29:1.9672007 30:0.26748022 31:0.98715001 32:-0.25996991 33:-0.94653398 34:0.35929819 35:-1.5902404 36:0.047701038 37:0.085924416 38:-1.2077744 39:0.47773021 40:-0.3668864 41:-0.95627062 42:0.39974064 43:1.7713558 44:0.37720823 45:0.56905152 46:1.4575755 47:-0.64129078 48:-0.085975716 49:0.30404495 50:0.024212889 
3.781143671374188e-008 1:0.29250358 2:0.27819551 3:-0.90629338 4:-0.0086546547 5:-1.8602433 6:0.54645184 7:-1.4932036 8:-0.79411868 9:-0.98557888 10:-0.069314869 11:0.93230953 12:1.5994961 13:-0.31885142 14:1.0529128 15:-0.56643704 16:0.96045851 17:0.37397939 18:-0.54142031 19:-0.59967009 20:0.37202245 21:1.2916265 22:0.088008125 23:0.25568439 24:1.0416815 25:0.56566726 26:-1.8689954 27:-0.93000661 28:-0.27153879 29:0.66192278 30:-0.099986989 31:0.27569132 32:2.8088589 33:-1.5634859 34:-2.277249 35:0.88824652 36:-0.15526939 37:-0.67715509 38:1.6396305 39:-1.8040899 40:-0.58787263 41:0.63257931 42:-1.4723103 43:2.6174324 44:-0.88511002 45:-0.41559484 46:-2.7361286 47:0.47728012 48:-0.11762705 49:-0.191863 50:0.31610828 
2.14208132297136e-007 1:0.37492536 2:-0.11700039 3:0.65799761 4:1.1227425 5:0.77839707 6:1.2703727 7:2.5213844 8:-0.26684613 9:-1.8382967 10:-1.3889173 11:1.3573372 12:1.5752519 13:1.4818605 14:0.80443612 15:-0.87663834 16:0.33167514 17:0.41624535 18:1.3593371 19:-0.553135 20:-0.45879416 21:1.6827992 22:-0.20275586 23:0.025788368 24:-2.8467072 25:0.97816024 26:-2.2284591 27:-0.15008282 28:0.19066521 29:0.46120554 30:-2.2272907 31:1.3930261 32:0.82646109 33:0.51149588 34:-0.022349602 35:1.2783505 36:0.83115163 37:2.0261086 38:-0.50424048 39:-1.2650038 40:2.7579617 41:-0.50474452 42:1.842158 43:0.41922843 44:-0.72549985 45:0.65773837 46:0.096037685 47:0.69041738 48:-0.2520559 49:0.039087822 50:0.31101384 
1.536e-006 1:-1.8683221 2:-0.86509572 3:-2.2221515 4:-1.4989018 5:-1.0882539 6:-1.6914398 7:0.18380273 8:-0.75069694 9:1.0282792 10:0.88128871 11:0.19522493 12:-1.1758839 13:-0.50118739 14:-1.3195076 15:0.57993053 16:-0.41774653 17:-1.7357433 18:1.097715 19:-0.71727841 20:0.17967103 21:0.23093571 22:-0.75091535 23:0.30083249 24:-1.4837252 25:1.6072675 26:-1.3919614 27:0.9898608 28:1.597152 29:-1.1529236 30:0.77974676 31:-0.83796066 32:-0.33626164 33:0.48126842 34:0.61510528 35:1.9225518 36:-2.8510362 37:-1.3858801 38:-0.40982578 39:0.91872947 40:-0.80271853 41:-0.47226874 42:1.3476883 43:2.2926004 44:0.73471502 45:1.1825329 46:0.061843342 47:0.53388142 48:0.25750574 49:0.81204485 50:-0.54490705 
4.059372521233363e-007 1:0.86293051 2:0.18176405 3:-0.95746557 4:0.1216362 5:-0.83866176 6:1.0021311 7:-0.28671366 8:-0.97455727 9:-0.5767746 10:0.38875837 11:-0.43697227 12:0.32815675 13:0.16802125 14:-1.024783 15:-0.66753146 16:-1.1281082 17:0.4458108 18:1.2079407 19:0.043560739 20:0.9403322 21:1.1993186 22:1.2325503 23:-2.5473373 24:0.083991342 25:0.023870229 26:-0.69022316 27:1.0260059 28:-0.30556475 29:1.3756274 30:1.0110145 31:0.62337179 32:-0.82650138 33:0.014627991 34:-1.2592033 35:-2.0988935 36:0.43451868 37:1.1184967 38:1.5613829 39:0.24449617 40:-0.87566037 41:0.0009669918 42:-1.3367694 43:0.54269597 44:-1.7216462 45:0.76107032 46:-0.84235324 47:0.70809076 48:2.4842969 49:1.276263 50:-1.3811354 
1.536e-006 1:-0.54474931 2:-1.8922738 3:0.36905922 4:1.2517641 5:-0.24677966 6:-0.25906637 7:-0.56072024 8:0.86893582 9:-0.14561237 10:0.51803733 11:-0.55978865 12:-0.38648975 13:0.36651846 14:0.037965172 15:-0.52296219 16:-0.061038552 17:-0.1697451 18:-0.38686655 19:1.3594019 20:-0.45949188 21:-0.9073146 22:-0.89199608 23:0.84240305 24:-0.30980035 25:-0.68102973 26:0.50187369 27:1.0577024 28:0.80133508 29:0.29509369 30:0.45395135 31:0.3963361 32:0.70375699 33:1.1690016 34:0.28224979 35:-0.13886831 36:-0.10883608 37:-1.0948766 38:-0.26502481 39:-0.31695112 40:0.84108187 41:0.59134392 42:-0.066560108 43:1.1447207 44:0.86238839 45:-0.48322454 46:-0.84136036 47:-0.77980969 48:-1.8113863 49:-0.41171487 50:0.82176552 
1.332929835030307e-006 1:0.78127221 2:0.34115406 3:0.93299618 4:-0.47166299 5:0.45659415 6:-2.2098198 7:-0.14422293 8:0.56929626 9:0.6784368 10:-0.34872505 11:1.8733266 12:-0.52998079 13:-0.19014307 14:1.1293753 15:0.96489788 16:-0.3820942 17:0.61786365 18:1.0119024 19:0.0085414498 20:-0.070922891 21:-0.03386512 22:0.21967386 23:-0.11030781 24:-0.054655686 25:0.73389292 26:1.5088938 27:-0.32428311 28:0.41360124 29:-0.14030036 30:-0.47220923 31:-1.3034155 32:1.2394224 33:1.1405114 34:0.64205303 35:0.030073094 36:-0.56196366 37:0.30546582 38:1.2690023 39:0.65123592 40:-0.52824595 41:-0.80442645 42:0.46440312 43:-0.51257347 44:0.42359595 45:-0.36952042 46:0.063364243 47:-0.46404266 48:-0.16287813 49:0.09697952 50:0.24421613 
1.536e-006 1:-1.8368803 2:-0.05154205 3:-1.4782772 4:-1.4436498 5:0.52035234 6:0.085285043 7:0.28587068 8:-0.89278432 9:1.1435443 10:-0.3527221 11:-0.22133259 12:-0.47005869 13:1.2291528 14:-1.4896903 15:0.37522524 16:1.2192285 17:-0.88340214 18:0.13066186 19:0.87823505 20:-0.87575253 21:-0.34782769 22:-1.0066697 23:0.24873441 24:-0.68996123 25:0.12771435 26:-0.63343697 27:-0.074667231 28:-0.38258852 29:-0.090998158 30:-0.27868538 31:0.46143778 32:1.4598079 33:-0.84749872 34:0.10230681 35:-0.12170078 36:-0.79104947 37:-0.96853578 38:0.078891993 39:-0.3023464 40:0.03889882 41:1.0503326 42:0.95613066 43:0.54100521 44:0.72556814 45:-0.51672484 46:-0.58689686 47:0.1627345 48:0.62449333 49:1.2596403 50:-0.24194412 
1.536e-006 1:0.07735089 2:-0.2346791 3:0.95177762 4:-1.9875306 5:0.4719231 6:-0.87145965 7:0.74351696 8:0.16029486 9:0.14282475 10:-0.25671168 11:0.98861484 12:-0.15389504 13:-0.50475735 14:0.82386344 15:0.84451646 16:-0.31847594 17:0.32047587 18:0.44281987 19:-1.2799492 20:0.39524409 21:1.4160932 22:0.45250323 23:-1.1008629 24:0.50029645 25:-1.127994 26:-1.0457672 27:0.019398434 28:-0.33680251 29:-0.88694051 30:-0.22542023 31:-0.57507433 32:-0.59817294 33:0.56556706 34:-1.5260946 35:0.77068896 36:0.86789378 37:0.68848531 38:0.39200374 39:-1.0452683 40:-0.34540397 41:0.84860615 42:0.34982182 43:0.67507936 44:-0.2081815 45:0.40092752 46:0.56066218 47:0.4461314 48:-0.33202 49:0.48699862 50:1.1133785 
1.536e-006 1:1.3711288 2:0.51519506 3:0.34268142 4:-2.5249288 5:-0.097654145 6:-0.60191027 7:0.67350597 8:-0.81278138 9:2.4210924 10:-0.22211819 11:0.33806523 12:-1.5898956 13:0.97697965 14:3.1673502 15:0.21814637 16:-0.57248813 17:0.0923681 18:-0.27677972 19:-0.092847547 20:-1.1606884 21:1.2912647 22:-2.5389015 23:0.5457508 24:-0.87236714 25:0.51770194 26:-1.4594718 27:-0.22294198 28:1.5836412 29:-0.022633386 30:-0.30136893 31:0.17698955 32:-1.4833805 33:1.0984589 34:-1.4117791 35:0.34262334 36:-0.86813597 37:-0.0030528442 38:1.7771891 39:0.23648792 40:1.2193705 41:-0.87947014 42:0.89176825 43:-0.94089243 44:0.95929899 45:1.7299789 46:-1.0887929 47:2.0074339 48:-0.23464512 49:-0.14630001 50:0.49473341 
1.536e-006 1:2.34702 2:1.7032131 3:-0.41785839 4:-2.08073 5:-0.22925269 6:0.38937555 7:0.32007372 8:0.87933778 9:0.42845165 10:1.943077 11:-0.37683565 12:0.52395898 13:0.12419535 14:2.079008 15:1.9140547 16:0.82003316 17:-1.1046595 18:-0.93766202 19:0.43159224 20:0.27413716 21:-0.61556167 22:0.52538898 23:-1.5278876 24:-0.62818317 25:-0.94113517 26:-1.0852761 27:-2.9754015 28:-0.13247869 29:1.8738205 30:-0.66920336 31:-0.56325137 32:-0.88407272 33:1.0689342 34:1.0582079 35:-1.5504328 36:0.59155644 37:-0.56857318 38:-0.33497405 39:-0.63356261 40:-0.023851393 41:1.3868442 42:-0.53875743 43:0.55096784 44:-1.0884676 45:-0.18671686 46:2.4564425 47:0.11182074 48:-0.26661301 49:0.42526494 50:-0.068863541 
1.536e-006 1:1.3985418 2:-0.47186104 3:0.59854711 4:0.85287445 5:0.69155741 6:0.57830447 7:1.2396374 8:-0.11094085 9:-1.5706275 10:1.0929863 11:-0.49070325 12:0.041799448 13:0.48829752 14:0.59457449 15:1.0409578 16:-0.85409957 17:-1.0196025 18:0.89968461 19:-1.5970308 20:1.4816346 21:2.4222446 22:1.6454849 23:-1.2428395 24:0.8175458 25:2.6938953 26:0.16303589 27:0.36232434 28:-0.53189902 29:1.1079119 30:0.28162591 31:1.1556891 32:-2.1258021 33:0.37197548 34:-1.4454492 35:-1.3135241 36:0.18371473 37:0.12997599 38:-0.36336353 39:0.9211762 40:-0.81337719 41:2.0409424 42:-1.6005091 43:-0.39288025 44:1.0993466 45:-0.57379733 46:-1.5520646 47:0.12022983 48:0.06430273 49:0.13040985 50:-0.67018817 
1.190746796007519e-006 1:0.29286019 2:-0.80429278 3:-0.18606544 4:0.3919408 5:1.8760522 6:0.43282689 7:-0.076435559 8:-0.46878432 9:0.39038263 10:-0.37282802 11:1.242599 12:-1.3696253 13:-0.42719795 14:-0.25193176 15:1.5026327 16:0.16098531 17:-0.62713309 18:-0.56360193 19:-0.52259772 20:1.2241286 21:0.008873632 22:-0.66792656 23:-1.0058324 24:-0.12118631 25:-0.0510568 26:-2.1715422 27:-1.2046221 28:-1.9294197 29:0.67256014 30:0.76268041 31:0.23047179 32:-1.0361807 33:-0.55450641 34:0.4567881 35:1.1058217 36:1.3650509 37:1.3117636 38:0.59654268 39:0.99902008 40:-0.3060462 41:0.66680907 42:-0.5966701 43:2.2609534 44:-0.78141204 45:-1.2039789 46:2.2465865 47:-1.3228867 48:0.9317875 49:-0.60159818 50:-0.74167706 
1.536e-006 1:-1.4754212 2:0.73191758 3:0.96684687 4:-1.7311871 5:-1.066977 6:0.2680519 7:-1.1762289 8:-1.6985854 9:0.41762139 10:-1.1780846 11:0.14597995 12:-0.89037319 13:-0.91429826 14:0.66885027 15:-2.0853626 16:1.5554225 17:-0.62391175 18:-0.57421418 19:0.17110761 20:1.6517693 21:-1.3388322 22:1.0341691 23:-1.2570233 24:0.39170389 25:-0.30018829 26:0.38739224 27:-1.2070046 28:0.061496047 29:0.38348041 30:0.23280685 31:0.30450768 32:0.84331976 33:-0.78257912 34:-0.44966965 35:0.30151046 36:-0.34627782 37:0.76217278 38:-1.5185564 39:0.24695876 40:-0.16277709 41:0.30478622 42:0.40398016 43:0.58186233 44:0.90911511 45:0.30056694 46:-0.5270995 47:0.4727372 48:-1.0806659 49:-0.91032516 50:0.30889698 
1.536e-006 1:1.1745014 2:2.5359355 3:0.34675819 4:-0.13973208 5:-0.81746535 6:2.3881364 7:-1.8380862 8:0.085583591 9:-0.73215282 10:0.66898164 11:-0.32810275 12:-1.6452884 13:0.64020661 14:-0.24750574 15:-0.13989251 16:0.19098699 17:0.20185698 18:-0.15298106 19:-1.3305911 20:0.65768065 21:0.23197917 22:0.34047999 23:-1.1991572 24:-0.69052955 25:-0.49026634 26:0.95076206 27:-0.21997838 28:-2.0540735 29:-1.4134044 30:1.0286425 31:-0.22523844 32:-0.27705851 33:-0.41457644 34:-1.6217821 35:0.76811573 36:0.082326108 37:1.3458322 38:0.79294507 39:-0.5846589 40:0.21103846 41:-0.79544569 42:-0.13246172 43:1.0056196 44:-0.59532825 45:-0.40722935 46:0.80357144 47:-0.33396416 48:-0.3447095 49:-0.25939642 50:-1.056257 
1.536e-006 1:-1.0280674 2:-0.61509646 3:-0.40498661 4:-0.30804267 5:0.55946701 6:1.1549377 7:-1.3069734 8:-0.62433469 9:-1.0899461 10:0.13592336 11:-0.88086992 12:-1.0705501 13:-0.98112052 14:1.2471648 15:-0.20191391 16:0.74365141 17:-1.2186129 18:-1.4802121 19:-0.36531548 20:1.7287457 21:-1.2896542 22:0.05814525 23:0.15671589 24:0.20261689 25:0.76147826 26:-0.54422224 27:-0.57820005 28:-0.0002432071 29:1.5945741 30:-1.4528264 31:-0.36228913 32:-0.87987437 33:0.35709928 34:0.84309203 35:0.013781115 36:0.2500485 37:0.35952475 38:1.5273882 39:0.34130332 40:-0.87162265 41:1.6573001 42:1.2289022 43:-2.2061269 44:1.2389359 45:0.68549431 46:-1.3150897 47:1.6380921 48:-0.65022924 49:0.51856815 50:-0.16420859 
4.15424344527322e-007 1:0.34518072 2:-0.26446477 3:0.48809657 4:0.77633188 5:0.95236548 6:1.1814057 7:2.6638296 8:-0.42377125 9:-1.7816255 10:-1.2728481 11:0.95004808 12:1.4623725 13:1.3420795 14:0.439324 15:-0.63568193 16:1.1740331 17:-0.35362938 18:1.6390533 19:-0.51893241 20:0.076177182 21:1.8965381 22:0.18761966 23:0.43774825 24:-2.1122912 25:1.2348332 26:-1.6962661 27:0.50766612 28:0.45819965 29:-0.59547445 30:-1.8885866 31:0.61292834 32:-0.15731473 33:0.0076833223 34:-0.3522436 35:0.16545055 36:0.48351875 37:0.66583234 38:0.40406138 39:-0.48633026 40:1.2184976 41:0.44324985 42:1.4744054 43:-0.044671886 44:-0.66582637 45:-0.25242251 46:-0.65200345 47:0.28834439 48:-0.072432943 49:0.30242308 50:-0.19842136 
1.536e-006 1:0.095586663 2:0.43255349 3:-1.2076178 4:-1.8800478 5:-0.025280874 6:-0.36826807 7:0.34773111 8:0.07705309 9:-1.6260043 10:0.90222218 11:0.086368526 12:0.81886976 13:-0.17276691 14:0.27665673 15:2.0415304 16:1.2353708 17:0.31439217 18:2.4688619 19:0.25979374 20:-0.72241541 21:0.4817845 22:-2.326118 23:2.1727725 24:0.66642607 25:-1.1661363 26:1.2652708 27:0.39171994 28:0.12098687 29:-2.8636184 30:-0.57486188 31:1.015682 32:2.1525235 33:-0.3460639 34:-0.226418 35:0.82076169 36:-1.7025023 37:0.77005794 38:-0.58194841 39:0.27033576 40:0.018702674 41:0.69818981 42:-2.6066941 43:0.75689335 44:2.6427004 45:-0.62470199 46:-0.1786041 47:1.709833 48:-1.3063139 49:0.53081515 50:0.92957492 
1.536e-006 1:-0.85224267 2:0.5493739 3:0.69118251 4:1.1304762 5:0.24238212 6:-0.3020448 7:-0.37522853 8:0.37539607 9:-0.10987363 10:0.36770919 11:0.057825037 12:-1.2827359 13:-1.1730849 14:1.1520904 15:-0.78841401 16:0.59574762 17:-1.2381265 18:0.52576757 19:-1.3648026 20:-0.84194411 21:-0.32358762 22:1.2969614 23:-0.1874177 24:-1.5117036 25:0.76931427 26:0.90153713 27:1.093679 28:0.42135977 29:-0.23111463 30:0.087580852 31:0.31984896 32:-0.19743105 33:-0.62184333 34:-0.81773569 35:-0.35400572 36:-0.16195078 37:-0.54135107 38:0.10757587 39:0.620999 40:0.66898159 41:1.0779115 42:0.33269343 43:-0.29763094 44:-0.3825657 45:-0.42090559 46:1.2913987 47:0.5092542 48:0.57389152 49:1.6114893 50:-0.44847549 
8.88618136846697e-007 1:0.16477908 2:0.096066639 3:1.4642384 4:0.87835025 5:1.0970741 6:0.62230046 7:-0.021387486 8:-0.41488015 9:1.0734156 10:-2.5980716 11:-0.4642161 12:0.85023472 13:-0.40659636 14:-0.66661221 15:-0.29426837 16:0.0029317944 17:0.22378122 18:-0.62032187 19:-0.066675735 20:-0.081797244 21:-1.6166034 22:1.0916101 23:0.21114237 24:0.7981962 25:-0.65908202 26:-0.041933277 27:-0.010701404 28:1.3021769 29:-1.0231988 30:-0.48693302 31:-0.33858807 32:-0.57700745 33:1.2694222 34:-0.70048764 35:-0.041219491 36:1.1347986 37:-0.22037239 38:-0.38294823 39:0.68197801 40:0.56198346 41:-0.1708729 42:-0.19079798 43:0.31895133 44:1.4201356 45:-0.56431188 46:-0.98324764 47:-0.35292513 48:-1.1047301 49:-0.43043391 50:-0.069870616 
1.536e-006 1:-0.5570399 2:-1.4612712 3:0.38654256 4:-0.61083024 5:-0.058493715 6:1.1031954 7:-0.46764367 8:0.37237405 9:-0.40311348 10:-0.75892233 11:-1.7795476 12:1.5256104 13:-0.052498551 14:-0.54182512 15:0.91676107 16:0.20576633 17:0.78855941 18:1.3773402 19:1.8803073 20:-2.0220961 21:-0.46168792 22:0.60115116 23:-1.1763717 24:0.86783206 25:1.5460538 26:-1.2407537 27:-0.57550259 28:-1.3330442 29:0.24142239 30:0.36757649 31:-1.8432119 32:0.22502043 33:-0.039480005 34:-0.67870953 35:0.99063104 36:-0.82507516 37:0.53636232 38:-0.26086814 39:0.24659652 40:0.33628267 41:0.42811378 42:0.95462357 43:0.46373006 44:-0.83892999 45:-0.29804583 46:0.61254183 47:-0.16693386 48:0.98481572 49:-0.5566182 50:-0.50244792 
-1.536e-006 1:-0.78391705 2:-0.59146069 3:1.048932 4:-0.7339981 5:-0.67104889 6:-0.42271546 7:1.0081426 8:-1.6870086 9:0.61722409 10:-1.3662257 11:-0.61428402 12:-0.79292073 13:-0.22587992 14:1.3163689 15:0.23581589 16:-0.12025345 17:-0.085130437 18:-0.41429299 19:-0.19298202 20:2.2146993 21:-0.92887847 22:0.63914968 23:0.20204193 24:0.7212438 25:0.22422126 26:-0.5533792 27:-0.11064166 28:1.2454182 29:-0.85709293 30:0.097351837 31:0.81716827 32:0.11214424 33:-0.50128225 34:0.19736129 35:-1.2250796 36:-0.55390602 37:-1.0723918 38:-1.3878285 39:-0.50570864 40:0.60365974 41:1.0731586 42:0.85997355 43:0.47582124 44:-0.23288673 45:0.27716358 46:-1.724636 47:-0.71123376 48:0.062768627 49:0.31959841 50:1.6992261 
-3.560206462280554e-007 1:1.6667099 2:-1.1982198 3:-0.50083483 4:-2.0606878 5:0.31835445 6:1.0256112 7:-0.087979012 8:-0.038188428 9:-0.51102429 10:0.34195577 11:0.52712461 12:1.2638019 13:-0.086224461 14:-0.36063384 15:0.71730742 16:-0.41507003 17:-0.30409656 18:0.840215 19:-0.21676506 20:-1.3785895 21:-0.41574384 22:-0.96692651 23:0.24820335 24:-0.32076554 25:-0.19322257 26:0.98211456 27:-0.99579491 28:0.85915167 29:-0.0042424316 30:-0.2198471 31:0.026315796 32:0.73951448 33:0.40932276 34:0.11670451 35:-1.5145404 36:0.76925708 37:-1.0319028 38:-1.9293337 39:-0.027246442 40:0.28008279 41:-0.40245089 42:0.76829651 43:-0.97391509 44:-1.1158239 45:-0.03852808 46:0.54905846 47:-1.0053326 48:-0.50288473 49:-0.12194537 50:-1.1359962 
-1.536e-006 1:-0.46109072 2:-1.2654142 3:1.2072422 4:0.18785858 5:0.034707199 6:1.9936594 7:-0.54936629 8:0.94971933 9:0.35794658 10:0.43565386 11:-0.93632556 12:-0.35367044 13:-0.43714381 14:-0.37737337 15:1.6158847 16:0.38971097 17:0.36919439 18:-0.80329224 19:2.2843834 20:-0.61037565 21:0.12478161 22:1.3448271 23:-1.1395134 24:-0.54808029 25:-0.0014168181 26:-0.21823668 27:-0.73450405 28:-0.31550723 29:-0.093156235 30:0.11450067 31:-1.4861161 32:0.95433566 33:0.39876803 34:1.6310411 35:1.3196649 36:0.045195 37:0.57384415 38:0.81960847 39:0.18413076 40:1.1953561 41:-0.45458105 42:0.46266558 43:0.085116706 44:0.011387142 45:0.58775405 46:-0.10790313 47:0.31887453 48:-1.1910601 49:-0.29203313 50:-0.046809138 
-1.536e-006 1:-0.22226844 2:0.74893943 3:1.6992261 4:-0.66997429 5:-0.22413085 6:0.037226713 7:-0.27008386 8:-1.2686767 9:-1.0611191 10:1.7994225 11:0.46441483 12:0.33869425 13:0.22743512 14:0.14338389 15:-0.33934498 16:0.081576066 17:2.0107953 18:1.0916912 19:0.73687197 20:-0.41063977 21:-1.3451125 22:-0.32487201 23:-0.75892919 24:0.12214308 25:-0.034249517 26:-0.0708082 27:0.28494832 28:-0.88351276 29:1.3686269 30:0.45354985 31:0.77128891 32:-0.3055519 33:0.53297134 34:-0.13719976 35:1.1539086 36:-0.6479284 37:-0.82673174 38:-1.2366493 39:-0.054081234 40:0.23426393 41:-0.71046663 42:0.11360646 43:-0.4695006 44:-0.32631918 45:-0.25553482 46:-0.71989409 47:-0.9288524 48:-2.5455452 49:-0.51878284 50:0.83149027 
-1.509467944189671e-006 1:1.2705608 2:0.10977027 3:0.80561492 4:0.17164215 5:-1.3452002 6:-0.63993923 7:0.95480503 8:-0.52701083 9:0.23752011 10:0.81778446 11:-0.33714275 12:0.88324805 13:-1.377074 14:1.408087 15:-0.31835867 16:-0.45325743 17:1.3726682 18:-0.044947577 19:-0.78922016 20:-0.39119379 21:-0.042470878 22:-0.92044889 23:-0.3735467 24:-0.7995627 25:-1.2667686 26:-0.37296545 27:-1.0186122 28:-1.1271508 29:0.089905406 30:-1.0110464 31:-1.3670257 32:-0.79906665 33:-0.047328221 34:-1.2450545 35:-0.18199085 36:-0.41091568 37:-1.771204 38:-1.0493789 39:0.81117295 40:0.10945455 41:-0.46926435 42:-1.0169612 43:-0.31956661 44:-0.58969393 45:-0.2515459 46:-1.1354408 47:0.60303214 48:-0.052168085 49:-1.028593 50:0.13579049 
-1.536e-006 1:-0.49214331 2:0.18388149 3:0.94617988 4:0.00053900735 5:0.59035114 6:-1.5511798 7:0.007709341 8:-0.59479201 9:-0.045475251 10:1.5072583 11:0.43138752 12:0.15204136 13:1.424578 14:-0.55152574 15:0.050708987 16:0.44717704 17:1.3635031 18:0.36055561 19:0.5522937 20:-0.33124393 21:-0.12833953 22:-0.65516442 23:0.32090939 24:-0.042471951 25:1.1236211 26:1.0462726 27:-0.508958 28:0.34622537 29:0.32562061 30:0.075611774 31:0.49079853 32:-0.28232275 33:-0.33265684 34:0.069671055 35:0.16809 36:0.45096824 37:-1.367381 38:0.65780441 39:0.27408408 40:0.028104901 41:0.73121379 42:-1.3720151 43:-1.4957826 44:0.66825761 45:-0.585731 46:0.44939512 47:0.15857982 48:-1.3275492 49:0.29728272 50:1.8666351 
-1.39895133447799e-006 1:0.62245999 2:-0.35671579 3:-0.11794318 4:-1.785342 5:1.0846764 6:1.7033979 7:0.026950899 8:-0.025761522 9:-0.38709688 10:0.30348495 11:-1.0693646 12:0.15006658 13:2.1835538 14:0.3765566 15:-1.1439118 16:-0.82291714 17:-0.24539974 18:1.0780848 19:0.6511937 20:0.65141288 21:0.013105948 22:-1.01973 23:0.40230715 24:-1.0731542 25:0.27709173 26:-0.54705385 27:1.1147666 28:-0.17162106 29:-0.34091993 30:0.24443885 31:-1.4330671 32:-2.3228004 33:-1.9316176 34:0.98704948 35:-1.1141848 36:0.36697685 37:0.069103806 38:-0.73686502 39:0.27027165 40:-1.0886417 41:0.73842975 42:-0.30081221 43:-1.8135104 44:0.33354274 45:-0.80982924 46:0.56963029 47:-0.56349622 48:1.2688506 49:0.73231016 50:0.5891493 
-1.536e-006 1:-0.37857286 2:-0.55249709 3:1.0181253 4:-0.036776558 5:0.20008698 6:0.21725031 7:0.67600228 8:-0.047145164 9:1.288488 10:-0.56190012 11:-0.39965596 12:-0.7044409 13:0.33391713 14:-0.064118239 15:0.82050326 16:0.089309844 17:-0.62315579 18:1.4941795 19:0.52034301 20:-0.11612874 21:1.1507855 22:-1.0067482 23:-0.18903983 24:1.5008881 25:0.67839397 26:-0.37804269 27:0.25169362 28:0.58478043 29:-0.017709987 30:0.088461113 31:0.13121668 32:1.4783513 33:0.22578169 34:1.0605952 35:-0.11072127 36:-0.38624598 37:-0.2628082 38:0.017593894 39:-0.59877438 40:-0.1718208 41:0.27667332 42:1.0212135 43:-0.14213302 44:-1.5870045 45:0.96038688 46:-0.097490487 47:0.85439517 48:-0.66781217 49:1.1962143 50:2.4260049 
-1.536e-006 1:-0.45717257 2:0.96657111 3:-1.5982894 4:-0.5086776 5:1.768848 6:0.36765307 7:-1.0714928 8:0.25131116 9:-0.03189262 10:-0.23326245 11:-1.2497859 12:1.3524327 13:0.46175528 14:0.18165131 15:2.3199296 16:-0.58670371 17:-0.23187938 18:-0.5759457 19:-0.88119755 20:-0.22801593 21:2.6166501 22:-0.18942231 23:-0.50894274 24:-0.27867516 25:-0.35856448 26:-0.52288515 27:0.77113735 28:-0.5541934 29:-2.2147836 30:2.7535296 31:-0.027498244 32:-0.45571042 33:-0.87017172 34:-0.58483566 35:1.0673043 36:0.15178678 37:-1.5501571 38:0.41936552 39:-1.2146661 40:0.97944997 41:0.02348465 42:-1.7664808 43:-0.05799197 44:-0.68507256 45:0.48370109 46:0.38061467 47:1.7662639 48:0.2171653 49:0.008594299 50:-0.10992891 
-1.521861519283112e-006 1:-0.83076168 2:-0.27965702 3:1.3058183 4:0.097958522 5:-0.61217201 6:0.49232714 7:1.2108442 8:-0.057125621 9:-0.71163179 10:0.9350828 11:0.43856733 12:-0.28837155 13:-0.70234833 14:-0.3550873 15:0.30996975 16:0.3029057 17:-0.69064265 18:-1.4675927 19:2.0207186 20:-2.993375 21:1.192323 22:-0.16767945 23:-2.302536 24:0.41026608 25:-1.0670669 26:0.32237733 27:0.23109407 28:0.88330993 29:-0.48287472 30:-0.20411271 31:0.72714628 32:1.5771454 33:0.10637781 34:-0.32715896 35:-0.57466442 36:-1.0669115 37:0.97035008 38:-0.19511761 39:0.51218478 40:0.10207425 41:2.0146744 42:0.055504914 43:-0.32019123 44:0.69798289 45:0.32578384 46:-1.390381 47:-1.0695007 48:-0.041850026 49:-1.2036215 50:0.91948465 
-1.113305004062278e-006 1:-0.46313794 2:2.255167 3:1.0919586 4:0.044083489 5:-0.77049365 6:0.20472403 7:0.48877365 8:-0.91340138 9:-0.19256352 10:-2.2844701 11:-0.017117443 12:-1.504307 13:-0.0067014808 14:-0.66225536 15:1.1160254 16:-0.76517115 17:-2.6658684 18:-2.8335162 19:0.15085737 20:-0.11230176 21:0.77758754 22:0.096727519 23:-1.2229305 24:-1.4259466 25:0.56643564 26:1.8335528 27:2.3425853 28:0.82637417 29:-0.42366031 30:-1.7496429 31:-2.2694467 32:-1.0599926 33:1.3684626 34:1.291482 35:0.62360412 36:-0.20802412 37:0.90939127 38:0.12341281 39:-0.4718185 40:-0.051486652 41:0.1043397 42:1.3378504 43:0.093076103 44:-2.0222794 45:-0.72366387 46:1.0270209 47:-0.19979656 48:0.0035155932 49:0.51369988 50:1.1805501 
-1.536e-006 1:0.90684657 2:-0.40991625 3:0.046848148 4:0.70542962 5:-0.59210209 6:1.5773765 7:-0.5424165 8:0.73325384 9:-0.3295653 10:0.90461709 11:1.0603866 12:0.50900614 13:-1.7153033 14:0.72201981 15:0.98095833 16:-1.0111266 17:-1.510018 18:-0.8222481 19:2.6515651 20:0.52183897 21:-0.22815244 22:0.02225117 23:-1.8789412 24:1.4393607 25:-3.2139019 26:2.3265913 27:-0.36894639 28:1.1978129 29:1.3136163 30:0.52073825 31:-0.30529717 32:-0.51083092 33:-1.2888797 34:-0.052950758 35:0.37923963 36:1.0499681 37:0.89933788 38:0.25838385 39:-0.24998733 40:-0.74461792 41:-2.4126243 42:-0.50085706 43:1.5574745 44:-2.320671 45:0.37403933 46:2.0506164 47:2.6145056 48:-2.6874447 49:2.6631652 50:0.46805194 
-1.536e-006 1:-0.41642656 2:-1.0631892 3:0.24513376 4:0.48806073 5:0.81948599 6:1.0314762 7:0.40988454 8:-0.085309273 9:-0.32779329 10:0.12689151 11:-0.062734839 12:0.73735585 13:-0.62249487 14:0.74034252 15:-0.72974732 16:0.49551512 17:-0.31140413 18:-0.19467683 19:-1.8380975 20:-0.4976502 21:-0.15702363 22:1.154943 23:-1.0212114 24:0.95865433 25:0.18738607 26:-1.2741657 27:1.1532997 28:1.0959362 29:-0.37543218 30:0.17804874 31:-0.42001803 32:0.51789857 33:0.091153516 34:-0.32079247 35:0.36152552 36:0.22000734 37:0.80938598 38:0.094733252 39:1.0393077 40:-0.95173972 41:0.1051559 42:1.9185971 43:1.6062014 44:-0.32402273 45:-0.92766449 46:0.61319481 47:0.42634286 48:-1.1500105 49:0.41349473 50:-0.17322896 
-1.536e-006 1:0.1985628 2:-0.25588997 3:-0.9692832 4:-0.11728606 5:-0.76523328 6:1.0613501 7:-0.36711127 8:0.086730263 9:-0.17686553 10:0.084361506 11:0.44202008 12:0.11293836 13:-0.061107606 14:-2.1528551 15:-0.93226295 16:0.097080024 17:0.8340081 18:-0.89786363 19:-0.35060015 20:-0.79069235 21:-1.1055871 22:2.4576782 23:0.76909922 24:0.50927966 25:0.1132246 26:-0.36144202 27:-2.3487155 28:0.38706383 29:0.58110264 30:-1.4016738 31:-0.91044877 32:0.10155515 33:1.7408196 34:-0.24219492 35:0.1526122 36:0.51552935 37:1.0275683 38:-1.0819425 39:-1.9681307 40:1.0506781 41:2.1235555 42:0.33261257 43:-2.3745148 44:-0.10890697 45:1.9612199 46:-2.8068495 47:-0.54846613 48:2.1842214 49:1.676561 50:-1.937509 
-1.408773329658368e-006 1:-1.4780396 2:-1.4143378 3:-0.10884245 4:-0.094492105 5:0.098277672 6:0.420405 7:-0.18517302 8:1.3083419 9:1.1883258 10:0.16455131 11:-0.20358191 12:0.39978808 13:-0.92143835 14:0.74214399 15:-0.023163544 16:0.41140649 17:-0.64019826 18:1.1970897 19:-0.095709566 20:-0.25582377 21:1.2984136 22:-1.0996392 23:0.72594477 24:0.984858 25:0.60065766 26:-0.83096404 27:0.30299465 28:0.27729161 29:1.9196998 30:-0.60932154 31:0.04768202 32:1.0861149 33:0.70083344 34:-0.033761948 35:-0.76721472 36:0.4788133 37:-0.63554459 38:0.15594451 39:-1.9473385 40:-0.851611 41:-1.1198364 42:-0.26444249 43:-1.144558 44:-1.4978084 45:0.29693682 46:1.1437163 47:0.017284521 48:-0.30153694 49:-1.6830396 50:-1.305515 
-1.536e-006 1:0.27215218 2:-2.1578709 3:0.026810562 4:1.1619216 5:-0.040646467 6:0.36382721 7:-0.9236224 8:-1.3159786 9:-0.097510718 10:-0.29952349 11:1.1689161 12:0.27575043 13:-1.1101768 14:0.10658167 15:-0.19138679 16:1.4029243 17:1.78202 18:-0.98118881 19:-0.11272885 20:1.3003325 21:-0.075681478 22:0.11935556 23:0.36102242 24:0.38708345 25:0.26494293 26:0.66573077 27:-0.7147076 28:-0.22105888 29:-1.012015 30:1.0097029 31:-0.24462299 32:-0.070868601 33:0.95141291 34:1.7774932 35:-1.3891486 36:0.56794088 37:0.48868512 38:1.1647875 39:-1.850396 40:0.6304654 41:0.19513358 42:-0.080594867 43:1.5080155 44:0.41946871 45:1.0832861 46:0.30368222 47:-1.2453102 48:0.7796622 49:-0.51962987 50:-1.9211706 
-1.536e-006 1:0.21562969 2:0.90067632 3:-0.13371913 4:0.45169126 5:0.51523021 6:0.81166035 7:0.0034283651 8:-0.60938383 9:-1.0434846 10:1.7865491 11:-0.78176414 12:-0.95195829 13:-1.0497844 14:1.2853114 15:-1.0333569 16:-1.6346302 17:0.22101673 18:-0.46752884 19:-0.59549733 20:1.39936 21:-0.98434591 22:-1.6327699 23:0.63739231 24:-0.12453287 25:0.19612936 26:-1.6453193 27:0.70358155 28:1.589106 29:-1.520274 30:-0.32748743 31:-0.63141327 32:0.70584811 33:-0.99707235 34:-0.88264535 35:-1.5682582 36:-0.00100382 37:0.71375578 38:-2.5816899 39:1.3371788 40:-0.21406086 41:-1.7347977 42:0.90641478 43:-1.4194394 44:-0.15619975 45:-2.481354 46:-0.014552891 47:-0.77375135 48:0.59730678 49:-0.089581784 50:-0.63055318 
-9.342291065088659e-007 1:-0.80337592 2:0.55902109 3:0.49351637 4:0.60403485 5:-0.11227184 6:-1.4818649 7:-0.87650204 8:0.46542794 9:1.1394554 10:-0.79879721 11:-1.9003052 12:1.5182871 13:-1.6371225 14:0.94996369 15:0.55463782 16:-0.78067944 17:-0.26895049 18:1.0933901 19:1.2610235 20:-0.36289011 21:1.0465541 22:0.67972935 23:-0.40433866 24:-1.4351864 25:-0.2379017 26:-0.24923157 27:0.43859234 28:0.13677545 29:-0.64480284 30:-1.2570833 31:0.47606791 32:-0.23846792 33:1.1091294 34:-0.93956719 35:-0.33452687 36:0.95933018 37:0.78349191 38:0.25179086 39:-0.24392474 40:0.18534366 41:0.050878813 42:-1.2093466 43:-0.90892834 44:0.29818614 45:-0.77773682 46:0.92764922 47:-0.31400611 48:-0.16161192 49:-0.098732041 50:-0.086757359 
-1.536e-006 1:0.59487684 2:-0.92606003 3:1.0354019 4:-0.34711463 5:-0.32159494 6:0.77515839 7:-0.070183986 8:0.93666613 9:-1.1103099 10:1.0776292 11:-0.65490044 12:-0.81367773 13:-0.076060382 14:0.73264806 15:0.11473498 16:0.6948332 17:0.24782902 18:-0.86557632 19:0.80983126 20:1.1728361 21:-0.77330478 22:0.28854919 23:-0.88593859 24:0.47535418 25:1.3570459 26:-1.5324724 27:0.32575375 28:1.4085784 29:-0.53415646 30:-0.38760356 31:0.24971343 32:0.69025787 33:0.24502557 34:0.32303479 35:-0.92629693 36:1.9307029 37:2.3475765 38:-0.19736998 39:0.43429831 40:-0.36950747 41:0.46804148 42:-1.7181391 43:0.76170712 44:-0.18424138 45:0.11350263 46:-1.3099871 47:0.46809681 48:-0.81147106 49:-0.5503619 50:2.2173793 
-4.23167491494629e-007 1:1.0154801 2:0.079554176 3:0.044951111 4:0.80283648 5:-1.8826874 6:0.19457085 7:0.33306838 8:0.38172256 9:0.56422181 10:0.59889303 11:-0.73232494 12:-0.38275398 13:0.68621812 14:0.32632143 15:-1.1970235 16:0.019197895 17:-2.5929243 18:-1.1391718 19:-1.0748697 20:-1.3839995 21:-1.8945971 22:1.8577923 23:0.30881883 24:-0.43046467 25:1.537222 26:-1.7554837 27:0.11719892 28:-1.1382956 29:-2.7543068 30:-0.86341968 31:-0.79422035 32:-0.020167296 33:-0.61404242 34:0.1748264 35:0.29393847 36:-0.8531568 37:-2.2938794 38:0.57304007 39:-0.49669005 40:-2.4252075 41:-1.4524654 42:-0.94937539 43:0.54718838 44:0.45600938 45:-0.24446739 46:2.1444881 47:-0.9315068 48:-1.2423446 49:1.7536131 50:-0.16991547 
-1.536e-006 1:0.11510804 2:-0.19677202 3:1.2309249 4:1.4306459 5:-0.29408179 6:0.14859968 7:-0.15330467 8:0.39460891 9:1.8818148 10:1.093957 11:0.43093315 12:0.36598433 13:0.04203187 14:0.084427015 15:-0.76149076 16:-1.6407328 17:0.44273552 18:1.6016228 19:-0.56050511 20:-0.99211274 21:0.27773497 22:1.6293722 23:-0.19984309 24:0.04003342 25:-1.395282 26:0.11192308 27:0.083881748 28:-0.71133336 29:0.34399238 30:-0.01749449 31:2.6360804 32:-0.29263471 33:-0.51577641 34:0.15274269 35:-0.94376117 36:0.56357509 37:-0.43134048 38:0.40083859 39:-0.42514369 40:0.78791515 41:-1.1528243 42:-1.2509059 43:1.9069631 44:2.1850853 45:-1.1911809 46:0.64643814 47:-2.7433403 48:-0.41375609 49:-0.5059386 50:0.18327772 
-1.536e-006 1:0.28332308 2:-1.603601 3:-0.98433145 4:0.15107191 5:-1.4273854 6:-1.805261 7:1.0545884 8:-0.69467092 9:-0.26531775 10:-1.1277279 11:1.5146594 12:1.5388774 13:-1.2938668 14:-1.4844956 15:0.81458709 16:1.9022419 17:-0.46647391 18:1.133081 19:0.7488306 20:2.4641314 21:-1.9504623 22:0.6113835 23:-0.35690391 24:0.64198349 25:0.064432662 26:0.51793011 27:-0.19673341 28:-0.67076493 29:-0.0054435628 30:1.2001953 31:-1.6733378 32:-0.24220622 33:0.63711529 34:-1.0785764 35:-0.22789168 36:-0.77202855 37:1.119276 38:-0.90775338 39:-0.62167509 40:1.0426504 41:0.3337416 42:1.0603637 43:-1.3449908 44:0.62928579 45:-1.5348273 46:0.40658538 47:0.23103593 48:-0.96680739 49:-2.0670484 50:1.1672771 
-1.536e-006 1:0.21047029 2:0.60743844 3:-1.3021861 4:-0.69918803 5:1.3438866 6:0.40647911 7:0.00011920681 8:1.4151661 9:0.18139539 10:0.64061201 11:-0.099864599 12:0.86136491 13:-0.15528753 14:-0.58199993 15:-1.0971181 16:0.16012269 17:-1.1568672 18:-0.78347861 19:-0.010709527 20:-0.54793039 21:-2.1875655 22:-0.53915435 23:-0.043212182 24:0.031802483 25:-0.80405411 26:-0.1932013 27:-1.3417649 28:-0.1732475 29:1.4693971 30:-1.9754952 31:-0.57608424 32:-0.076149186 33:0.31148514 34:-1.9154355 35:-1.7093212 36:1.4417164 37:2.4847204 38:-2.0961148 39:1.5686513 40:1.6437736 41:-1.1108075 42:-0.58663116 43:-0.5712663 44:0.1151696 45:0.93369292 46:-0.68410245 47:-0.57906347 48:0.030340978 49:1.89629 50:1.4510059 
-1.536e-006 1:1.3650539 2:-0.64385782 3:0.64617154 4:-1.0625031 5:-3.1458938 6:2.0761742 7:-0.38336394 8:0.97258827 9:1.2065723 10:0.7234887 11:0.30945119 12:0.87364856 13:2.084445 14:-1.0022588 15:1.9317636 16:-0.40576927 17:-1.7520603 18:-0.031502532 19:-0.44452058 20:1.2700067 21:-1.712974 22:-0.23514218 23:0.67630923 24:-0.10545844 25:0.16027047 26:-1.6930005 27:0.99904315 28:-1.7344945 29:-0.90471446 30:0.20836249 31:-0.71914099 32:-0.317825 33:0.95508386 34:-0.31495248 35:-0.29400771 36:-0.22328736 37:0.71755932 38:0.5064447 39:-0.33617594 40:-0.366173 41:-0.26471412 42:-0.75591079 43:0.75855373 44:1.578624 45:0.71601231 46:-0.19651273 47:0.29504541 48:1.8680547 49:-0.63366007 50:0.15738267 
-1.536e-006 1:-1.2172463 2:-1.6691451 3:0.76353144 4:-0.56302832 5:-0.60381579 6:0.6880244 7:-0.61295595 8:0.38811721 9:1.2438335 10:0.17569507 11:-0.55557593 12:-0.84743463 13:-0.635296 14:0.61891942 15:-0.83002663 16:0.46463948 17:-0.39505206 18:1.2355141 19:0.26911686 20:-0.1787684 21:0.0097528796 22:-0.76919754 23:-0.27698309 24:0.39062151 25:0.067837021 26:0.14179062 27:0.28445881 28:0.099718116 29:-1.2715425 30:0.1424315 31:0.14430964 32:-0.30608042 33:-0.34099047 34:0.52503199 35:-0.24899114 36:0.36735414 37:1.3504258 38:1.0708611 39:0.19246081 40:0.67338387 41:-0.65674764 42:-0.17013126 43:1.4841233 44:-0.094147811 45:-0.32276918 46:-0.26505029 47:0.16705562 48:-0.48772683 49:-0.48607223 50:0.77938276 
-1.536e-006 1:-0.98311879 2:1.2587419 3:-1.4822031 4:0.78242053 5:0.75969634 6:-0.28310962 7:0.67147737 8:0.96582784 9:0.76249497 10:-0.57707389 11:1.1252987 12:-0.25538152 13:-0.11977964 14:0.44376891 15:0.57756317 16:0.068231704 17:0.19967824 18:0.84326292 19:0.27155841 20:1.0634052 21:-0.10225418 22:-0.30603966 23:-0.20858121 24:0.031274735 25:0.67439646 26:1.0364842 27:0.86885377 28:1.2600254 29:-0.36687796 30:-0.85491978 31:0.14685125 32:0.15524474 33:0.40026216 34:-1.7673093 35:-1.349792 36:-2.0557459 37:1.7685635 38:0.48820743 39:2.1521313 40:1.0866176 41:-0.73122212 42:-1.1470648 43:0.40808476 44:-0.44619394 45:1.4466266 46:1.0054272 47:-0.91832645 48:0.66140131 49:1.2654863 50:0.63704612 
-1.536e-006 1:0.9359701 2:0.42742008 3:-1.1368763 4:1.7213476 5:-0.20619362 6:-0.74890726 7:-0.28152094 8:0.46855015 9:-2.7362403 10:-0.081930376 11:-0.77900624 12:1.821539 13:0.67692155 14:-1.6589527 15:-0.48248165 16:-0.4901554 17:-1.3874898 18:-0.11755323 19:0.30076619 20:0.74652949 21:-0.40160213 22:-0.17632821 23:0.5806212 24:-0.58977853 25:-0.33490467 26:0.93395549 27:-0.57980663 28:1.076579 29:0.34328698 30:1.884644 31:0.41203191 32:0.53768729 33:-0.68581959 34:-0.70540146 35:-0.87700081 36:-0.36127849 37:0.17805922 38:-0.9698296 39:-0.45743975 40:0.69430633 41:0.061830776 42:0.72759495 43:-1.0421415 44:-1.6216919 45:-0.25799475 46:-0.037756864 47:-0.56522772 48:2.0037368 49:-0.49195211 50:1.1515578 
-1.536e-006 1:0.23762061 2:0.78233632 3:2.354073 4:0.88894943 5:-1.1082812 6:-0.20377541 7:0.52060316 8:0.11321249 9:1.3680479 10:0.021942891 11:-0.48863419 12:0.88773576 13:-1.1686454 14:-0.58587578 15:0.57706706 16:0.71955061 17:-0.33850484 18:-0.45004018 19:0.72331635 20:-0.56344978 21:0.66250043 22:0.072576713 23:0.50290629 24:0.10539973 25:0.26926949 26:0.38754588 27:0.32551002 28:0.70771684 29:0.44315264 30:0.40081122 31:0.64402537 32:1.1059279 33:0.22803056 34:0.4407269 35:-0.12966385 36:0.71081815 37:-0.62395176 38:-0.5674057 39:-1.0785739 40:0.44839573 41:1.1566691 42:-0.47059254 43:-0.5218437 44:0.43688717 45:0.93302795 46:-0.85834766 47:0.93632806 48:1.2605836 49:-0.65739565 50:-0.43150466 
-1.536e-006 1:-0.49596216 2:-1.3439419 3:1.613452 4:-1.2426316 5:-0.10557578 6:0.3485573 7:-0.71550615 8:0.16685998 9:-0.76221526 10:-0.050857426 11:-0.84290323 12:0.1161331 13:0.6909412 14:-0.75936625 15:0.69222737 16:-0.48003635 17:0.63925266 18:-0.26176147 19:-0.7374716 20:-0.46056506 21:1.0814018 22:0.61684941 23:-1.0458281 24:0.73740848 25:-0.34256859 26:0.113306 27:0.93035881 28:0.11565828 29:-0.38349664 30:0.52986981 31:0.22318347 32:-0.083764988 33:-0.50872212 34:-0.51259022 35:-0.3267044 36:0.033188533 37:-1.027131 38:0.010709617 39:-0.075487855 40:0.50875881 41:1.5100914 42:0.57180734 43:0.014279366 44:0.27942138 45:-0.82556453 46:0.57207315 47:0.6030129 48:-0.20903851 49:0.050626634 50:-0.17199483 
-1.536e-006 1:0.8975259 2:0.70743054 3:0.20976514 4:0.2415264 5:-1.9090587 6:-0.59751262 7:-0.084478128 8:-0.21869953 9:0.45796152 10:0.37062313 11:-1.569779 12:0.80688583 13:-0.31720624 14:1.4781267 15:-0.9989109 16:2.824361 17:-2.0119648 18:-0.017641515 19:-0.25067947 20:-0.27724412 21:0.90551799 22:-1.6562888 23:0.3894509 24:-2.5066105 25:2.2469207 26:-0.42264287 27:-1.3372611 28:2.6837585 29:0.58640047 30:0.67124694 31:-0.63162991 32:-1.1239383 33:-0.91773249 34:1.1794825 35:-2.9455691 36:0.1735526 37:-0.026583288 38:2.370737 39:-0.93908905 40:-0.34279426 41:-1.401054 42:-1.3325245 43:0.74278085 44:0.97300168 45:0.54081313 46:-0.38475175 47:-0.1777161 48:-2.1436559 49:-1.4158839 50:-0.86104152 
-1.536e-006 1:-0.11831598 2:-1.0299261 3:-0.65866055 4:0.97591144 5:0.39943501 6:-0.78244687 7:0.7506506 8:-1.3257797 9:0.31583086 10:0.22380045 11:-0.55029529 12:0.25597642 13:0.0084002358 14:-1.638559 15:-0.58542878 16:1.988458 17:0.30744372 18:-1.4920164 19:0.55783556 20:0.62778664 21:-1.3815979 22:-1.0497716 23:-0.022270774 24:-1.304543 25:1.2163351 26:-0.027299737 27:0.70855208 28:0.13375856 29:-0.40878269 30:0.54102993 31:0.8012272 32:1.47799 33:-0.18260123 34:-1.1296053 35:2.0874231 36:0.25417561 37:-0.37652024 38:-1.7924199 39:0.40330028 40:-1.5832338 41:-1.3353948 42:0.10970169 43:-0.5127382 44:0.19064993 45:1.6599744 46:0.2871399 47:1.7528401 48:-1.0445485 49:2.0921504 50:-0.61617847 
-1.536e-006 1:0.88499859 2:-0.7371814 3:-0.2303958 4:-1.4457087 5:-0.15981863 6:-0.13865939 7:-1.0954959 8:-0.86202058 9:-1.1928967 10:0.12120248 11:-0.28107798 12:0.80742593 13:1.8268281 14:0.77773852 15:-1.3847976 16:1.2054571 17:0.29046169 18:-2.4029285 19:1.6819504 20:-0.84318054 21:0.35368756 22:1.2655333 23:0.59055028 24:-1.4630441 25:-0.35756141 26:0.1353511 27:-0.26138827 28:-0.37558119 29:-1.2378714 30:-0.089558143 31:0.82684043 32:0.63121833 33:-0.42300296 34:0.89638909 35:-0.92364568 36:-1.8265372 37:-0.40329398 38:-1.4763279 39:0.093580116 40:-1.1211759 41:1.2307023 42:-0.7346267 43:1.0117527 44:-0.67303695 45:-0.53181531 46:-0.48339957 47:0.19980724 48:1.0195665 49:-0.64796298 50:1.0107757 
-1.536e-006 1:-1.8953278 2:0.10616053 3:-1.5308529 4:-1.3054635 5:-0.84823499 6:-1.1443543 7:-0.057089463 8:-0.46459232 9:0.55354714 10:0.13798818 11:0.64888487 12:-1.4263552 13:-0.24529424 14:-0.54322767 15:0.99651001 16:-1.6306591 17:-0.83343847 18:-0.19375129 19:0.088093995 20:0.0015785192 21:-0.28479512 22:-0.25080763 23:0.49754092 24:-1.1017465 25:1.5319207 26:-0.076351777 27:-2.4652851 28:-1.4098499 29:0.26459694 30:0.80373149 31:1.2620805 32:0.90207462 33:-0.27639747 34:0.50356173 35:0.50255966 36:2.0972209 37:2.1939738 38:0.87447424 39:-1.9787381 40:1.2664311 41:2.0443958 42:0.69168248 43:-1.5198461 44:-0.38292604 45:-0.2851819 46:-0.86201371 47:-1.7456559 48:-2.6452277 49:-0.42719706 50:0.82966566 
-1.536e-006 1:-0.31343024 2:0.10732991 3:0.61882822 4:1.3202765 5:-1.1411515 6:0.31618765 7:-0.93903057 8:-1.0499481 9:1.0883028 10:0.31373235 11:-0.92894403 12:0.16752019 13:0.27436301 14:0.78128154 15:-0.25097218 16:-0.17563455 17:-0.83451796 18:-0.9371346 19:0.79683655 20:-0.51600217 21:-0.020028512 22:-0.22756975 23:0.8017541 24:-1.2650401 25:0.45670697 26:-0.59606035 27:-0.88481492 28:-2.0837588 29:-0.80283739 30:0.85509241 31:0.75030403 32:0.0086291243 33:-0.77161099 34:-1.0080904 35:0.68318566 36:-1.2386034 37:2.5250721 38:-1.5801659 39:1.5773468 40:0.67645769 41:-1.8095783 42:-0.31848836 43:0.07874981 44:0.02631985 45:-2.3822246 46:-2.1078547 47:0.04224587 48:1.767142 49:-0.2923942 50:-1.34395 
-1.536e-006 1:-0.19692704 2:-0.64123944 3:0.11221317 4:0.74642398 5:0.38034614 6:-0.82281147 7:-0.64317628 8:0.68258911 9:-1.094943 10:-0.0020872447 11:-0.53346636 12:-0.50787586 13:0.12458516 14:0.78419208 15:-0.65559772 16:-1.1839798 17:0.060352284 18:0.61921196 19:-0.19578902 20:0.17779159 21:-0.5323965 22:0.98109381 23:-0.69734556 24:-1.6576924 25:0.70551198 26:-0.1313941 27:0.75517844 28:1.3157665 29:-0.46254677 30:-0.089294214 31:-0.21277581 32:-0.1449649 33:-1.4398377 34:-0.64477253 35:0.14339101 36:0.78729891 37:-1.2066864 38:-0.45537138 39:1.5556597 40:-0.97629221 41:-0.93963987 42:0.53560259 43:1.8400534 44:0.95991219 45:-0.52119542 46:-0.17192498 47:-0.6926345 48:0.72306834 49:1.1670538 50:-0.25720348 
-1.536e-006 1:1.0241559 2:1.8209614 3:-2.0069556 4:1.4143482 5:0.86963794 6:-0.4151245 7:0.36436875 8:0.16079873 9:0.41445152 10:1.2890807 11:0.63930643 12:-1.7577377 13:0.50478926 14:-0.63454648 15:0.6941342 16:-1.0131619 17:-0.97247707 18:0.26927348 19:1.1258594 20:-0.040569495 21:0.89600376 22:-0.19228086 23:-0.78728118 24:-0.32692341 25:-0.51268743 26:-0.52578359 27:-0.96949493 28:-1.6312705 29:-1.7151935 30:0.23646207 31:0.49844606 32:-0.37835221 33:-0.57915458 34:1.4760832 35:0.9372147 36:-1.105124 37:0.40392664 38:0.060992183 39:1.5016788 40:-1.4081229 41:-0.61020663 42:-0.46982257 43:-2.0056949 44:1.1742222 45:3.1210747 46:-1.2602886 47:-0.98209416 48:1.8354263 49:0.10001115 50:0.51388703 
-1.536e-006 1:0.93238673 2:-1.0206964 3:-0.30836561 4:-0.28879314 5:1.2101555 6:-0.31849036 7:-1.4681681 8:0.31766575 9:0.40375204 10:-0.87391319 11:0.61186113 12:2.0139385 13:0.029735757 14:-1.663142 15:-0.20677268 16:0.15431634 17:1.4505794 18:-0.45791699 19:-1.6581175 20:-0.59441081 21:-0.095785548 22:0.79522646 23:-0.21492803 24:1.9362691 25:0.95233788 26:-1.8887154 27:2.075247 28:-2.3237088 29:-0.39616562 30:-0.44820778 31:-1.1675055 32:0.44410641 33:0.064975369 34:-0.032149814 35:-1.2205761 36:0.47151784 37:0.17238874 38:0.75190747 39:-0.69796277 40:1.2829851 41:0.9817067 42:-1.7224422 43:-1.9394759 44:-1.0615551 45:-0.51699501 46:1.8320814 47:0.90285354 48:0.028134669 49:-1.8529893 50:0.29323288 
-1.536e-006 1:-0.45360666 2:0.36587667 3:-0.41076666 4:0.21486293 5:0.36594166 6:-1.051049 7:0.20487115 8:0.88768009 9:-2.8589902 10:1.6701436 11:-2.4562768 12:-0.56809807 13:-0.39716818 14:-0.68997299 15:1.1208068 16:0.75925474 17:-0.81450695 18:-0.8658786 19:0.42882635 20:0.41287986 21:-1.5056441 22:-0.71948624 23:1.1182645 24:1.0678863 25:0.57500084 26:-1.9744776 27:-0.94686433 28:0.15667737 29:-1.3003356 30:-0.17932129 31:-0.45244424 32:0.41435901 33:-0.11125508 34:-0.67927444 35:0.76179034 36:0.67440892 37:0.31100483 38:1.5421015 39:0.16496398 40:0.52552401 41:-0.20821992 42:-0.70666362 43:0.88306797 44:0.037042305 45:0.91427292 46:0.32518153 47:-0.76627303 48:-0.95118719 49:0.14822428 50:0.045778438 
-1.536e-006 1:-0.44112821 2:0.26397593 3:0.35323746 4:0.76905694 5:0.2616265 6:-1.8152875 7:-0.72906365 8:-0.88451765 9:-0.3073561 10:0.021099954 11:-0.49051971 12:0.6030712 13:-1.0368178 14:1.2989013 15:-0.46630328 16:1.0309437 17:0.7148488 18:0.22445632 19:-0.1784962 20:1.0655716 21:-0.4960082 22:0.6967693 23:1.0962691 24:-1.4485852 25:1.280174 26:-0.42661605 27:-2.7984648 28:-0.58392557 29:-1.4469305 30:-0.11583736 31:0.52203485 32:-1.2543342 33:0.59667209 34:-1.4611328 35:0.77430687 36:-0.58265142 37:1.233362 38:-0.59988785 39:-0.020284461 40:-0.39725077 41:-1.5755311 42:0.71761297 43:0.50641559 44:0.2700895 45:-0.91711859 46:-0.045993608 47:2.5682473 48:-0.33737752 49:0.5217937 50:0.38799431 
-1.199208048117268e-006 1:-1.0675703 2:-0.92541346 3:-0.62365716 4:0.146708 5:0.66007006 6:0.42884518 7:-0.81188438 8:-0.19109934 9:0.60651858 10:1.976801 11:-0.78506518 12:0.40004963 13:0.60628311 14:-2.3070587 15:0.18415108 16:1.5439261 17:1.0507541 18:-0.0302127 19:-0.82920283 20:-0.053360329 21:0.24410091 22:-0.3915895 23:-0.078991286 24:-1.4541234 25:0.031565964 26:0.74795764 27:-1.7143642 28:-0.23310591 29:0.11014766 30:-2.0110302 31:-0.27450769 32:-1.1318404 33:-0.60662188 34:-0.64961418 35:-0.53103286 36:0.63329242 37:-0.20821484 38:1.3420339 39:1.8784163 40:-0.2563885 41:-0.041635567 42:-1.3105774 43:-1.5556898 44:-0.88587452 45:-0.3669153 46:-0.52896288 47:2.0839357 48:0.26649206 49:-0.82978391 50:0.10429343 
-1.536e-006 1:-0.038071824 2:-1.2942702 3:-0.17890066 4:-0.33415778 5:-0.6336115 6:-1.0845252 7:-0.99618826 8:-0.91898048 9:0.51165831 10:-1.9092898 11:-0.71631787 12:-0.72628948 13:0.54979712 14:0.88020322 15:1.02422 16:1.0846314 17:0.78826713 18:1.016919 19:0.64373409 20:0.52681088 21:0.31508674 22:0.3646063 23:0.59946664 24:1.5468631 25:-0.86425616 26:1.4270708 27:-1.2425842 28:-0.22957385 29:-0.91508301 30:-0.34793142 31:-1.2715024 32:-1.4686464 33:-0.72757124 34:-0.51340118 35:1.8645973 36:1.6977105 37:0.27406378 38:0.62466918 39:1.0431773 40:1.934617 41:1.1825754 42:0.47395454 43:-0.66964935 44:-0.86248599 45:1.3911244 46:0.32567261 47:1.7897602 48:1.9486309 49:1.4515099 50:-0.46813316 
-1.536e-006 1:-0.099107933 2:-1.2775697 3:-0.32042513 4:0.18836137 5:0.12192037 6:-1.7864196 7:0.79491624 8:0.93898251 9:0.83111504 10:0.12260192 11:-0.79440996 12:1.0166923 13:-0.21482542 14:0.38342152 15:0.51724508 16:1.3987443 17:0.47660883 18:0.41763241 19:-0.48418583 20:-0.46221762 21:-1.9964748 22:0.45503792 23:0.32002451 24:-0.094447985 25:-1.9257015 26:1.6225582 27:0.73727871 28:0.80656877 29:0.81255214 30:-0.35191492 31:-0.20683263 32:0.17116294 33:-0.47055047 34:0.36934731 35:0.45167401 36:-0.77409496 37:0.11043621 38:1.6598488 39:1.3484195 40:1.939367 41:-0.41081907 42:0.57690504 43:1.0878418 44:-1.9505331 45:1.8849245 46:-1.8143024 47:-2.2923167 48:0.79202758 49:1.0321715 50:-0.073214011 
-1.421797221622406e-006 1:0.2331527 2:0.080099491 3:0.037580099 4:-0.6765354 5:-1.415424 6:-0.88161987 7:0.7017092 8:-0.43281981 9:0.25790257 10:-0.20978123 11:1.1903085 12:-0.71758434 13:-0.44639948 14:-1.2150894 15:0.70546193 16:-0.89849776 17:0.8561262 18:0.42443065 19:-0.77218082 20:0.83595003 21:1.7418149 22:-0.62132421 23:-0.19976896 24:0.57067366 25:-1.3763688 26:1.6645517 27:-1.4390287 28:-0.91166261 29:-2.1288063 30:-0.3801379 31:1.9554005 32:3.1804338 33:1.9379804 34:-2.0181648 35:-0.02404851 36:0.43022381 37:-0.25322464 38:0.69461925 39:-1.2724649 40:-2.7711913 41:-0.25928624 42:0.90992362 43:0.77396049 44:-0.53581051 45:-0.81625455 46:1.3473372 47:-1.0991388 48:-1.5060795 49:0.14749667 50:-1.3727212 
-2.29612777936022e-007 1:1.6229047 2:0.70540449 3:-0.14801846 4:0.074189867 5:-1.7773883 6:-1.1154805 7:-0.9308199 8:-0.39930064 9:-2.6254929 10:0.53853581 11:-0.29506845 12:-0.79149905 13:-0.68751737 14:0.22184682 15:1.4528221 16:-0.97711957 17:-2.7373519 18:-0.46778426 19:0.57851571 20:-0.24575339 21:-0.70591529 22:-1.3125846 23:0.70183475 24:0.77293512 25:-1.7636088 26:0.38528718 27:0.049281116 28:-0.085088173 29:0.28302079 30:-1.9048362 31:1.7055603 32:-0.53929481 33:1.9152351 34:0.13884129 35:0.52354531 36:-0.051422519 37:0.75961954 38:-1.1328727 39:-0.37661727 40:-0.16714586 41:-0.39484946 42:1.5270955 43:0.54074785 44:0.66341749 45:0.34419661 46:-0.32736406 47:-1.2899493 48:2.1236044 49:-1.7946505 50:-0.71745894 
-4.361554835356612e-007 1:-1.423182 2:0.18529778 3:-1.9829655 4:-0.78458244 5:0.51155096 6:0.21655856 7:1.986091 8:0.78634677 9:-0.76249536 10:0.43675388 11:-2.0650165 12:0.2827103 13:0.74475304 14:0.43691221 15:-2.2183663 16:-0.05805131 17:0.26873994 18:-0.49979485 19:0.3077867 20:1.0880111 21:0.98198782 22:-0.79012814 23:0.042650579 24:1.8311212 25:1.9039121 26:4.2708298 27:0.44588209 28:-4.9020952 29:-0.41540483 30:-2.6704521 31:-1.8302921 32:-0.5937001 33:0.66918955 34:-1.2584503 35:-1.8131347 36:-0.18158148 37:-1.2371307 38:-0.98495415 39:-0.75386683 40:1.3716029 41:-0.73597922 42:1.2271904 43:2.2574936 44:0.41267907 45:1.5439245 46:0.16504369 47:0.50755207 48:-1.6412057 49:-1.056953 50:-0.2931919 
-1.536e-006 1:-0.03960057 2:1.228523 3:1.1082599 4:-0.84410063 5:-0.47766301 6:-1.0365121 7:-0.31611165 8:-0.1112549 9:0.71222898 10:0.59637159 11:-0.91046156 12:-0.92870493 13:0.40078798 14:1.0112331 15:-0.29024495 16:0.36202526 17:-1.1859711 18:0.15671423 19:-0.61566728 20:-1.0649504 21:1.2984246 22:-1.5650043 23:-0.59239795 24:-0.065238039 25:-0.54460102 26:-0.12184943 27:-1.1157546 28:-0.13721566 29:0.87364307 30:-0.50439313 31:1.1822035 32:-0.074556733 33:-0.56094502 34:-0.42418486 35:-0.63168918 36:0.33076756 37:-0.26013883 38:0.60190091 39:-0.58222649 40:-0.95271625 41:1.6567635 42:-0.25798851 43:0.88365657 44:-0.075814814 45:0.16434941 46:-0.11541624 47:-1.1188993 48:0.23454333 49:-1.5810524 50:-1.0638248 
-2.594684879309654e-007 1:-0.7779106 2:1.6499843 3:-1.625755 4:-0.92596595 5:-1.6389224 6:1.7472877 7:0.6215974 8:0.088074103 9:-1.7665708 10:1.2830698 11:0.82524732 12:0.80466799 13:0.88580052 14:-0.48542217 15:0.1317696 16:0.66533049 17:-1.2370102 18:-0.56746652 19:-2.0953086 20:-1.4560509 21:0.65341871 22:-0.13649477 23:-0.44872623 24:1.6616418 25:-1.0137813 26:0.63951851 27:-0.87926669 28:-0.60180982 29:0.20197864 30:3.8717972 31:-1.0968548 32:2.2100628 33:2.4750023 34:1.1571261 35:2.9163497 36:2.5530885 37:-0.36679363 38:0.22883072 39:0.56532379 40:1.459607 41:-3.047757 42:1.3759916 43:-0.061987729 44:2.6137535 45:-1.4896211 46:-1.802462 47:-2.1078002 48:-1.6114805 49:3.0440817 50:0.97047962 
-1.536e-006 1:-0.42225457 2:-0.41562972 3:-1.7295725 4:-0.54006041 5:1.4898128 6:0.88971994 7:-0.13677795 8:1.9624215 9:0.82237198 10:0.74653758 11:-0.10826146 12:0.17337969 13:0.13044903 14:-2.0201454 15:-0.62912655 16:0.87520917 17:-0.089829342 18:-0.35287504 19:0.064543072 20:-0.31230866 21:-0.79936114 22:0.43834529 23:0.17747638 24:-0.21888084 25:0.53409767 26:-0.7009462 27:-0.80662544 28:1.9025085 29:0.96749272 30:0.33235465 31:0.98119915 32:-1.2645491 33:-1.2037584 34:-0.29635955 35:1.4459062 36:0.17954691 37:0.59724969 38:0.46741601 39:-0.87670801 40:-0.28021261 41:0.10435939 42:0.81447986 43:1.0573943 44:1.5719283 45:0.2621261 46:-0.95778217 47:-0.61318824 48:-1.7994349 49:-1.6424064 50:0.079448784 
-1.265460131565902e-007 1:-0.64327902 2:-1.0836088 3:-1.0398875 4:-1.3186789 5:0.54009339 6:0.99370862 7:1.5187423 8:0.42283277 9:-0.47300314 10:-0.52286121 11:0.54100721 12:-0.20296946 13:0.27170452 14:0.1046344 15:-2.2634916 16:-0.76331062 17:-0.11933043 18:-0.60587745 19:-1.7488084 20:1.3023824 21:-1.469931 22:0.97462931 23:-0.20093979 24:0.62876813 25:-1.746921 26:-1.0549881 27:-0.20631215 28:1.1158259 29:-0.38563858 30:0.18730951 31:0.4797243 32:-0.75826307 33:-2.2939084 34:-1.2513914 35:2.7683417 36:-1.0704088 37:-1.4517728 38:-0.074053331 39:-2.3622756 40:-0.65289504 41:0.47140502 42:-1.8896096 43:-1.3379565 44:-1.1968862 45:1.9727995 46:0.36437676 47:-0.42416504 48:-1.3307257 49:-1.5978952 50:0.67483455 
-1.536e-006 1:-1.6344247 2:-0.49628408 3:-0.54107187 4:-0.56730199 5:-1.5362826 6:-1.5673499 7:0.42835647 8:0.70917788 9:-0.033529332 10:0.53285217 11:0.61178777 12:-0.24424239 13:0.86116456 14:-0.60158278 15:0.49797951 16:0.42296427 17:0.18593198 18:0.28130145 19:-0.041515371 20:-0.42903506 21:-0.37954946 22:0.17245496 23:0.10931474 24:-0.37199656 25:0.18187871 26:-0.47287415 27:0.17097196 28:0.39350837 29:-0.6762326 30:0.94540744 31:0.74051225 32:-0.88472675 33:-0.79805878 34:0.043319323 35:1.2557995 36:-0.74292556 37:-0.28521172 38:2.3183892 39:-0.74148632 40:0.84841272 41:-0.67986113 42:-0.12170037 43:-0.0021827868 44:1.0347203 45:0.21037084 46:0.83111269 47:0.7702464 48:1.330949 49:-0.40291676 50:-0.20198149 
-4.655993731788561e-007 1:-0.61435472 2:0.33035379 3:-0.44425876 4:1.2069575 5:0.77971825 6:0.43415374 7:0.67348279 8:0.07602681 9:0.29000537 10:1.583133 11:1.8259636 12:-1.3225149 13:0.6357213 14:-1.2403336 15:0.21909955 16:0.7227694 17:1.3615939 18:-0.63237294 19:-0.20463668 20:0.14401401 21:-0.47413716 22:0.61429722 23:-2.3870168 24:0.70097438 25:1.2331692 26:-0.96524935 27:1.7494627 28:-0.29661372 29:0.88955342 30:-0.90378383 31:-0.12379856 32:-0.53312438 33:0.60421697 34:1.5275095 35:0.65367235 36:-1.3633223 37:0.6099631 38:1.093699 39:-1.3266537 40:-2.0242556 41:-1.0452495 42:-0.40604495 43:-1.1097586 44:1.6227546 45:-0.65161218 46:-1.1863342 47:-0.91295206 48:-0.43715864 49:-1.8448337 50:-0.13114712 
-1.536e-006 1:-0.54495656 2:-1.7332194 3:-0.81113294 4:-1.225253 5:1.1194704 6:-0.56524148 7:-0.76866526 8:-1.1370578 9:0.82233885 10:-1.2511647 11:0.50832809 12:0.047399206 13:-0.55671078 14:-0.4257957 15:-1.1450527 16:0.12856721 17:-1.1233351 18:-0.44532794 19:-0.8416885 20:0.4659064 21:0.92483994 22:1.4265507 23:0.35971536 24:0.49728863 25:-0.43223607 26:0.30802114 27:0.3476324 28:0.058784061 29:0.67234175 30:-0.05485727 31:0.93482407 32:0.2907284 33:0.30200491 34:0.93431061 35:0.47077568 36:-0.46477705 37:-0.92671605 38:0.07874217 39:-0.24631007 40:0.049356582 41:0.063445299 42:0.68920385 43:0.11670976 44:0.49085249 45:-1.1262286 46:0.49866217 47:1.0524557 48:1.0333651 49:-1.2592474 50:-1.0279287 
-1.248959046116098e-006 1:-0.86378677 2:0.67186549 3:-0.68589073 4:0.16151437 5:-1.0738089 6:0.61243809 7:0.068565198 8:2.7500552 9:-2.6186119 10:-3.3280921 11:1.3688121 12:-1.5417361 13:-2.4683957 14:-0.14587107 15:2.0474854 16:1.821734 17:1.7593903 18:0.088391558 19:-0.0023855636 20:-2.0289631 21:0.053547032 22:0.66498661 23:1.6692537 24:-1.130381 25:-0.67366919 26:-1.0111371 27:0.21622122 28:-2.1155549 29:0.53328255 30:1.3136828 31:0.61440805 32:-1.9108385 33:-0.48317574 34:0.76811131 35:-2.2399216 36:-0.94508929 37:-0.78516338 38:-0.62150894 39:0.5234456 40:-1.6815293 41:-0.24401398 42:-0.003682032 43:0.086451477 44:-0.67281602 45:0.8779042 46:-0.26092633 47:0.32854818 48:-0.68818803 49:-0.088202976 50:0.19621824 
-1.536e-006 1:0.34568889 2:-0.60029636 3:0.13009784 4:0.069161714 5:-0.064018063 6:-1.1989283 7:-0.13507626 8:0.56007486 9:-0.43465204 10:0.89174804 11:0.62345447 12:0.12872304 13:0.12447263 14:-0.040159022 15:0.41958786 16:0.25933096 17:-0.31601143 18:-0.01462871 19:0.35768381 20:-0.30829943 21:0.41609003 22:-0.94175846 23:-0.79105833 24:-0.34373946 25:0.27344926 26:1.3242193 27:0.64236493 28:1.2505452 29:1.6179465 30:0.67706693 31:-0.44709225 32:-0.58704837 33:-1.15229 34:0.38588152 35:-0.47636891 36:-0.038760932 37:-0.31440736 38:-0.096778365 39:-0.70024118 40:-0.13918515 41:0.3227139 42:0.79913495 43:1.9513762 44:1.218434 45:0.45205957 46:0.64459277 47:0.08738651 48:1.396573 49:-0.20073887 50:-2.2405467 
-4.452023571275967e-007 1:-0.010559287 2:-0.75576429 3:-0.10903655 4:1.9175477 5:0.74174171 6:0.69360183 7:-2.2804609 8:-1.0231553 9:-0.1016604 10:-1.0726014 11:2.1656461 12:-1.0679828 13:1.1782454 14:-0.9688055 15:-0.56809871 16:-0.024290302 17:-0.82090695 18:0.71628354 19:0.42483394 20:0.65517775 21:0.90972629 22:-2.8591929 23:-0.10727723 24:0.32491217 25:-0.37802588 26:-1.5345269 27:-0.77774624 28:-1.1465129 29:-0.085330592 30:0.16694831 31:-1.6625615 32:-1.7096721 33:1.0639148 34:0.018422872 35:0.174925 36:-0.38258035 37:-1.4790501 38:0.21508717 39:0.82750795 40:0.66675207 41:0.0045384223 42:0.16135216 43:0.83537834 44:-0.89058841 45:-1.4038461 46:-0.29303524 47:-1.9822856 48:-0.13666785 49:-0.030670109 50:1.0026721 
-1.536e-006 1:-0.58123176 2:0.8169853 3:0.58387639 4:0.38682654 5:-0.64194687 6:-1.7373084 7:-1.5267548 8:0.35143781 9:0.54442821 10:1.5089891 11:-0.35044366 12:1.244682 13:-1.2068354 14:1.1800445 15:1.1936891 16:0.043048894 17:-0.079892192 18:0.7184118 19:-0.14116503 20:-0.068554758 21:0.86956315 22:-0.48507665 23:-0.030270492 24:0.56615519 25:-0.46394473 26:-0.74972516 27:-1.0289988 28:-0.31689656 29:0.24837421 30:-1.0203104 31:-1.3121176 32:-0.98598082 33:-1.6371451 34:0.098975464 35:0.72368979 36:-0.88523144 37:1.1763818 38:-1.0728179 39:-0.64295573 40:0.41672704 41:0.59546664 42:1.0927778 43:0.95407802 44:0.21512231 45:0.14886539 46:-0.65275387 47:0.37274442 48:0.45333004 49:1.2483501 50:0.86118495 
-1.325240059657847e-006 1:1.0688728 2:2.0773772 3:-1.915791 4:0.50095913 5:-1.303944 6:1.5970081 7:1.5542908 8:0.33442004 9:-0.17280225 10:-1.0970089 11:-0.86915204 12:0.030153782 13:-1.1308611 14:0.30072983 15:0.74730514 16:-1.6668602 17:-0.14151307 18:0.84886604 19:0.98743782 20:1.5497447 21:-1.5563617 22:-1.8915383 23:0.39051635 24:1.7553733 25:-0.77996249 26:-1.2765474 27:1.3791144 28:0.48970876 29:0.44489068 30:-0.061126212 31:0.044081004 32:-0.14703351 33:0.084379392 34:-0.14189477 35:0.23152763 36:0.36484131 37:-0.48926646 38:1.0339951 39:0.58500481 40:-1.2586968 41:1.7326882 42:0.023215154 43:-0.37076497 44:1.278028 45:0.22073921 46:-1.4781715 47:1.0806579 48:-1.8117051 49:-0.055792947 50:-1.543257 
-1.536e-006 1:1.3792109 2:-0.96574435 3:-1.0714016 4:1.5942088 5:1.3229292 6:0.57845574 7:0.34755608 8:-1.1277307 9:-0.79237548 10:-0.12576704 11:-0.13868094 12:-1.1967901 13:-1.0396484 14:-0.017196152 15:0.80881194 16:0.3651173 17:-0.11830238 18:0.0049268394 19:-0.25369024 20:0.093880118 21:0.23019206 22:-0.19939411 23:-0.2794975 24:0.69484585 25:0.69280873 26:1.8709861 27:-0.57435596 28:0.91778365 29:1.1792233 30:0.20516354 31:-0.64573473 32:1.1092557 33:1.1878186 34:1.3727872 35:0.50400384 36:1.4720149 37:0.5823702 38:-0.012446009 39:0.41724581 40:-0.028504331 41:1.3880443 42:-1.4495848 43:0.86242042 44:0.20444572 45:-0.28842757 46:0.74390793 47:0.86028986 48:0.93910549 49:-0.81952538 50:0.4506509 
